<?xml version="1.0"?>
<opencv_storage>
<opencv_ml_svm>
  <format>3</format>
  <svmType>C_SVC</svmType>
  <kernel>
    <type>RBF</type>
    <gamma>5.0625000000000009e-01</gamma></kernel>
  <C>2.5000000000000000e+00</C>
  <term_criteria><iterations>100</iterations></term_criteria>
  <var_count>475</var_count>
  <class_count>2</class_count>
  <class_labels type_id="opencv-matrix">
    <rows>2</rows>
    <cols>1</cols>
    <dt>i</dt>
    <data>
      1 2</data></class_labels>
  <sv_total>13</sv_total>
  <support_vectors>
    <_>
      5.79233468e-01 4.58704114e-01 6.73853934e-01 4.85117100e-02
      5.82140498e-02 0. 0. 0. 0. 0. 0. 0. 0. 0. 0. 0. 0. 0. 0. 0. 0. 0.
      0. 0. 0. 0. 0. 0. 0. 0. 0. 0. 0. 0. 0. 0. 0. 0. 0. 8.08528450e-04
      3.89710724e-01 1.22087799e-01 0. 0. 0. 0. 1.53620401e-02
      1.43109530e-01 4.85117082e-03 0. 0. 0. 0. 0. 0. 0. 0. 0. 0. 0. 0.
      0. 0. 0. 0. 0. 0. 0. 0. 0. 0. 0. 0. 0. 0. 0. 0. 0. 0. 0. 0. 0.
      8.08528450e-04 3.75965714e-01 2.49835297e-01 0. 0. 0. 0.
      4.85117082e-03 1.81110367e-01 3.23411380e-03 0. 0. 0. 0. 0. 0. 0.
      0. 0. 0. 0. 0. 0. 0. 0. 0. 0. 0. 0. 0. 0. 0. 0. 0. 0. 0. 0. 0. 0.
      0. 0. 0. 0. 0. 2.70048499e-01 2.86219060e-01 0. 0. 0. 0.
      8.08528438e-03 3.25836986e-01 0. 0. 0. 0. 0. 0. 0. 0. 0. 0. 0. 0.
      0. 0. 0. 0. 0. 0. 0. 0. 0. 0. 0. 0. 0. 0. 0. 0. 0. 0. 0. 0. 0. 0.
      0. 2.69239962e-01 2.37707376e-01 0. 0. 0. 0. 1.21279275e-02
      2.43367076e-01 0. 0. 0. 0. 0. 0. 0. 0. 0. 0. 0. 0. 0. 0. 0. 0. 0.
      0. 0. 0. 0. 0. 0. 0. 0. 0. 0. 0. 0. 0. 0. 0. 0. 0. 0.
      2.81367898e-01 0. 0. 0. 0. 0. 2.03749165e-01 5.00459850e-01
      7.35970363e-02 8.34099799e-02 3.27097960e-02 6.70550764e-02
      2.61678360e-02 3.59807760e-02 5.07001840e-02 9.64938924e-02
      3.10743060e-02 2.78033260e-02 2.12613661e-02 5.23356721e-02
      1.14484280e-02 4.25227322e-02 6.54195920e-02 7.19615519e-02
      1.30839180e-02 2.28968561e-02 8.17744900e-03 1.47194080e-02
      3.27097951e-03 1.79903880e-02 6.54195901e-03 4.08872440e-02
      1.96258761e-02 2.28968561e-02 1.79903880e-02 4.74292040e-02
      1.14484280e-02 6.21486120e-02 6.70550764e-02 1.09577812e-01
      3.92517522e-02 2.28968561e-02 1.63548980e-02 1.96258761e-02
      4.90646902e-03 1.14484280e-02 9.81293805e-03 2.94388160e-02
      4.90646902e-03 4.90646902e-03 1.63548975e-03 2.45323461e-02
      4.90646902e-03 1.79903880e-02 1.79903880e-02 3.92517522e-02
      1.30839180e-02 4.90646902e-03 4.90646902e-03 1.14484280e-02
      1.63548975e-03 8.17744900e-03 1.30839180e-02 5.39711602e-02
      1.30839180e-02 9.81293805e-03 2.94388160e-02 9.81293842e-02
      2.12613661e-02 7.52325282e-02 6.70550764e-02 6.70550764e-02
      1.47194080e-02 2.28968561e-02 1.47194080e-02 2.61678360e-02
      4.90646902e-03 1.63548980e-02 1.63548980e-02 2.45323461e-02
      4.90646902e-03 1.63548975e-03 4.90646902e-03 1.47194080e-02
      6.54195901e-03 9.81293805e-03 1.63548980e-02 1.63548980e-02
      6.54195901e-03 6.54195901e-03 6.54195901e-03 1.63548975e-03
      4.90646902e-03 3.27097951e-03 1.63548975e-03 1.30839180e-02
      6.54195901e-03 6.54195901e-03 6.54195901e-03 1.47194080e-02
      8.17744900e-03 1.63548980e-02 3.27097960e-02 4.90646921e-02
      1.14484280e-02 1.14484280e-02 1.14484280e-02 9.81293805e-03
      4.90646902e-03 8.17744900e-03 1.47194080e-02 3.76162641e-02
      1.63548975e-03 6.54195901e-03 0. 1.47194080e-02 1.63548975e-03
      9.81293805e-03 1.79903880e-02 5.88776320e-02 9.81293805e-03
      1.47194080e-02 9.81293805e-03 2.12613661e-02 3.27097951e-03
      9.81293805e-03 1.79903880e-02 7.85035044e-02 2.12613661e-02
      1.14484280e-02 2.12613661e-02 7.85035044e-02 3.27097960e-02
      6.37841001e-02 1.06306836e-01 1.04671344e-01 3.76162641e-02
      1.63548980e-02 7.68680200e-02 2.94388160e-02 1.30839180e-02
      2.45323461e-02 8.17744881e-02 4.25227322e-02 9.81293805e-03
      8.17744900e-03 8.17744900e-03 1.63548980e-02 4.90646902e-03
      1.30839180e-02 6.70550764e-02 1.14484280e-02 1.63548980e-02
      8.17744900e-03 1.14484280e-02 6.54195901e-03 3.27097951e-03
      1.63548975e-03 1.63548980e-02 6.54195901e-03 8.17744900e-03
      3.27097951e-03 8.17744900e-03 1.14484280e-02 9.81293805e-03
      1.30839180e-02 7.52325282e-02 2.78033260e-02 1.63548980e-02
      6.54195901e-03 1.14484280e-02 3.27097951e-03 4.90646902e-03
      4.90646902e-03 8.17744900e-03 1.14484280e-02 6.54195901e-03
      4.90646902e-03 4.90646902e-03 3.27097951e-03 1.63548975e-03
      1.63548975e-03 1.79903880e-02 2.45323461e-02 1.96258761e-02
      8.17744900e-03 1.14484280e-02 0. 3.27097951e-03 6.54195901e-03
      1.47194080e-02 8.17744900e-03 1.96258761e-02 3.27097951e-03
      1.30839180e-02 9.81293805e-03 1.47194080e-02 2.12613661e-02
      1.04671344e-01 4.90646921e-02 5.07001840e-02 2.12613661e-02
      8.50454643e-02 1.79903880e-02 1.30839180e-02 1.79903880e-02
      1.09577812e-01 1.30839180e-02 8.17744900e-03 4.90646902e-03
      2.12613661e-02 1.79903880e-02 1.47194080e-02 1.14484280e-02
      4.25227322e-02 6.54195901e-03 1.47194080e-02 8.17744900e-03
      1.79903880e-02 4.90646902e-03 3.27097951e-03 8.17744900e-03
      2.78033260e-02 1.14484280e-02 1.14484280e-02 8.17744900e-03
      2.12613661e-02 1.14484280e-02 8.17744900e-03 1.63548980e-02
      8.66809562e-02 6.21486120e-02 5.88776320e-02 1.30839180e-02
      6.37841001e-02 4.90646902e-03 1.63548980e-02 1.63548975e-03
      5.07001840e-02 1.14484280e-02 1.30839180e-02 1.63548975e-03
      1.30839180e-02 1.47194080e-02 1.47194080e-02 1.96258761e-02
      7.85035044e-02 7.35970363e-02 7.68680200e-02 1.63548980e-02
      4.90646921e-02 6.54195901e-03 2.78033260e-02 2.45323461e-02
      8.50454643e-02 7.52325282e-02 4.57937121e-02 1.47194080e-02
      7.52325282e-02 4.74292040e-02 7.85035044e-02 6.70550764e-02
      6.52560413e-01</_>
    <_>
      5.77491939e-01 4.67360675e-01 6.69385552e-01 3.05619463e-02
      5.60302362e-02 1.69788592e-03 0. 0. 0. 0. 0. 0. 0. 0. 0. 0. 0. 0.
      0. 0. 0. 0. 0. 0. 0. 0. 0. 0. 0. 0. 0. 0. 0. 0. 0. 0. 0. 0. 0. 0.
      2.56380767e-01 8.65921825e-02 0. 0. 0. 0. 6.79154368e-03
      1.47716075e-01 3.39577184e-03 0. 0. 0. 0. 0. 0. 0. 0. 0. 0. 0. 0.
      0. 0. 0. 0. 0. 0. 0. 0. 0. 0. 0. 0. 0. 0. 0. 0. 0. 0. 0. 0. 0. 0.
      3.12411010e-01 2.73359627e-01 1.69788592e-03 0. 0. 0. 0.
      1.83371678e-01 3.39577184e-03 0. 0. 0. 0. 0. 0. 0. 0. 0. 0. 0. 0.
      0. 0. 0. 0. 0. 0. 0. 0. 0. 0. 0. 0. 0. 0. 0. 0. 0. 0. 0. 0. 0. 0.
      3.37879300e-01 2.81849056e-01 0. 0. 0. 0. 8.48942902e-03
      2.95432150e-01 3.39577184e-03 0. 0. 0. 0. 0. 0. 0. 0. 0. 0. 0. 0.
      0. 0. 0. 0. 0. 0. 0. 0. 0. 0. 0. 0. 0. 0. 0. 0. 0. 0. 0. 0. 0. 0.
      3.03921580e-01 2.37704024e-01 0. 0. 0. 0. 1.01873158e-02
      3.39577168e-01 0. 0. 0. 0. 0. 0. 0. 0. 0. 0. 0. 0. 0. 0. 0. 0. 0.
      0. 0. 0. 0. 0. 0. 0. 0. 0. 0. 0. 0. 0. 0. 0. 0. 0. 0.
      3.09015244e-01 0. 0. 0. 0. 0. 2.32610375e-01 5.09795070e-01
      8.72936770e-02 1.32686391e-01 4.19009626e-02 7.68184364e-02
      2.79339757e-02 4.53927107e-02 4.53927107e-02 8.03101808e-02
      2.09504813e-02 1.74587350e-02 3.14257219e-02 4.53927107e-02
      6.98349392e-03 3.84092182e-02 5.58679514e-02 4.19009626e-02
      2.79339757e-02 2.79339757e-02 6.98349392e-03 1.39669878e-02
      6.98349392e-03 6.98349392e-03 1.39669878e-02 3.14257219e-02
      3.49174696e-03 1.74587350e-02 2.09504813e-02 5.23762032e-02
      1.04752406e-02 6.28514439e-02 6.63431957e-02 1.25702888e-01
      2.44422294e-02 1.74587350e-02 1.04752406e-02 2.79339757e-02
      2.09504813e-02 1.74587350e-02 1.04752406e-02 4.88844588e-02 0.
      3.49174696e-03 3.49174696e-03 1.04752406e-02 3.49174696e-03
      2.09504813e-02 3.49174696e-03 4.53927107e-02 1.74587350e-02
      1.04752406e-02 1.39669878e-02 0. 3.49174696e-03 1.04752406e-02
      3.49174696e-03 7.68184364e-02 2.79339757e-02 1.04752406e-02
      2.44422294e-02 1.15227647e-01 1.04752406e-02 7.68184364e-02
      5.58679514e-02 9.42771658e-02 1.74587350e-02 4.88844588e-02
      1.39669878e-02 1.04752406e-02 6.98349392e-03 1.39669878e-02
      1.04752406e-02 4.19009626e-02 3.49174696e-03 0. 0. 1.04752406e-02
      3.49174696e-03 1.74587350e-02 3.49174696e-03 3.14257219e-02 0.
      6.98349392e-03 0. 1.04752406e-02 3.49174696e-03 3.49174696e-03 0.
      1.04752406e-02 6.98349392e-03 0. 3.49174696e-03 1.04752406e-02
      3.49174696e-03 1.74587350e-02 1.39669878e-02 6.98349401e-02
      1.04752406e-02 1.74587350e-02 3.49174696e-03 1.04752406e-02 0.
      6.98349392e-03 6.98349392e-03 4.19009626e-02 0. 0. 0.
      2.79339757e-02 3.49174696e-03 6.98349392e-03 1.74587350e-02
      4.88844588e-02 2.09504813e-02 1.04752406e-02 1.74587350e-02
      3.49174701e-02 0. 2.09504813e-02 2.09504813e-02 7.68184364e-02
      2.09504813e-02 1.39669878e-02 1.39669878e-02 1.08244158e-01
      1.39669878e-02 5.23762032e-02 5.93596995e-02 1.04752406e-01
      4.88844588e-02 2.44422294e-02 5.93596995e-02 2.44422294e-02
      1.39669878e-02 1.74587350e-02 1.04752406e-01 5.58679514e-02
      6.98349392e-03 3.49174696e-03 1.39669878e-02 6.98349392e-03
      3.49174696e-03 6.98349392e-03 7.33266845e-02 2.09504813e-02
      3.49174696e-03 6.98349392e-03 3.49174701e-02 6.98349392e-03
      3.49174696e-03 0. 1.74587350e-02 1.04752406e-02 3.49174696e-03
      3.49174696e-03 6.98349392e-03 1.74587350e-02 2.44422294e-02
      1.39669878e-02 5.58679514e-02 1.74587350e-02 1.39669878e-02
      3.49174696e-03 2.44422294e-02 6.98349392e-03 0. 1.39669878e-02
      1.74587350e-02 6.98349392e-03 3.49174696e-03 0. 0. 3.49174696e-03
      2.79339757e-02 0. 2.79339757e-02 2.09504813e-02 1.39669878e-02
      6.98349392e-03 2.09504813e-02 0. 0. 2.09504813e-02 1.04752406e-02
      1.39669878e-02 1.74587350e-02 0. 2.09504813e-02 1.04752406e-02
      1.74587350e-02 6.98349392e-03 9.07854214e-02 8.03101808e-02
      5.93596995e-02 2.44422294e-02 1.22211143e-01 1.04752406e-02
      1.04752406e-02 1.74587350e-02 6.63431957e-02 1.74587350e-02
      2.09504813e-02 0. 2.09504813e-02 3.49174696e-03 1.04752406e-02
      6.98349392e-03 8.03101808e-02 0. 6.98349392e-03 1.04752406e-02
      2.79339757e-02 3.49174696e-03 6.98349392e-03 1.04752406e-02
      2.44422294e-02 6.98349392e-03 1.39669878e-02 3.49174696e-03
      6.98349392e-03 6.98349392e-03 1.74587350e-02 6.98349392e-03
      9.42771658e-02 5.58679514e-02 4.53927107e-02 6.98349392e-03
      7.33266845e-02 3.49174696e-03 6.98349392e-03 0. 6.28514439e-02
      2.44422294e-02 3.49174696e-03 3.49174696e-03 1.74587350e-02
      2.09504813e-02 1.74587350e-02 1.04752406e-02 7.68184364e-02
      6.98349401e-02 4.88844588e-02 2.09504813e-02 4.19009626e-02
      1.74587350e-02 2.44422294e-02 1.74587350e-02 9.42771658e-02
      9.07854214e-02 8.72936770e-02 2.79339757e-02 9.07854214e-02
      7.33266845e-02 7.68184364e-02 9.77689177e-02 6.04072213e-01</_>
    <_>
      5.79756677e-01 4.69175279e-01 6.66150689e-01 4.46768478e-02
      5.95691279e-02 0. 0. 0. 0. 0. 0. 0. 0. 0. 0. 0. 0. 0. 0. 0. 0. 0.
      0. 0. 0. 0. 0. 0. 0. 0. 0. 0. 0. 0. 0. 0. 0. 0. 0. 0.
      3.94645452e-01 7.69434571e-02 0. 0. 0. 0. 9.92818829e-03
      9.92818773e-02 0. 0. 0. 0. 0. 0. 0. 0. 0. 0. 0. 0. 0. 0. 0. 0. 0.
      0. 0. 0. 0. 0. 0. 0. 0. 0. 0. 0. 4.96409414e-03 2.48204707e-03 0.
      0. 0. 0. 4.96409414e-03 3.12737912e-01 1.63815096e-01 0. 0. 0. 0.
      9.92818829e-03 1.51404858e-01 4.96409414e-03 0. 0. 0. 0. 0. 0. 0.
      0. 0. 0. 0. 0. 0. 0. 0. 0. 0. 0. 0. 0. 0. 0. 0. 0. 0. 0. 0. 0.
      2.48204707e-03 0. 0. 0. 0. 0. 2.53168792e-01 2.38276511e-01 0. 0.
      0. 0. 1.48922820e-02 3.05291772e-01 7.44614098e-03 0. 0. 0. 0. 0.
      0. 0. 0. 0. 0. 0. 0. 0. 0. 0. 0. 0. 0. 0. 0. 0. 0. 0. 0. 0. 0. 0.
      0. 0. 0. 0. 0. 0. 0. 3.20184052e-01 3.15219969e-01 0. 0. 0. 0.
      1.98563766e-02 3.64860922e-01 0. 0. 0. 0. 0. 0. 0. 0. 0. 0. 0. 0.
      0. 0. 0. 0. 0. 0. 0. 0. 0. 0. 0. 0. 0. 0. 0. 0. 0. 0. 0. 0. 0. 0.
      0. 2.28348330e-01 0. 0. 0. 0. 0. 2.70543098e-01 5.51142335e-01
      9.69602317e-02 1.42888755e-01 4.08253595e-02 7.65475482e-02
      1.53095098e-02 4.59285304e-02 6.63412064e-02 1.02063403e-01
      2.04126798e-02 4.08253595e-02 4.08253595e-02 3.57221887e-02
      2.04126798e-02 6.12380393e-02 7.14443773e-02 7.65475482e-02
      1.53095098e-02 2.55158506e-02 2.55158506e-02 2.04126798e-02
      1.02063399e-02 2.04126798e-02 5.10316994e-03 4.59285304e-02
      5.10316994e-03 1.53095098e-02 2.04126798e-02 5.10317013e-02
      2.55158506e-02 4.59285304e-02 9.18570608e-02 1.17372908e-01
      2.55158506e-02 4.59285304e-02 5.10316994e-03 5.61348684e-02 0.
      2.04126798e-02 0. 4.08253595e-02 1.02063399e-02 2.04126798e-02 0.
      1.02063399e-02 5.10316994e-03 1.02063399e-02 5.10316994e-03
      3.57221887e-02 1.02063399e-02 2.55158506e-02 0. 2.04126798e-02
      5.10316994e-03 0. 2.55158506e-02 3.57221887e-02 1.02063399e-02
      2.55158506e-02 1.02063399e-02 6.63412064e-02 1.53095098e-02
      4.59285304e-02 1.02063403e-01 9.18570608e-02 2.55158506e-02
      4.08253595e-02 1.53095098e-02 1.53095098e-02 0. 1.02063399e-02
      1.02063399e-02 1.53095098e-02 5.10316994e-03 0. 1.02063399e-02
      2.55158506e-02 0. 2.04126798e-02 3.06190196e-02 2.55158506e-02 0.
      1.02063399e-02 0. 0. 1.02063399e-02 0. 5.10316994e-03
      2.55158506e-02 5.10316994e-03 0. 5.10316994e-03 3.06190196e-02
      5.10316994e-03 1.53095098e-02 2.55158506e-02 2.55158506e-02
      1.02063399e-02 2.55158506e-02 1.53095098e-02 1.02063399e-02 0.
      5.10316994e-03 1.53095098e-02 3.57221887e-02 5.10316994e-03 0.
      2.04126798e-02 1.53095098e-02 5.10316994e-03 1.53095098e-02
      3.57221887e-02 6.12380393e-02 1.02063399e-02 5.10316994e-03
      1.02063399e-02 5.10316994e-03 5.10316994e-03 5.10316994e-03
      1.02063399e-02 7.65475482e-02 5.10316994e-03 5.10316994e-03
      1.53095098e-02 1.02063403e-01 3.57221887e-02 4.08253595e-02
      7.14443773e-02 1.17372908e-01 4.59285304e-02 3.57221887e-02
      5.61348684e-02 2.55158506e-02 1.02063399e-02 2.04126798e-02
      7.65475482e-02 2.55158506e-02 1.02063399e-02 5.10316994e-03
      2.04126798e-02 5.10316994e-03 1.02063399e-02 3.06190196e-02
      7.14443773e-02 3.06190196e-02 2.55158506e-02 5.10316994e-03
      1.02063399e-02 0. 5.10316994e-03 0. 1.02063399e-02 1.02063399e-02
      1.02063399e-02 0. 5.10316994e-03 1.53095098e-02 0. 2.04126798e-02
      5.10317013e-02 5.10317013e-02 1.53095098e-02 1.02063399e-02
      5.10316994e-03 0. 5.10316994e-03 5.10316994e-03 0. 5.10316994e-03
      5.10316994e-03 0. 5.10316994e-03 1.02063399e-02 5.10316994e-03 0.
      5.10316994e-03 2.55158506e-02 1.02063399e-02 5.10316994e-03 0. 0.
      5.10316994e-03 0. 2.04126798e-02 5.10316994e-03 5.10316994e-03
      1.02063399e-02 3.06190196e-02 2.55158506e-02 5.10316994e-03
      2.04126798e-02 8.16507190e-02 5.10317013e-02 4.08253595e-02
      4.59285304e-02 1.02063403e-01 1.53095098e-02 1.02063399e-02
      3.06190196e-02 7.14443773e-02 0. 1.02063399e-02 0. 2.55158506e-02
      1.02063399e-02 3.06190196e-02 1.02063399e-02 5.10317013e-02
      1.53095098e-02 1.02063399e-02 0. 1.02063399e-02 0. 5.10316994e-03
      1.02063399e-02 4.59285304e-02 0. 5.10316994e-03 5.10316994e-03
      1.53095098e-02 5.10316994e-03 1.02063399e-02 3.06190196e-02
      8.16507190e-02 3.06190196e-02 8.67538899e-02 0. 7.14443773e-02
      5.10316994e-03 1.02063399e-02 1.53095098e-02 3.57221887e-02 0.
      1.53095098e-02 0. 1.53095098e-02 1.53095098e-02 1.53095098e-02
      1.02063399e-02 6.12380393e-02 9.18570608e-02 8.67538899e-02
      1.53095098e-02 2.55158506e-02 2.04126798e-02 1.53095098e-02
      1.02063399e-02 8.67538899e-02 9.69602317e-02 5.61348684e-02
      2.55158506e-02 8.16507190e-02 3.06190196e-02 5.61348684e-02
      8.16507190e-02 5.81761360e-01</_>
    <_>
      5.76650500e-01 5.51916122e-01 6.02380872e-01 6.38797553e-03
      7.98496883e-03 0. 0. 0. 0. 0. 0. 0. 0. 0. 0. 0. 0. 0. 0. 0. 0. 0.
      0. 0. 0. 0. 0. 0. 0. 0. 0. 0. 0. 0. 0. 0. 0. 0. 0. 0.
      5.27007990e-02 2.23579146e-02 0. 0. 0. 0. 0. 3.83278541e-02 0. 0.
      0. 0. 0. 0. 0. 0. 0. 0. 0. 0. 0. 0. 0. 0. 0. 0. 0. 0. 0. 0. 0. 0.
      0. 0. 0. 0. 0. 0. 0. 0. 0. 0. 0. 2.55519021e-02 1.75669324e-02 0.
      0. 0. 0. 9.58196353e-03 1.27759511e-02 0. 0. 0. 0. 0. 0. 0. 0. 0.
      0. 0. 0. 0. 0. 0. 0. 0. 0. 0. 0. 0. 0. 0. 0. 0. 0. 0. 0. 0. 0. 0.
      0. 0. 0. 0. 3.03428844e-02 2.55519021e-02 0. 0. 0. 0.
      7.98496883e-03 2.39549093e-02 0. 0. 0. 0. 0. 0. 0. 0. 0. 0. 0. 0.
      0. 0. 0. 0. 0. 0. 0. 0. 0. 0. 0. 0. 0. 0. 0. 0. 0. 0. 0. 0. 0. 0.
      0. 4.95068096e-02 2.07609199e-02 0. 0. 0. 0. 6.38797553e-03
      5.90887740e-02 0. 0. 0. 0. 0. 0. 0. 0. 0. 0. 0. 0. 0. 0. 0. 0. 0.
      0. 0. 0. 0. 0. 0. 0. 0. 0. 0. 0. 0. 0. 0. 0. 0. 0. 0.
      7.02677295e-02 0. 0. 0. 0. 0. 9.90136206e-01 3.17493111e-01
      3.88767086e-02 3.88767086e-02 1.94383543e-02 3.23972553e-02
      6.47945143e-03 2.59178057e-02 2.59178057e-02 7.77534172e-02
      6.47945143e-03 6.47945143e-03 0. 2.59178057e-02 6.47945143e-03
      5.18356115e-02 1.29589029e-02 5.18356115e-02 0. 6.47945143e-03
      1.29589029e-02 1.29589029e-02 6.47945143e-03 1.94383543e-02 0.
      3.23972553e-02 6.47945143e-03 2.59178057e-02 6.47945143e-03
      3.23972553e-02 0. 1.03671223e-01 5.83150610e-02 7.77534172e-02
      1.94383543e-02 1.94383543e-02 0. 6.47945143e-03 6.47945143e-03 0.
      0. 1.94383543e-02 0. 0. 6.47945143e-03 6.47945143e-03 0.
      1.29589029e-02 6.47945143e-03 3.88767086e-02 1.29589029e-02 0.
      1.29589029e-02 0. 6.47945143e-03 0. 0. 8.42328668e-02
      6.47945143e-03 1.29589029e-02 1.94383543e-02 8.42328668e-02
      1.94383543e-02 4.53561619e-02 5.18356115e-02 5.83150610e-02 0.
      6.47945143e-03 0. 1.29589029e-02 6.47945143e-03 6.47945143e-03
      6.47945143e-03 1.29589029e-02 6.47945143e-03 0. 0. 0. 0.
      6.47945143e-03 1.94383543e-02 1.29589029e-02 1.94383543e-02 0. 0.
      6.47945143e-03 0. 0. 6.47945143e-03 0. 0. 6.47945143e-03
      6.47945143e-03 0. 6.47945143e-03 1.94383543e-02 1.29589029e-02
      3.88767086e-02 0. 6.47945143e-03 0. 1.29589029e-02 0.
      6.47945143e-03 0. 1.29589029e-02 0. 0. 6.47945143e-03
      1.94383543e-02 1.29589029e-02 6.47945143e-03 1.29589029e-02
      4.53561619e-02 6.47945143e-03 0. 6.47945143e-03 0. 0.
      6.47945143e-03 1.94383543e-02 1.55506834e-01 2.59178057e-02
      1.94383543e-02 6.47945143e-03 9.71917734e-02 6.47945143e-03
      6.47945106e-02 1.23109579e-01 9.07123238e-02 2.59178057e-02
      1.94383543e-02 3.88767086e-02 6.47945143e-03 0. 6.47945143e-03
      9.07123238e-02 7.12739676e-02 0. 0. 1.29589029e-02 1.94383543e-02
      0. 1.29589029e-02 4.53561619e-02 1.29589029e-02 1.29589029e-02
      1.29589029e-02 6.47945143e-03 6.47945143e-03 0. 0. 6.47945143e-03
      0. 6.47945143e-03 0. 1.94383543e-02 1.94383543e-02 1.29589029e-02
      6.47945143e-03 5.18356115e-02 1.94383543e-02 1.29589029e-02
      1.29589029e-02 0. 0. 0. 0. 6.47945143e-03 0. 6.47945143e-03 0. 0.
      6.47945143e-03 0. 6.47945143e-03 2.59178057e-02 0. 1.94383543e-02
      0. 6.47945143e-03 6.47945143e-03 0. 6.47945143e-03 0.
      6.47945143e-03 2.59178057e-02 6.47945143e-03 1.94383543e-02 0.
      2.59178057e-02 1.29589029e-02 8.42328668e-02 6.47945143e-03
      1.94383543e-02 1.29589029e-02 1.94383543e-02 0. 1.29589029e-02
      3.23972553e-02 8.42328668e-02 6.47945143e-03 0. 0. 0.
      6.47945143e-03 6.47945143e-03 6.47945143e-03 7.12739676e-02 0.
      1.29589029e-02 6.47945143e-03 1.29589029e-02 0. 0. 0.
      6.47945143e-03 6.47945143e-03 0. 6.47945143e-03 2.59178057e-02 0.
      0. 1.94383543e-02 6.47945106e-02 1.29589029e-02 5.18356115e-02 0.
      5.18356115e-02 3.23972553e-02 0. 1.29589029e-02 5.83150610e-02 0.
      0. 0. 0. 1.29589029e-02 1.94383543e-02 4.53561619e-02
      7.77534172e-02 1.10150672e-01 4.53561619e-02 0. 6.47945106e-02
      1.29589029e-02 0. 6.47945143e-03 1.10150672e-01 1.36068478e-01
      7.77534172e-02 3.23972553e-02 5.83150610e-02 5.83150610e-02
      5.83150610e-02 7.77534172e-02 7.84013629e-01</_>
    <_>
      5.75487137e-01 5.70368707e-01 5.86083770e-01 0. 0. 0. 0. 0. 0. 0.
      0. 0. 0. 0. 0. 0. 0. 0. 0. 0. 0. 0. 0. 0. 0. 0. 0. 0. 0. 0. 0. 0.
      0. 0. 0. 0. 0. 0. 0. 0. 3.13829700e-03 2.09219800e-03 0. 0. 0. 0.
      3.13829700e-03 3.13829700e-03 0. 0. 0. 0. 0. 0. 0. 0. 0. 0. 0. 0.
      0. 0. 0. 0. 0. 0. 0. 0. 0. 0. 0. 0. 0. 0. 0. 0. 0. 0. 0. 0. 0. 0.
      0. 3.13829700e-03 2.09219800e-03 0. 0. 0. 0. 1.04609900e-03
      2.09219800e-03 0. 0. 0. 0. 0. 0. 0. 0. 0. 0. 0. 0. 0. 0. 0. 0. 0.
      0. 0. 0. 0. 0. 0. 0. 0. 0. 0. 0. 0. 0. 0. 0. 0. 0. 0.
      6.27659401e-03 0. 0. 0. 0. 0. 6.27659401e-03 3.13829700e-03 0. 0.
      0. 0. 0. 0. 0. 0. 0. 0. 0. 0. 0. 0. 0. 0. 0. 0. 0. 0. 0. 0. 0. 0.
      0. 0. 0. 0. 0. 0. 0. 0. 0. 0. 1.04609900e-03 6.27659401e-03
      1.04609900e-03 0. 0. 0. 0. 1.35992868e-02 1.77836828e-02 0. 0. 0.
      0. 0. 0. 0. 0. 0. 0. 0. 0. 0. 0. 0. 0. 0. 0. 0. 0. 0. 0. 0. 0. 0.
      0. 0. 0. 0. 0. 0. 0. 0. 0. 0. 3.55673656e-02 0. 0. 0. 0. 0.
      9.99024510e-01 1.57907829e-01 2.13388950e-02 2.56066751e-02
      8.53555836e-03 1.28033375e-02 1.28033375e-02 8.53555836e-03
      8.53555836e-03 6.82844669e-02 2.56066751e-02 1.28033375e-02
      8.53555836e-03 8.53555836e-03 0. 2.56066751e-02 1.70711167e-02
      2.13388950e-02 0. 4.26777918e-03 0. 4.26777918e-03 0.
      4.26777918e-03 0. 2.56066751e-02 8.53555836e-03 0. 1.28033375e-02
      8.53555836e-03 0. 8.53555836e-03 2.98744552e-02 4.69455719e-02
      8.53555836e-03 3.41422334e-02 1.28033375e-02 0. 0. 0. 0.
      4.26777918e-03 0. 0. 0. 4.26777918e-03 0. 0. 0. 1.28033375e-02
      4.26777918e-03 4.26777918e-03 0. 0. 4.26777918e-03 0. 0.
      3.41422334e-02 8.53555836e-03 0. 1.70711167e-02 8.53555836e-03
      8.53555836e-03 8.10878053e-02 1.70711167e-02 2.98744552e-02 0.
      1.28033375e-02 0. 4.26777918e-03 0. 8.53555836e-03 8.53555836e-03
      3.84100117e-02 0. 0. 0. 4.26777918e-03 0. 1.70711167e-02
      1.28033375e-02 0. 0. 4.26777918e-03 0. 0. 0. 4.26777918e-03 0. 0.
      0. 0. 0. 1.28033375e-02 0. 8.53555836e-03 4.26777918e-03
      1.28033375e-02 0. 4.26777918e-03 4.26777918e-03 4.26777918e-03 0.
      0. 0. 2.98744552e-02 4.26777918e-03 0. 8.53555836e-03
      1.70711167e-02 0. 4.26777918e-03 1.28033375e-02 8.53555836e-03
      8.53555836e-03 0. 0. 0. 0. 0. 8.53555836e-03 1.19497821e-01
      3.84100117e-02 0. 3.41422334e-02 3.41422334e-02 1.28033375e-02
      4.69455719e-02 1.10962257e-01 1.19497821e-01 2.13388950e-02 0.
      3.41422334e-02 5.12133501e-02 4.26777918e-03 3.41422334e-02
      1.45104498e-01 2.13388950e-02 8.53555836e-03 0. 4.26777918e-03
      8.53555836e-03 0. 0. 8.53555799e-02 8.53555836e-03 8.53555836e-03
      0. 1.28033375e-02 4.26777918e-03 0. 4.26777918e-03 3.41422334e-02
      0. 0. 0. 8.53555836e-03 4.26777918e-03 4.26777918e-03
      4.26777918e-03 4.69455719e-02 1.70711167e-02 0. 0. 0. 0. 0. 0.
      4.26777918e-03 0. 0. 0. 4.26777918e-03 0. 4.26777918e-03 0.
      4.26777918e-03 8.53555836e-03 4.26777918e-03 4.26777918e-03
      4.26777918e-03 1.28033375e-02 0. 8.53555836e-03 2.98744552e-02
      8.53555836e-03 8.53555836e-03 0. 8.53555836e-03 0. 0.
      1.28033375e-02 2.13388950e-02 4.26777918e-03 8.53555836e-03 0.
      3.84100117e-02 4.26777918e-03 0. 1.70711167e-02 4.26777899e-02 0.
      0. 0. 4.26777918e-03 0. 8.53555836e-03 0. 4.26777899e-02 0.
      4.26777918e-03 0. 4.26777918e-03 4.26777918e-03 4.26777918e-03 0.
      1.70711167e-02 0. 4.26777918e-03 0. 4.26777918e-03 0.
      4.26777918e-03 1.70711167e-02 2.13388950e-02 1.28033375e-02
      2.56066751e-02 1.70711167e-02 1.10962257e-01 2.13388950e-02
      1.28033375e-02 8.53555836e-03 3.84100117e-02 8.53555836e-03 0. 0.
      1.70711167e-02 1.28033375e-02 4.26777918e-03 2.13388950e-02
      5.12133501e-02 2.98744552e-02 2.56066751e-02 0. 4.26777899e-02
      8.53555836e-03 4.26777918e-03 1.28033375e-02 1.23765595e-01
      8.53555799e-02 5.12133501e-02 8.53555836e-03 1.02426700e-01
      5.12133501e-02 2.56066751e-02 4.69455719e-02 8.87698054e-01</_>
    <_>
      5.74187756e-01 4.61430728e-01 6.76306188e-01 1.62283927e-02
      2.34410111e-02 0. 0. 0. 0. 0. 0. 0. 0. 0. 0. 0. 0. 0. 0. 0. 0. 0.
      0. 0. 0. 0. 0. 0. 0. 0. 0. 0. 0. 0. 0. 0. 0. 0. 0. 0.
      2.36213252e-01 1.22614510e-01 3.60630918e-03 0. 0. 0.
      2.34410111e-02 1.40646055e-01 5.40946377e-03 0. 0. 0. 0. 0. 0. 0.
      0. 0. 0. 0. 0. 0. 0. 0. 0. 0. 0. 0. 0. 0. 0. 0. 0. 0. 0. 0. 0. 0.
      0. 0. 0. 0. 3.60630918e-03 2.86701590e-01 2.75882661e-01
      1.80315459e-03 0. 0. 0. 5.40946377e-03 1.85724929e-01
      1.26220817e-02 0. 0. 0. 0. 0. 0. 0. 0. 0. 0. 0. 0. 0. 0. 0. 0. 0.
      0. 0. 0. 0. 0. 0. 0. 0. 0. 0. 0. 0. 0. 0. 0. 0. 0. 3.22764665e-01
      3.94890845e-01 0. 0. 0. 0. 1.26220817e-02 3.75056177e-01
      9.01577249e-03 0. 0. 0. 0. 0. 0. 0. 0. 0. 0. 0. 0. 0. 0. 0. 0. 0.
      0. 0. 0. 0. 0. 0. 0. 0. 0. 0. 0. 0. 0. 0. 0. 0. 0. 2.39819556e-01
      3.04733127e-01 0. 0. 0. 0. 2.88504735e-02 2.97520518e-01 0. 0. 0.
      0. 0. 0. 0. 0. 0. 0. 0. 0. 0. 0. 0. 0. 0. 0. 0. 0. 0. 0. 0. 0. 0.
      0. 0. 0. 0. 0. 0. 0. 0. 0. 0. 2.34410107e-01 0. 0. 0. 0. 0.
      1.38842911e-01 5.15860975e-01 4.75616492e-02 1.13416240e-01
      4.39030603e-02 1.02440469e-01 3.29272933e-02 4.39030603e-02
      4.75616492e-02 8.04889426e-02 7.31717655e-03 2.56101172e-02
      2.56101172e-02 1.09757651e-02 1.46343531e-02 8.04889426e-02
      8.04889426e-02 7.68303573e-02 1.46343531e-02 2.19515301e-02
      1.46343531e-02 2.92687062e-02 0. 1.82929412e-02 1.82929412e-02
      5.48788235e-02 2.56101172e-02 2.92687062e-02 7.31717655e-03
      3.29272933e-02 1.46343531e-02 8.41475278e-02 9.14647058e-02
      8.78061205e-02 1.46343531e-02 2.56101172e-02 7.31717655e-03
      1.46343531e-02 1.46343531e-02 3.65858828e-03 1.82929412e-02
      2.92687062e-02 7.31717655e-03 1.46343531e-02 0. 1.09757651e-02
      3.65858828e-03 2.56101172e-02 2.19515301e-02 4.02444713e-02
      2.19515301e-02 1.09757651e-02 1.09757651e-02 2.19515301e-02
      3.65858828e-03 1.46343531e-02 1.09757651e-02 3.29272933e-02
      1.82929412e-02 1.46343531e-02 1.09757651e-02 2.19515301e-02
      2.92687062e-02 4.02444713e-02 6.21960014e-02 8.04889426e-02
      1.82929412e-02 1.82929412e-02 7.31717655e-03 2.19515301e-02
      7.31717655e-03 7.31717655e-03 1.82929412e-02 1.46343531e-02
      1.09757651e-02 3.65858828e-03 3.65858828e-03 2.56101172e-02 0.
      1.46343531e-02 1.82929412e-02 7.31717655e-03 0. 1.82929412e-02 0.
      7.31717655e-03 3.65858828e-03 0. 1.09757651e-02 2.19515301e-02 0.
      7.31717655e-03 1.09757651e-02 2.56101172e-02 7.31717655e-03
      2.19515301e-02 2.56101172e-02 4.02444713e-02 1.82929412e-02
      2.19515301e-02 1.09757651e-02 3.65858828e-03 7.31717655e-03
      1.46343531e-02 2.19515301e-02 6.21960014e-02 0. 0. 3.65858828e-03
      1.82929412e-02 0. 1.46343531e-02 2.56101172e-02 4.02444713e-02
      1.82929412e-02 1.09757651e-02 7.31717655e-03 3.65858828e-03
      3.65858828e-03 7.31717655e-03 1.09757651e-02 1.02440469e-01
      1.82929412e-02 7.31717655e-03 2.19515301e-02 7.31717646e-02
      1.46343531e-02 5.85374124e-02 1.13416240e-01 9.87818837e-02
      5.12202345e-02 4.75616492e-02 5.85374124e-02 1.46343531e-02
      7.31717655e-03 2.19515301e-02 8.78061205e-02 2.92687062e-02
      1.09757651e-02 0. 1.82929412e-02 1.09757651e-02 1.09757651e-02
      1.46343531e-02 8.41475278e-02 2.56101172e-02 1.46343531e-02
      7.31717655e-03 1.09757651e-02 1.46343531e-02 3.65858828e-03
      7.31717655e-03 1.46343531e-02 2.19515301e-02 7.31717655e-03 0.
      1.46343531e-02 3.65858828e-03 3.65858828e-03 1.09757651e-02
      4.75616492e-02 3.29272933e-02 1.46343531e-02 1.09757651e-02
      1.46343531e-02 3.65858828e-03 3.65858828e-03 3.65858828e-03
      7.31717655e-03 7.31717655e-03 3.65858828e-03 3.65858828e-03 0.
      3.65858828e-03 3.65858828e-03 1.82929412e-02 2.92687062e-02
      2.92687062e-02 7.31717655e-03 0. 1.09757651e-02 0. 3.65858828e-03
      1.09757651e-02 3.29272933e-02 1.46343531e-02 7.31717655e-03
      3.65858828e-03 1.82929412e-02 1.82929412e-02 3.65858828e-03
      2.19515301e-02 9.87818837e-02 4.39030603e-02 4.02444713e-02
      1.09757651e-02 6.58545867e-02 1.82929412e-02 3.65858828e-03
      7.31717655e-03 9.14647058e-02 7.31717655e-03 1.82929412e-02 0.
      1.09757651e-02 1.09757651e-02 7.31717655e-03 1.46343531e-02
      6.21960014e-02 1.46343531e-02 7.31717655e-03 0. 1.82929412e-02 0.
      3.65858828e-03 3.65858828e-03 5.12202345e-02 7.31717655e-03
      7.31717655e-03 0. 1.82929412e-02 3.65858828e-03 3.29272933e-02
      2.56101172e-02 1.09757647e-01 4.39030603e-02 8.78061205e-02
      7.31717655e-03 5.12202345e-02 3.65858828e-03 3.65858823e-02
      2.19515301e-02 4.02444713e-02 1.46343531e-02 1.46343531e-02 0.
      1.46343531e-02 7.31717655e-03 1.46343531e-02 1.09757651e-02
      7.68303573e-02 4.39030603e-02 5.85374124e-02 7.31717655e-03
      9.14647058e-02 7.31717655e-03 2.92687062e-02 1.09757651e-02
      9.87818837e-02 6.21960014e-02 7.31717646e-02 2.92687062e-02
      7.31717646e-02 3.65858823e-02 8.78061205e-02 1.06099062e-01
      6.25618577e-01</_>
    <_>
      5.78308880e-01 4.57047373e-01 6.75771058e-01 3.67472395e-02
      5.51208630e-02 0. 0. 0. 0. 0. 0. 0. 0. 0. 0. 0. 0. 0. 0. 0. 0. 0.
      0. 0. 0. 0. 0. 0. 0. 0. 0. 0. 0. 0. 0. 0. 0. 0. 0. 6.12454023e-03
      3.87377143e-01 1.01054907e-01 0. 0. 0. 0. 1.99047551e-02
      1.40864432e-01 1.53113506e-03 0. 0. 0. 0. 0. 0. 0. 0. 0. 0. 0. 0.
      0. 0. 0. 0. 0. 0. 0. 0. 0. 0. 0. 0. 0. 0. 0. 0. 0. 0. 0. 0. 0.
      3.06227012e-03 3.52161050e-01 2.37325922e-01 0. 0. 0. 0.
      9.18680988e-03 2.26607978e-01 3.06227012e-03 0. 0. 0. 0. 0. 0. 0.
      0. 0. 0. 0. 0. 0. 0. 0. 0. 0. 0. 0. 0. 0. 0. 0. 0. 0. 0. 0. 0. 0.
      0. 0. 0. 0. 0. 3.00102472e-01 3.62879008e-01 0. 0. 0. 0.
      1.53113492e-02 3.15413803e-01 6.12454023e-03 0. 0. 0. 0. 0. 0. 0.
      0. 0. 0. 0. 0. 0. 0. 0. 0. 0. 0. 0. 0. 0. 0. 0. 0. 0. 0. 0. 0. 0.
      0. 0. 0. 0. 0. 2.51106143e-01 2.61824101e-01 0. 0. 0. 0.
      2.29670256e-02 2.25076854e-01 0. 0. 0. 0. 0. 0. 0. 0. 0. 0. 0. 0.
      0. 0. 0. 0. 0. 0. 0. 0. 0. 0. 0. 0. 0. 0. 0. 0. 0. 0. 0. 0. 0. 0.
      0. 2.11296633e-01 0. 0. 0. 0. 0. 1.85267344e-01 4.29018468e-01
      7.09886700e-02 9.56803784e-02 5.24698831e-02 7.71615952e-02
      1.85187832e-02 2.46917102e-02 7.40751326e-02 1.32717937e-01
      2.46917102e-02 3.39511000e-02 1.85187832e-02 6.17292747e-02
      1.85187832e-02 7.09886700e-02 8.64209831e-02 8.33345205e-02
      1.54323187e-02 1.85187832e-02 1.23458551e-02 2.77781747e-02
      6.17292756e-03 6.17292756e-03 1.85187832e-02 6.79021999e-02
      1.54323187e-02 3.08646373e-02 1.85187832e-02 4.01240289e-02
      6.17292756e-03 6.17292747e-02 8.33345205e-02 8.33345205e-02
      2.77781747e-02 1.85187832e-02 3.08646378e-03 1.85187832e-02
      6.17292756e-03 1.23458551e-02 6.17292756e-03 2.77781747e-02
      6.17292756e-03 3.08646378e-03 3.08646378e-03 2.46917102e-02
      3.08646378e-03 6.17292756e-03 1.85187832e-02 5.24698831e-02
      6.17292756e-03 1.23458551e-02 6.17292756e-03 3.08646378e-03
      9.25939158e-03 6.17292756e-03 0. 5.24698831e-02 2.77781747e-02
      2.16052458e-02 1.54323187e-02 6.48157373e-02 1.85187832e-02
      5.86428121e-02 8.64209831e-02 7.09886700e-02 6.17292756e-03
      2.77781747e-02 9.25939158e-03 1.85187832e-02 3.08646378e-03
      1.85187832e-02 2.46917102e-02 1.54323187e-02 6.17292756e-03
      6.17292756e-03 3.08646378e-03 6.17292756e-03 9.25939158e-03
      6.17292756e-03 1.85187832e-02 1.23458551e-02 6.17292756e-03
      6.17292756e-03 6.17292756e-03 9.25939158e-03 0. 3.08646378e-03
      9.25939158e-03 2.16052458e-02 6.17292756e-03 3.08646378e-03 0.
      1.23458551e-02 0. 1.54323187e-02 2.46917102e-02 3.08646373e-02
      1.85187832e-02 2.16052458e-02 0. 9.25939158e-03 9.25939158e-03
      1.23458551e-02 3.08646378e-03 1.85187832e-02 6.17292756e-03
      3.08646378e-03 3.08646378e-03 2.46917102e-02 3.08646378e-03
      1.23458551e-02 2.16052458e-02 6.79021999e-02 1.23458551e-02
      1.85187832e-02 0. 1.23458551e-02 9.25939158e-03 6.17292756e-03
      3.70375663e-02 9.25939158e-02 2.16052458e-02 2.16052458e-02
      1.85187832e-02 9.25939158e-02 3.08646373e-02 8.02480578e-02
      1.04939766e-01 9.25939158e-02 4.62969579e-02 2.16052458e-02
      4.01240289e-02 1.54323187e-02 3.08646378e-03 2.77781747e-02
      8.02480578e-02 4.01240289e-02 2.16052458e-02 0. 1.54323187e-02
      6.17292756e-03 1.85187832e-02 3.08646373e-02 9.56803784e-02
      1.54323187e-02 1.23458551e-02 0. 9.25939158e-03 0. 3.08646378e-03
      6.17292756e-03 1.23458551e-02 1.85187832e-02 1.85187832e-02
      9.25939158e-03 1.54323187e-02 6.17292756e-03 6.17292756e-03
      6.17292756e-03 6.79021999e-02 6.17292756e-03 2.16052458e-02
      3.08646378e-03 1.23458551e-02 6.17292756e-03 0. 3.08646378e-03
      1.85187832e-02 0. 0. 0. 0. 6.17292756e-03 0. 3.08646378e-03
      2.77781747e-02 9.25939158e-03 2.46917102e-02 9.25939158e-03
      2.46917102e-02 0. 3.08646378e-03 0. 3.70375663e-02 9.25939158e-03
      1.23458551e-02 3.08646378e-03 1.85187832e-02 3.08646378e-03
      2.16052458e-02 1.54323187e-02 9.25939158e-02 3.08646373e-02
      1.23458551e-02 1.23458551e-02 9.56803784e-02 1.85187832e-02
      6.17292756e-03 1.54323187e-02 8.33345205e-02 1.54323187e-02 0.
      9.25939158e-03 1.23458551e-02 6.17292756e-03 9.25939158e-03
      1.23458551e-02 4.93834205e-02 1.54323187e-02 1.23458551e-02 0.
      1.23458551e-02 3.08646378e-03 6.17292756e-03 6.17292756e-03
      1.85187832e-02 9.25939158e-03 0. 6.17292756e-03 2.46917102e-02
      1.23458551e-02 1.54323187e-02 2.16052458e-02 8.02480578e-02
      9.56803784e-02 5.55563495e-02 2.46917102e-02 5.86428121e-02
      1.85187832e-02 3.39511000e-02 1.23458551e-02 3.70375663e-02
      1.54323187e-02 1.54323187e-02 0. 1.85187832e-02 9.25939158e-03
      1.23458551e-02 6.17292756e-03 8.02480578e-02 7.71615952e-02
      1.11112699e-01 1.23458551e-02 4.93834205e-02 3.08646378e-03
      3.08646373e-02 2.16052458e-02 7.71615952e-02 9.25939158e-02
      5.55563495e-02 2.16052458e-02 8.02480578e-02 4.93834205e-02
      8.02480578e-02 9.25939158e-02 6.75935566e-01</_>
    <_>
      5.74777484e-01 5.67408025e-01 5.89643121e-01 0. 7.40124146e-04 0.
      0. 0. 0. 0. 0. 0. 0. 0. 0. 0. 0. 0. 0. 0. 0. 0. 0. 0. 0. 0. 0. 0.
      0. 0. 0. 0. 0. 0. 0. 0. 0. 0. 0. 0. 7.40124099e-03 5.18086879e-03
      0. 0. 0. 0. 0. 5.18086879e-03 0. 0. 0. 0. 0. 0. 0. 0. 0. 0. 0. 0.
      0. 0. 0. 0. 0. 0. 0. 0. 0. 0. 0. 0. 0. 0. 0. 0. 0. 0. 0. 0. 0. 0.
      0. 8.88148975e-03 1.77629795e-02 0. 0. 0. 0. 0. 1.11018624e-02 0.
      0. 0. 0. 0. 0. 0. 0. 0. 0. 0. 0. 0. 0. 0. 0. 0. 0. 0. 0. 0. 0. 0.
      0. 0. 0. 0. 0. 0. 0. 0. 0. 0. 0. 0. 1.99833512e-02 3.70062049e-03
      0. 0. 0. 0. 0. 6.66111708e-03 0. 0. 0. 0. 0. 0. 0. 0. 0. 0. 0. 0.
      0. 0. 0. 0. 0. 0. 0. 0. 0. 0. 0. 0. 0. 0. 0. 0. 0. 0. 0. 0. 0. 0.
      0. 1.33222342e-02 4.44074487e-03 0. 0. 0. 0. 9.62161366e-03
      1.99833512e-02 0. 0. 0. 0. 0. 0. 0. 0. 0. 0. 0. 0. 0. 0. 0. 0. 0.
      0. 0. 0. 0. 0. 0. 0. 0. 0. 0. 0. 0. 0. 0. 0. 0. 0. 0.
      3.70062068e-02 0. 0. 0. 0. 0. 9.98427451e-01 2.07319334e-01
      3.81904021e-02 4.63740602e-02 1.09115439e-02 2.72788592e-02
      1.36394296e-02 1.90952010e-02 8.18365812e-03 4.63740602e-02
      1.63673162e-02 1.36394296e-02 5.45577193e-03 8.18365812e-03
      2.72788596e-03 2.45509744e-02 3.00067458e-02 3.27346325e-02
      8.18365812e-03 0. 2.72788596e-03 8.18365812e-03 0. 0.
      5.45577193e-03 1.09115439e-02 5.45577193e-03 0. 1.36394296e-02
      8.18365812e-03 5.45577193e-03 4.36461754e-02 3.81904021e-02
      4.36461754e-02 2.72788596e-03 1.09115439e-02 0. 1.36394296e-02
      5.45577193e-03 5.45577193e-03 5.45577193e-03 8.18365812e-03 0. 0.
      5.45577193e-03 8.18365812e-03 0. 2.72788596e-03 2.72788596e-03
      1.36394296e-02 0. 2.72788596e-03 5.45577193e-03 0. 0.
      2.72788596e-03 2.72788596e-03 2.18230877e-02 1.09115439e-02
      1.09115439e-02 8.18365812e-03 4.36461754e-02 0. 6.54692650e-02
      3.81904021e-02 2.45509744e-02 1.09115439e-02 2.18230877e-02
      2.72788596e-03 8.18365812e-03 2.72788596e-03 2.72788596e-03
      2.72788596e-03 8.18365812e-03 8.18365812e-03 8.18365812e-03
      5.45577193e-03 2.72788596e-03 2.72788596e-03 1.36394296e-02
      5.45577193e-03 8.18365812e-03 2.72788596e-03 8.18365812e-03
      2.72788596e-03 2.72788596e-03 0. 5.45577193e-03 2.72788596e-03
      2.72788596e-03 2.72788596e-03 2.72788596e-03 0. 0. 2.72788596e-03
      2.72788596e-03 0. 1.63673162e-02 1.09115439e-02 2.72788596e-03 0.
      2.72788596e-03 0. 2.72788596e-03 2.72788596e-03 5.45577193e-03 0.
      2.72788596e-03 5.45577193e-03 5.45577193e-03 2.72788596e-03
      2.72788596e-03 8.18365812e-03 1.09115439e-02 0. 2.72788596e-03
      2.72788596e-03 2.72788596e-03 0. 5.45577193e-03 1.63673162e-02
      3.27346325e-02 2.72788596e-03 5.45577193e-03 5.45577193e-03
      3.27346325e-02 8.18365812e-03 6.81971461e-02 6.00134917e-02
      3.54625173e-02 5.45577193e-03 2.72788596e-03 2.18230877e-02
      5.45577193e-03 2.72788596e-03 5.45577193e-03 1.90952010e-02
      1.90952010e-02 1.09115439e-02 0. 8.18365812e-03 5.45577193e-03 0.
      2.72788596e-03 1.17299095e-01 1.09115439e-02 8.18365812e-03
      2.72788596e-03 8.18365812e-03 2.72788596e-03 5.45577193e-03
      8.18365812e-03 1.36394296e-02 2.72788596e-03 2.72788596e-03
      2.72788596e-03 5.45577193e-03 5.45577193e-03 0. 2.72788596e-03
      4.63740602e-02 5.45577193e-03 8.18365812e-03 0. 1.09115439e-02
      2.72788596e-03 2.72788596e-03 0. 0. 0. 0. 0. 0. 2.72788596e-03
      2.72788596e-03 2.72788596e-03 1.90952010e-02 5.45577193e-03
      5.45577193e-03 0. 8.18365812e-03 2.72788596e-03 5.45577193e-03 0.
      2.72788596e-03 5.45577193e-03 5.45577193e-03 1.63673162e-02
      5.45577193e-03 1.90952010e-02 5.45577193e-03 1.09115439e-02
      9.27481204e-02 1.90952010e-02 8.18365812e-03 8.18365812e-03
      4.09182906e-02 8.18365812e-03 2.72788596e-03 0. 2.45509744e-02
      5.45577193e-03 5.45577193e-03 0. 8.18365812e-03 0. 2.72788596e-03
      2.72788596e-03 4.63740602e-02 2.72788596e-03 5.45577193e-03
      2.72788596e-03 5.45577193e-03 0. 2.72788596e-03 0. 2.72788596e-03
      2.72788596e-03 5.45577193e-03 8.18365812e-03 2.72788596e-03 0.
      5.45577193e-03 2.72788596e-03 4.63740602e-02 2.72788592e-02
      2.18230877e-02 5.45577193e-03 8.18365812e-02 8.18365812e-03
      5.45577193e-03 0. 4.91019487e-02 8.18365812e-03 8.18365812e-03
      2.72788596e-03 2.18230877e-02 5.45577193e-03 2.72788596e-03
      2.18230877e-02 9.00202394e-02 2.72788592e-02 2.72788592e-02
      8.18365812e-03 2.72788592e-02 2.72788596e-03 0. 1.90952010e-02
      3.81904021e-02 1.09115437e-01 4.63740602e-02 2.18230877e-02
      7.63808042e-02 4.91019487e-02 3.81904021e-02 8.72923508e-02
      9.08386052e-01</_>
    <_>
      5.74006557e-01 5.12259007e-01 6.38832688e-01 2.49779969e-03
      9.99119878e-03 0. 0. 0. 0. 0. 0. 0. 0. 0. 0. 0. 0. 0. 0. 0. 0. 0.
      0. 0. 0. 0. 0. 0. 0. 0. 0. 0. 0. 0. 0. 0. 0. 0. 0. 0.
      4.62092943e-02 7.49339908e-03 0. 0. 0. 0. 4.99559939e-03
      4.99559939e-02 0. 0. 0. 0. 0. 0. 0. 0. 0. 0. 0. 0. 0. 0. 0. 0. 0.
      0. 0. 0. 0. 0. 0. 0. 0. 0. 0. 0. 0. 0. 0. 0. 0. 0. 0.
      6.86894953e-02 2.99735963e-02 0. 0. 0. 0. 3.74669954e-03
      8.61740932e-02 0. 0. 0. 0. 0. 0. 0. 0. 0. 0. 0. 0. 0. 0. 0. 0. 0.
      0. 0. 0. 0. 0. 0. 0. 0. 0. 0. 0. 0. 0. 0. 0. 0. 0. 0.
      1.56112477e-01 5.37026934e-02 0. 0. 0. 0. 1.87334977e-02
      3.03482652e-01 0. 0. 0. 0. 0. 0. 0. 0. 0. 0. 0. 0. 0. 0. 0. 0. 0.
      0. 0. 0. 0. 0. 0. 0. 0. 0. 0. 0. 0. 0. 0. 0. 0. 0. 0.
      3.73421043e-01 9.86630917e-02 0. 0. 0. 0. 1.03658684e-01
      5.70747256e-01 0. 0. 0. 0. 0. 0. 0. 0. 0. 0. 0. 0. 0. 0. 0. 0. 0.
      0. 0. 0. 0. 0. 0. 0. 0. 0. 0. 0. 0. 0. 0. 0. 0. 0. 0.
      4.57097352e-01 0. 0. 0. 0. 0. 4.09639150e-01 5.64851105e-01
      8.02683160e-02 1.09997325e-01 3.56748067e-02 1.39726326e-01
      2.08103042e-02 1.48645034e-02 1.48645034e-02 5.05393110e-02
      1.78374033e-02 2.37832051e-02 1.78374033e-02 2.37832051e-02
      8.91870167e-03 2.08103042e-02 2.67561059e-02 7.43225142e-02
      1.78374033e-02 1.18916025e-02 1.48645034e-02 3.27019058e-02
      1.18916025e-02 5.94580127e-03 8.91870167e-03 3.56748067e-02
      5.94580127e-03 1.78374033e-02 1.18916025e-02 1.18916025e-02
      1.48645034e-02 3.56748067e-02 3.86477076e-02 1.09997325e-01
      2.08103042e-02 4.45935093e-02 8.91870167e-03 3.27019058e-02
      8.91870167e-03 0. 8.91870167e-03 4.75664102e-02 8.91870167e-03
      8.91870167e-03 8.91870167e-03 3.56748067e-02 3.27019058e-02
      2.08103042e-02 8.91870167e-03 2.97290068e-02 8.91870167e-03
      5.94580127e-03 2.97290063e-03 8.91870167e-03 1.18916025e-02
      5.94580127e-03 5.94580127e-03 3.27019058e-02 1.78374033e-02
      2.37832051e-02 1.78374033e-02 4.75664102e-02 2.97290068e-02
      2.97290068e-02 3.56748067e-02 1.21888928e-01 2.67561059e-02
      3.56748067e-02 1.18916025e-02 2.67561059e-02 8.91870167e-03
      1.18916025e-02 5.94580127e-03 5.94580136e-02 1.18916025e-02
      5.94580127e-03 8.91870167e-03 1.18916025e-02 5.94580127e-03
      5.94580127e-03 5.94580127e-03 2.67561059e-02 8.91870167e-03
      1.48645034e-02 5.94580127e-03 5.94580127e-03 5.94580127e-03
      8.91870167e-03 1.18916025e-02 2.37832051e-02 8.91870167e-03
      8.91870167e-03 1.18916025e-02 8.91870167e-03 0. 3.27019058e-02
      1.18916025e-02 3.86477076e-02 1.48645034e-02 5.94580127e-03
      2.97290063e-03 1.48645034e-02 1.18916025e-02 8.91870167e-03
      2.97290063e-03 2.67561059e-02 8.91870167e-03 5.94580127e-03
      1.18916025e-02 8.91870167e-03 1.18916025e-02 2.37832051e-02
      1.78374033e-02 2.97290068e-02 2.97290063e-03 5.94580127e-03
      1.18916025e-02 0. 5.94580127e-03 1.78374033e-02 1.48645034e-02
      4.45935093e-02 2.08103042e-02 8.91870167e-03 2.97290068e-02
      3.86477076e-02 1.18916025e-02 2.97290068e-02 8.02683160e-02
      5.05393110e-02 2.37832051e-02 2.97290068e-02 4.45935093e-02
      2.37832051e-02 2.97290063e-03 2.67561059e-02 3.27019058e-02
      5.94580127e-03 5.94580127e-03 0. 5.94580127e-03 8.91870167e-03
      8.91870167e-03 1.18916025e-02 4.75664102e-02 2.37832051e-02
      8.91870167e-03 1.78374033e-02 3.27019058e-02 1.18916025e-02
      5.94580127e-03 2.37832051e-02 5.94580127e-03 5.94580127e-03
      5.94580127e-03 2.97290063e-03 1.18916025e-02 8.91870167e-03
      1.48645034e-02 8.91870167e-03 4.75664102e-02 1.48645034e-02
      2.08103042e-02 2.97290063e-03 8.91870167e-03 1.18916025e-02
      5.94580127e-03 5.94580127e-03 1.18916025e-02 1.18916025e-02
      5.94580127e-03 1.18916025e-02 5.94580127e-03 8.91870167e-03
      1.78374033e-02 1.18916025e-02 1.78374033e-02 1.78374033e-02
      1.48645034e-02 8.91870167e-03 2.37832051e-02 5.94580127e-03
      2.97290063e-03 1.48645034e-02 1.48645034e-02 8.91870167e-03
      2.08103042e-02 0. 3.56748067e-02 1.18916025e-02 3.27019058e-02
      2.67561059e-02 9.81057212e-02 4.16206084e-02 2.37832051e-02
      1.48645034e-02 4.45935093e-02 1.78374033e-02 8.91870167e-03
      5.94580127e-03 4.75664102e-02 8.91870167e-03 0. 1.48645034e-02
      5.94580127e-03 8.91870167e-03 5.94580127e-03 5.94580127e-03
      4.16206084e-02 1.78374033e-02 1.78374033e-02 2.37832051e-02
      2.97290068e-02 0. 5.94580127e-03 5.94580127e-03 2.67561059e-02
      5.94580127e-03 2.97290063e-03 1.48645034e-02 3.27019058e-02
      1.48645034e-02 1.48645034e-02 2.97290068e-02 1.07024424e-01
      3.86477076e-02 3.86477076e-02 8.91870167e-03 2.67561059e-02
      1.18916025e-02 1.78374033e-02 1.48645034e-02 3.56748067e-02
      1.48645034e-02 1.78374033e-02 2.97290063e-03 2.37832051e-02
      1.18916025e-02 2.37832051e-02 1.18916025e-02 9.21599194e-02
      2.08103042e-02 3.86477076e-02 1.48645034e-02 3.86477076e-02
      1.48645034e-02 1.18916025e-02 1.78374033e-02 6.54038116e-02
      4.75664102e-02 4.16206084e-02 2.37832051e-02 1.15943126e-01
      2.67561059e-02 9.51328203e-02 6.54038116e-02 6.57011032e-01</_>
    <_>
      5.73686242e-01 4.84066010e-01 6.60730004e-01 4.55403700e-03
      4.55403700e-03 0. 0. 0. 0. 0. 0. 0. 0. 0. 0. 0. 0. 0. 0. 0. 0. 0.
      0. 0. 0. 0. 0. 0. 0. 0. 0. 0. 0. 0. 0. 0. 0. 0. 0. 0.
      1.59391295e-02 2.73242220e-02 0. 0. 0. 0. 6.83105551e-03
      3.64322960e-02 0. 0. 0. 0. 0. 0. 0. 0. 0. 0. 0. 0. 0. 0. 0. 0. 0.
      0. 0. 0. 0. 0. 0. 0. 0. 0. 0. 0. 0. 0. 0. 0. 0. 0. 0.
      1.68499365e-01 1.93546563e-01 0. 0. 0. 0. 2.27701850e-03
      1.57114267e-01 2.27701850e-03 0. 0. 0. 0. 0. 0. 0. 0. 0. 0. 0. 0.
      0. 0. 0. 0. 0. 0. 0. 0. 0. 0. 0. 0. 0. 0. 0. 0. 0. 0. 0. 0. 0. 0.
      3.16505551e-01 3.02843451e-01 0. 0. 0. 0. 9.10807401e-03
      3.96201223e-01 0. 0. 0. 0. 0. 0. 0. 0. 0. 0. 0. 0. 0. 0. 0. 0. 0.
      0. 0. 0. 0. 0. 0. 0. 0. 0. 0. 0. 0. 0. 0. 0. 0. 0. 0.
      4.30356473e-01 2.39086926e-01 0. 0. 0. 0. 2.73242220e-02
      4.14417356e-01 0. 0. 0. 0. 0. 0. 0. 0. 0. 0. 0. 0. 0. 0. 0. 0. 0.
      0. 0. 0. 0. 0. 0. 0. 0. 0. 0. 0. 0. 0. 0. 0. 0. 0. 0.
      3.00566435e-01 0. 0. 0. 0. 0. 2.29978859e-01 5.35311520e-01
      6.87556118e-02 8.34889561e-02 1.96444597e-02 8.34889561e-02
      1.96444597e-02 3.92889194e-02 3.43778059e-02 1.08044527e-01
      1.96444597e-02 2.94666886e-02 3.92889194e-02 9.82222985e-03
      1.47333443e-02 4.91111502e-02 4.91111502e-02 9.82223004e-02
      9.82222985e-03 4.91111493e-03 4.91111493e-03 1.96444597e-02
      4.91111493e-03 1.96444597e-02 1.96444597e-02 2.45555751e-02
      9.82222985e-03 1.47333443e-02 4.91111493e-03 4.42000329e-02
      1.96444597e-02 4.42000329e-02 6.38444945e-02 4.91111502e-02
      2.45555751e-02 3.43778059e-02 4.91111493e-03 1.47333443e-02
      1.47333443e-02 9.82222985e-03 1.96444597e-02 1.96444597e-02
      9.82222985e-03 9.82222985e-03 0. 2.45555751e-02 4.91111493e-03
      9.82222985e-03 4.91111493e-03 1.96444597e-02 9.82222985e-03 0. 0.
      1.96444597e-02 4.91111493e-03 0. 2.45555751e-02 5.40222637e-02
      1.96444597e-02 0. 0. 3.92889194e-02 4.91111493e-03 3.92889194e-02
      4.91111502e-02 6.38444945e-02 1.47333443e-02 9.82222985e-03
      4.91111493e-03 1.96444597e-02 4.91111493e-03 1.47333443e-02
      9.82222985e-03 4.42000329e-02 0. 9.82222985e-03 0. 9.82222985e-03
      4.91111493e-03 9.82222985e-03 1.96444597e-02 9.82222985e-03
      4.91111493e-03 4.91111493e-03 0. 0. 0. 9.82222985e-03
      2.94666886e-02 2.45555751e-02 9.82222985e-03 0. 4.91111493e-03
      1.96444597e-02 9.82222985e-03 1.96444597e-02 2.45555751e-02
      1.96444597e-02 9.82222985e-03 1.47333443e-02 4.91111493e-03
      4.91111493e-03 4.91111493e-03 4.91111493e-03 0. 1.96444597e-02
      9.82222985e-03 0. 0. 9.82222985e-03 4.91111493e-03 9.82222985e-03
      3.92889194e-02 4.42000329e-02 9.82222985e-03 9.82222985e-03
      9.82222985e-03 1.47333443e-02 9.82222985e-03 2.45555751e-02
      1.96444597e-02 9.82223004e-02 4.91111502e-02 4.91111493e-03
      5.40222637e-02 4.42000329e-02 1.96444597e-02 9.82223004e-02
      9.82223004e-02 1.22777872e-01 4.42000329e-02 2.94666886e-02
      4.91111502e-02 1.96444597e-02 1.47333443e-02 4.91111502e-02
      9.33111832e-02 3.43778059e-02 1.96444597e-02 4.91111493e-03
      9.82222985e-03 3.43778059e-02 1.47333443e-02 4.91111493e-03
      5.40222637e-02 4.42000329e-02 9.82222985e-03 9.82222985e-03
      4.91111493e-03 4.91111493e-03 4.91111493e-03 0. 2.94666886e-02
      1.47333443e-02 9.82222985e-03 9.82222985e-03 1.47333443e-02
      4.91111493e-03 4.91111493e-03 1.47333443e-02 6.38444945e-02
      2.45555751e-02 1.47333443e-02 9.82222985e-03 2.45555751e-02
      4.91111493e-03 0. 9.82222985e-03 1.96444597e-02 4.91111493e-03
      9.82222985e-03 4.91111493e-03 4.91111493e-03 4.91111493e-03
      9.82222985e-03 9.82222985e-03 2.45555751e-02 1.96444597e-02
      9.82222985e-03 4.91111493e-03 2.45555751e-02 9.82222985e-03
      4.91111493e-03 4.91111493e-03 3.43778059e-02 1.47333443e-02
      1.96444597e-02 0. 1.47333443e-02 0. 1.96444597e-02 1.47333443e-02
      9.82223004e-02 9.82222985e-03 1.96444597e-02 1.96444597e-02
      4.91111502e-02 1.47333443e-02 4.91111493e-03 1.47333443e-02
      8.34889561e-02 9.82222985e-03 0. 0. 4.91111493e-03 4.91111493e-03
      9.82222985e-03 1.47333443e-02 3.92889194e-02 9.82222985e-03
      9.82222985e-03 9.82222985e-03 1.96444597e-02 0. 4.91111493e-03 0.
      3.43778059e-02 2.45555751e-02 9.82222985e-03 1.47333443e-02
      1.96444597e-02 0. 4.91111493e-03 4.91111493e-03 5.40222637e-02
      2.94666886e-02 3.92889194e-02 9.82222985e-03 3.43778059e-02
      2.45555751e-02 1.96444597e-02 1.96444597e-02 5.89333773e-02
      4.91111493e-03 9.82222985e-03 9.82222985e-03 9.82222985e-03
      1.96444597e-02 9.82222985e-03 1.47333443e-02 1.27688989e-01
      7.36667216e-02 5.40222637e-02 1.96444597e-02 3.43778059e-02
      4.91111502e-02 2.94666886e-02 4.91111493e-03 1.62066787e-01
      8.84000659e-02 3.43778059e-02 1.47333443e-02 8.34889561e-02
      3.43778059e-02 4.42000329e-02 1.12955645e-01 6.33533835e-01</_>
    <_>
      5.66525877e-01 4.79938567e-01 6.69856250e-01 3.07507184e-03
      1.02502387e-02 0. 0. 0. 0. 0. 0. 0. 0. 0. 0. 0. 0. 0. 0. 0. 0. 0.
      0. 0. 0. 0. 0. 0. 0. 0. 0. 0. 0. 0. 0. 0. 0. 0. 0. 0.
      5.33012450e-02 3.48508134e-02 1.02502387e-03 0. 0. 0.
      1.02502387e-03 4.81761247e-02 2.56255977e-02 0. 0. 0. 0. 0. 0. 0.
      0. 0. 0. 0. 0. 0. 0. 0. 0. 0. 0. 0. 0. 0. 0. 0. 0. 0. 0. 0. 0. 0.
      0. 0. 0. 0. 0. 1.00452341e-01 2.28580326e-01 4.10009548e-03 0. 0.
      0. 1.02502387e-03 1.39403254e-01 4.20259796e-02 0. 0. 0. 0. 0. 0.
      0. 0. 0. 0. 0. 0. 0. 0. 0. 0. 0. 0. 0. 0. 0. 0. 0. 0. 0. 0. 0. 0.
      0. 0. 0. 0. 0. 0. 2.20380142e-01 3.45433056e-01 0. 0. 0. 0.
      4.10009548e-03 3.82333905e-01 3.28007638e-02 0. 0. 0. 0. 0. 0. 0.
      0. 0. 0. 0. 0. 0. 0. 0. 0. 0. 0. 0. 0. 0. 0. 0. 0. 0. 0. 0. 0. 0.
      0. 0. 0. 0. 0. 3.31082731e-01 3.06482136e-01 0. 0. 0. 0.
      1.64003819e-02 4.63310778e-01 0. 0. 0. 0. 0. 0. 0. 0. 0. 0. 0. 0.
      0. 0. 0. 0. 0. 0. 0. 0. 0. 0. 0. 0. 0. 0. 0. 0. 0. 0. 0. 0. 0. 0.
      0. 3.70033622e-01 0. 0. 0. 0. 0. 1.96804598e-01 5.04423559e-01
      7.36068711e-02 9.52559486e-02 4.32981588e-02 6.06174245e-02
      2.38139872e-02 4.76279743e-02 4.54630665e-02 1.12575218e-01
      1.29894484e-02 2.59788968e-02 1.73192639e-02 3.24736200e-02
      1.73192639e-02 4.32981588e-02 4.32981588e-02 8.44314098e-02
      8.65963195e-03 2.16490794e-02 1.29894484e-02 1.29894484e-02
      1.08245397e-02 8.65963195e-03 1.73192639e-02 4.11332510e-02
      1.29894484e-02 1.08245397e-02 8.65963195e-03 4.11332510e-02
      8.65963195e-03 3.24736200e-02 4.97928821e-02 1.03915587e-01
      1.29894484e-02 3.24736200e-02 1.08245397e-02 2.16490794e-02
      6.49472419e-03 1.08245397e-02 4.32981597e-03 2.59788968e-02
      2.16490799e-03 4.32981597e-03 4.32981597e-03 8.65963195e-03
      4.32981597e-03 1.29894484e-02 4.32981597e-03 4.32981588e-02
      1.94841716e-02 1.29894484e-02 4.32981597e-03 1.51543561e-02
      6.49472419e-03 6.49472419e-03 1.29894484e-02 5.84525168e-02
      6.49472419e-03 1.08245397e-02 1.51543561e-02 4.11332510e-02
      2.38139872e-02 6.49472401e-02 4.97928821e-02 7.57717788e-02
      1.51543561e-02 1.51543561e-02 6.49472419e-03 1.29894484e-02
      2.16490799e-03 1.73192639e-02 8.65963195e-03 3.46385278e-02
      2.16490799e-03 2.16490799e-03 4.32981597e-03 2.16490794e-02
      2.16490799e-03 1.73192639e-02 1.73192639e-02 1.29894484e-02
      6.49472419e-03 6.49472419e-03 4.32981597e-03 6.49472419e-03 0.
      4.32981597e-03 8.65963195e-03 8.65963195e-03 2.16490799e-03 0.
      2.16490799e-03 1.51543561e-02 4.32981597e-03 6.49472419e-03
      2.59788968e-02 5.19577935e-02 6.49472419e-03 1.08245397e-02
      1.08245397e-02 1.51543561e-02 1.29894484e-02 8.65963195e-03
      1.73192639e-02 2.38139872e-02 6.49472419e-03 8.65963195e-03
      2.16490799e-03 2.81438045e-02 2.16490799e-03 2.38139872e-02
      1.73192639e-02 4.76279743e-02 1.29894484e-02 1.29894484e-02
      1.73192639e-02 1.51543561e-02 8.65963195e-03 1.51543561e-02
      3.24736200e-02 8.22665021e-02 3.46385278e-02 2.16490794e-02
      3.24736200e-02 7.14419633e-02 3.68034355e-02 5.41227013e-02
      1.27729565e-01 1.55873373e-01 2.38139872e-02 1.51543561e-02
      6.71121478e-02 2.59788968e-02 1.94841716e-02 4.11332510e-02
      6.27823323e-02 2.81438045e-02 2.16490794e-02 6.49472419e-03
      1.51543561e-02 1.29894484e-02 1.29894484e-02 6.49472419e-03
      6.71121478e-02 3.24736200e-02 1.29894484e-02 4.32981597e-03
      1.73192639e-02 1.29894484e-02 2.16490799e-03 2.16490799e-03
      2.81438045e-02 1.73192639e-02 8.65963195e-03 6.49472419e-03
      1.51543561e-02 1.29894484e-02 1.94841716e-02 6.49472419e-03
      4.54630665e-02 3.24736200e-02 6.49472419e-03 4.32981597e-03
      6.49472419e-03 4.32981597e-03 2.16490799e-03 2.16490799e-03
      1.51543561e-02 1.08245397e-02 2.16490799e-03 2.16490799e-03
      4.32981597e-03 1.29894484e-02 6.49472419e-03 1.08245397e-02
      1.94841716e-02 1.51543561e-02 1.29894484e-02 2.16490799e-03
      1.29894484e-02 6.49472419e-03 2.16490799e-03 8.65963195e-03
      2.16490794e-02 1.29894484e-02 6.49472419e-03 4.32981597e-03
      3.03087123e-02 1.51543561e-02 1.29894484e-02 1.51543561e-02
      7.79366866e-02 3.68034355e-02 3.89683433e-02 1.73192639e-02
      3.46385278e-02 1.08245397e-02 6.49472419e-03 1.08245397e-02
      6.06174245e-02 1.29894484e-02 1.08245397e-02 4.32981597e-03
      1.29894484e-02 4.32981597e-03 6.49472419e-03 8.65963195e-03
      6.06174245e-02 8.65963195e-03 8.65963195e-03 4.32981597e-03
      1.51543561e-02 4.32981597e-03 4.32981597e-03 4.32981597e-03
      1.94841716e-02 1.94841716e-02 1.94841716e-02 4.32981597e-03
      1.73192639e-02 6.49472419e-03 1.29894484e-02 1.29894484e-02
      6.49472401e-02 3.46385278e-02 2.81438045e-02 1.51543561e-02
      3.68034355e-02 8.65963195e-03 0. 4.32981597e-03 6.49472401e-02
      2.59788968e-02 1.08245397e-02 0. 1.73192639e-02 2.16490794e-02
      2.16490799e-03 1.51543561e-02 6.71121478e-02 7.14419633e-02
      4.97928821e-02 1.08245397e-02 4.11332510e-02 1.73192639e-02
      2.59788968e-02 2.16490794e-02 1.29894480e-01 7.14419633e-02
      5.19577935e-02 2.16490794e-02 7.36068711e-02 6.27823323e-02
      7.79366866e-02 7.14419633e-02 6.71121478e-01</_>
    <_>
      5.71949124e-01 4.65146303e-01 6.75657511e-01 2.16437550e-03
      1.51506281e-02 0. 0. 0. 0. 0. 0. 0. 0. 0. 0. 0. 0. 0. 0. 0. 0. 0.
      0. 0. 0. 0. 0. 0. 0. 0. 0. 0. 0. 0. 0. 0. 0. 0. 0. 0.
      4.54518870e-02 3.67943831e-02 0. 0. 0. 0. 6.49312651e-03
      4.11231332e-02 0. 0. 0. 0. 0. 0. 0. 0. 0. 0. 0. 0. 0. 0. 0. 0. 0.
      0. 0. 0. 0. 0. 0. 0. 0. 0. 0. 0. 0. 0. 0. 0. 0. 0. 0.
      1.19040653e-01 2.70546943e-01 0. 0. 0. 0. 4.32875101e-03
      1.86136290e-01 4.32875101e-03 0. 0. 0. 0. 0. 0. 0. 0. 0. 0. 0. 0.
      0. 0. 0. 0. 0. 0. 0. 0. 0. 0. 0. 0. 0. 0. 0. 0. 0. 0. 0. 0. 0. 0.
      3.28985065e-01 5.19450128e-01 0. 0. 0. 0. 2.16437550e-03
      4.22053218e-01 0. 0. 0. 0. 0. 0. 0. 0. 0. 0. 0. 0. 0. 0. 0. 0. 0.
      0. 0. 0. 0. 0. 0. 0. 0. 0. 0. 0. 0. 0. 0. 0. 0. 0. 0.
      3.07341307e-01 3.09505671e-01 0. 0. 0. 0. 1.73150040e-02
      2.22930670e-01 0. 0. 0. 0. 0. 0. 0. 0. 0. 0. 0. 0. 0. 0. 0. 0. 0.
      0. 0. 0. 0. 0. 0. 0. 0. 0. 0. 0. 0. 0. 0. 0. 0. 0. 0.
      2.59725064e-01 0. 0. 0. 0. 0. 9.30681452e-02 4.61245358e-01
      7.68742263e-02 7.68742263e-02 2.88278349e-02 7.20695853e-02
      2.40231957e-02 5.76556697e-02 3.36324722e-02 1.05702057e-01
      3.84371132e-02 2.40231957e-02 1.92185566e-02 3.36324722e-02
      1.92185566e-02 5.28510287e-02 7.20695853e-02 6.24603108e-02
      3.84371132e-02 1.92185566e-02 4.80463915e-03 2.88278349e-02
      4.80463915e-03 0. 2.40231957e-02 2.40231957e-02 1.44139174e-02
      1.92185566e-02 1.92185566e-02 3.84371132e-02 4.80463915e-03
      2.88278349e-02 2.88278349e-02 8.64835083e-02 4.80463915e-03
      1.44139174e-02 1.44139174e-02 1.44139174e-02 9.60927829e-03 0.
      4.80463915e-03 2.40231957e-02 1.44139174e-02 4.80463915e-03
      4.80463915e-03 0. 4.80463915e-03 1.92185566e-02 4.80463915e-03
      1.44139174e-02 9.60927829e-03 9.60927829e-03 4.80463915e-03
      2.40231957e-02 1.44139174e-02 4.80463915e-03 1.44139174e-02
      5.76556697e-02 2.88278349e-02 1.44139174e-02 1.44139174e-02
      2.88278349e-02 9.60927829e-03 3.84371132e-02 6.24603108e-02
      7.68742263e-02 4.32417542e-02 1.44139174e-02 1.44139174e-02
      9.60927829e-03 4.80463915e-03 4.80463915e-03 1.92185566e-02
      3.84371132e-02 1.44139174e-02 4.80463915e-03 0. 1.92185566e-02 0.
      1.44139174e-02 4.80463915e-03 2.88278349e-02 0. 9.60927829e-03
      9.60927829e-03 9.60927829e-03 0. 0. 9.60927829e-03 4.80463915e-03
      9.60927829e-03 0. 2.40231957e-02 9.60927829e-03 0. 2.40231957e-02
      9.60927829e-03 1.92185566e-02 1.44139174e-02 9.60927829e-03
      4.80463915e-03 4.80463915e-03 1.92185566e-02 1.44139174e-02
      1.44139174e-02 3.84371132e-02 0. 9.60927829e-03 4.80463915e-03
      1.44139174e-02 9.60927829e-03 9.60927829e-03 3.84371132e-02
      3.84371132e-02 1.92185566e-02 1.44139174e-02 1.44139174e-02
      3.36324722e-02 9.60927829e-03 0. 1.44139174e-02 6.24603108e-02
      1.44139174e-02 2.40231957e-02 4.80463915e-03 4.80463915e-02
      3.84371132e-02 1.92185566e-02 9.12881419e-02 1.34529889e-01
      3.36324722e-02 1.92185566e-02 4.32417542e-02 5.28510287e-02
      2.40231957e-02 1.44139174e-02 7.20695853e-02 3.84371132e-02
      9.60927829e-03 0. 9.60927829e-03 9.60927829e-03 1.92185566e-02
      2.40231957e-02 9.60927829e-02 3.36324722e-02 4.80463915e-03
      9.60927829e-03 1.92185566e-02 9.60927829e-03 0. 4.80463915e-03
      2.88278349e-02 2.88278349e-02 0. 0. 2.40231957e-02 4.80463915e-03
      0. 9.60927829e-03 4.80463915e-02 3.36324722e-02 1.92185566e-02
      1.44139174e-02 9.60927829e-03 9.60927829e-03 4.80463915e-03 0.
      2.40231957e-02 9.60927829e-03 4.80463915e-03 0. 0. 9.60927829e-03
      4.80463915e-03 4.80463915e-03 2.40231957e-02 1.92185566e-02
      1.92185566e-02 4.80463915e-03 3.36324722e-02 4.80463915e-03
      1.92185566e-02 2.40231957e-02 3.84371132e-02 1.44139174e-02
      1.44139174e-02 9.60927829e-03 1.44139174e-02 4.80463915e-03
      9.60927829e-03 2.40231957e-02 9.60927829e-02 1.92185566e-02
      2.40231957e-02 1.44139174e-02 3.84371132e-02 0. 1.92185566e-02 0.
      5.76556697e-02 1.92185566e-02 1.44139174e-02 4.80463915e-03
      1.44139174e-02 0. 2.40231957e-02 2.88278349e-02 4.80463915e-02
      1.44139174e-02 4.80463915e-03 0. 4.80463915e-03 0. 4.80463915e-03
      1.92185566e-02 9.60927829e-03 0. 9.60927829e-03 0. 4.80463915e-03
      9.60927829e-03 9.60927829e-03 4.80463915e-03 1.10506698e-01
      5.76556697e-02 3.84371132e-02 1.44139174e-02 4.32417542e-02
      9.60927829e-03 0. 9.60927829e-03 1.15311339e-01 4.80463915e-03
      1.44139174e-02 4.80463915e-03 1.44139174e-02 0. 4.32417542e-02
      3.36324722e-02 9.60927829e-02 6.24603108e-02 6.24603108e-02 0.
      3.84371132e-02 2.40231957e-02 2.88278349e-02 1.92185566e-02
      1.00897424e-01 6.24603108e-02 5.28510287e-02 3.36324722e-02
      1.20115981e-01 5.76556697e-02 7.20695853e-02 8.16788673e-02
      6.96672678e-01</_>
    <_>
      5.72118878e-01 5.02844095e-01 6.47941172e-01 0. 1.65976363e-03 0.
      0. 0. 0. 0. 0. 0. 0. 0. 0. 0. 0. 0. 0. 0. 0. 0. 0. 0. 0. 0. 0. 0.
      0. 0. 0. 0. 0. 0. 0. 0. 0. 0. 0. 0. 2.73860991e-02 1.74275190e-02
      0. 0. 0. 0. 8.29881814e-04 3.56849171e-02 4.14940901e-03 0. 0. 0.
      0. 0. 0. 0. 0. 0. 0. 0. 0. 0. 0. 0. 0. 0. 0. 0. 0. 0. 0. 0. 0. 0.
      0. 0. 0. 0. 0. 0. 0. 0. 0. 7.71790072e-02 7.88387731e-02
      8.29881814e-04 0. 0. 0. 4.14940901e-03 9.79260579e-02
      3.31952726e-03 0. 0. 0. 0. 0. 0. 0. 0. 0. 0. 0. 0. 0. 0. 0. 0. 0.
      0. 0. 0. 0. 0. 0. 0. 0. 0. 0. 0. 0. 0. 0. 0. 0. 0. 1.88383177e-01
      2.24068090e-01 0. 0. 0. 0. 4.14940901e-03 3.43571067e-01
      3.31952726e-03 0. 0. 0. 0. 0. 0. 0. 0. 0. 0. 0. 0. 0. 0. 0. 0. 0.
      0. 0. 0. 0. 0. 0. 0. 0. 0. 0. 0. 0. 0. 0. 0. 0. 1.65976363e-03
      3.16184968e-01 2.38176093e-01 0. 0. 0. 0. 3.40251550e-02
      4.54775244e-01 0. 0. 0. 0. 0. 8.29881814e-04 0. 0. 0. 0. 0. 0. 0.
      0. 0. 0. 0. 0. 0. 0. 0. 0. 0. 0. 0. 0. 0. 0. 0. 0. 0. 0. 0. 0. 0.
      3.38591784e-01 0. 0. 0. 0. 0. 5.41082919e-01 5.52506328e-01
      7.83554465e-02 8.63919035e-02 4.21913937e-02 7.63463303e-02
      1.00455703e-02 5.02278507e-02 5.22369631e-02 1.18537724e-01
      2.21002549e-02 2.00911406e-02 2.00911406e-02 4.01822813e-02
      1.00455703e-02 5.62551916e-02 8.84010196e-02 8.63919035e-02
      2.21002549e-02 2.61184815e-02 8.03645607e-03 1.80820264e-02 0.
      1.20546836e-02 8.03645607e-03 5.02278507e-02 1.40637979e-02
      8.03645607e-03 1.80820264e-02 5.02278507e-02 2.00911406e-02
      5.42460792e-02 6.63007647e-02 7.03189895e-02 2.00911406e-02
      3.01367100e-02 1.80820264e-02 3.41549367e-02 0. 1.80820264e-02
      1.20546836e-02 2.00911406e-02 4.01822804e-03 2.00911402e-03
      2.00911402e-03 1.80820264e-02 0. 1.60729121e-02 1.00455703e-02
      4.01822813e-02 1.00455703e-02 1.20546836e-02 1.60729121e-02
      1.40637979e-02 0. 1.00455703e-02 1.20546836e-02 4.82187346e-02
      2.61184815e-02 8.03645607e-03 8.03645607e-03 5.02278507e-02
      1.80820264e-02 5.42460792e-02 7.43372217e-02 7.63463303e-02
      3.01367100e-02 3.81731652e-02 1.00455703e-02 1.80820264e-02
      6.02734182e-03 6.02734182e-03 1.00455703e-02 2.21002549e-02
      4.01822804e-03 6.02734182e-03 1.00455703e-02 1.00455703e-02
      1.00455703e-02 1.00455703e-02 2.81275958e-02 1.80820264e-02
      8.03645607e-03 4.01822804e-03 4.01822804e-03 4.01822804e-03
      2.00911402e-03 0. 6.02734182e-03 6.02734182e-03 8.03645607e-03
      6.02734182e-03 4.01822804e-03 8.03645607e-03 4.01822804e-03
      1.20546836e-02 3.41549367e-02 3.21458243e-02 2.21002549e-02
      1.20546836e-02 1.00455703e-02 1.20546836e-02 1.20546836e-02
      6.02734182e-03 8.03645607e-03 2.81275958e-02 6.02734182e-03
      6.02734182e-03 4.01822804e-03 1.60729121e-02 1.00455703e-02
      1.20546836e-02 1.00455703e-02 3.21458243e-02 8.03645607e-03
      8.03645607e-03 8.03645607e-03 2.21002549e-02 8.03645607e-03
      8.03645607e-03 2.00911406e-02 7.43372217e-02 2.61184815e-02
      2.00911402e-03 3.41549367e-02 5.22369631e-02 1.20546836e-02
      7.03189895e-02 1.18537724e-01 1.32601529e-01 4.82187346e-02
      3.01367100e-02 6.22825362e-02 2.81275958e-02 1.40637979e-02
      1.60729121e-02 4.82187346e-02 3.21458243e-02 2.61184815e-02
      1.40637979e-02 2.61184815e-02 8.03645607e-03 6.02734182e-03
      6.02734182e-03 6.42916486e-02 2.21002549e-02 1.20546836e-02
      1.00455703e-02 1.80820264e-02 1.20546836e-02 2.00911402e-03
      4.01822804e-03 2.21002549e-02 1.20546836e-02 2.00911402e-03
      8.03645607e-03 1.00455703e-02 1.20546836e-02 6.02734182e-03
      2.00911406e-02 6.02734201e-02 3.21458243e-02 2.21002549e-02
      1.20546836e-02 1.20546836e-02 6.02734182e-03 6.02734182e-03
      4.01822804e-03 6.02734182e-03 8.03645607e-03 2.00911402e-03
      4.01822804e-03 1.00455703e-02 4.01822804e-03 6.02734182e-03
      8.03645607e-03 2.00911406e-02 1.80820264e-02 1.60729121e-02
      2.00911402e-03 1.20546836e-02 8.03645607e-03 1.00455703e-02
      8.03645607e-03 2.41093673e-02 2.00911406e-02 1.00455703e-02
      1.00455703e-02 4.01822804e-03 2.00911406e-02 1.60729121e-02
      8.03645607e-03 8.23736712e-02 4.42005098e-02 3.81731652e-02
      1.80820264e-02 3.21458243e-02 1.00455703e-02 1.00455703e-02
      2.00911406e-02 5.02278507e-02 8.03645607e-03 1.20546836e-02
      8.03645607e-03 8.03645607e-03 1.40637979e-02 8.03645607e-03
      2.00911406e-02 5.82643077e-02 1.00455703e-02 6.02734182e-03
      6.02734182e-03 2.00911406e-02 2.00911402e-03 8.03645607e-03
      4.01822804e-03 1.20546836e-02 1.20546836e-02 1.40637979e-02
      1.20546836e-02 1.80820264e-02 8.03645607e-03 1.40637979e-02
      1.20546836e-02 1.02464817e-01 5.42460792e-02 6.83098733e-02
      1.60729121e-02 4.21913937e-02 1.20546836e-02 2.61184815e-02
      1.00455703e-02 5.02278507e-02 1.80820264e-02 1.00455703e-02
      2.00911402e-03 2.00911406e-02 1.00455703e-02 1.00455703e-02
      1.80820264e-02 1.02464817e-01 7.43372217e-02 5.02278507e-02
      1.00455703e-02 7.23281056e-02 1.20546836e-02 2.21002549e-02
      3.41549367e-02 1.12510383e-01 7.03189895e-02 5.62551916e-02
      2.21002549e-02 8.43827873e-02 5.22369631e-02 7.43372217e-02
      7.23281056e-02 6.18807137e-01</_></support_vectors>
  <decision_functions>
    <_>
      <sv_count>13</sv_count>
      <rho>-4.2215962779282801e-01</rho>
      <alpha>
        1.1133776359738354e+00 2.5000000000000000e+00
        2.5000000000000000e+00 1.3289261420783010e+00
        2.5333882428718713e-01 2.5000000000000000e+00
        2.7808747061657385e-01 3.2625088348422121e-01
        -9.7685645891171213e-01 -2.5000000000000000e+00
        -2.3231244975284060e+00 -2.5000000000000000e+00
        -2.5000000000000000e+00</alpha>
      <index>
        0 1 2 3 4 5 6 7 8 9 10 11 12</index></_></decision_functions></opencv_ml_svm>
</opencv_storage>
