<?xml version="1.0"?>
<opencv_storage>
<opencv_ml_svm>
  <format>3</format>
  <svmType>C_SVC</svmType>
  <kernel>
    <type>RBF</type>
    <gamma>3.3750000000000002e-02</gamma></kernel>
  <C>2.5000000000000000e+00</C>
  <term_criteria><iterations>100</iterations></term_criteria>
  <var_count>475</var_count>
  <class_count>2</class_count>
  <class_labels type_id="opencv-matrix">
    <rows>2</rows>
    <cols>1</cols>
    <dt>i</dt>
    <data>
      1 2</data></class_labels>
  <sv_total>64</sv_total>
  <support_vectors>
    <_>
      5.61121941e-01 5.76183319e-01 5.94268382e-01 0. 0. 0. 0. 0. 0. 0.
      0. 0. 0. 0. 0. 0. 0. 0. 0. 0. 0. 0. 0. 0. 0. 0. 0. 0. 0. 0. 0. 0.
      0. 0. 0. 0. 0. 0. 0. 0. 0. 0. 0. 0. 0. 0. 0. 1.09145038e-01 0. 0.
      0. 0. 0. 7.27633610e-02 0. 0. 0. 0. 0. 0. 0. 0. 0. 0. 0. 0. 0. 0.
      0. 0. 0. 0. 0. 0. 0. 0. 0. 0. 0. 0. 0. 0. 0. 0. 0. 0. 0. 0. 0. 0.
      5.45725189e-02 0. 0. 0. 0. 0. 9.09541994e-02 0. 0. 0. 0. 0. 0. 0.
      0. 0. 0. 0. 0. 0. 0. 0. 0. 0. 0. 0. 0. 0. 0. 0. 0. 0. 0. 0. 0. 0.
      0. 0. 0. 0. 0. 0. 3.63816805e-02 1.81908403e-02 0. 0. 0. 0. 0.
      1.27335876e-01 0. 0. 0. 0. 0. 0. 0. 0. 0. 0. 0. 0. 0. 0. 0. 0. 0.
      0. 0. 0. 0. 0. 0. 0. 0. 0. 0. 0. 0. 0. 0. 0. 0. 0. 0.
      2.00099230e-01 3.63816805e-02 0. 0. 0. 0. 0. 1.27335876e-01 0. 0.
      0. 0. 0. 0. 0. 0. 0. 0. 0. 0. 0. 0. 0. 0. 0. 0. 0. 0. 0. 0. 0. 0.
      0. 0. 0. 0. 3.63816805e-02 0. 0. 0. 0. 0. 0. 9.45923686e-01
      1.35250449e-01 9.01669636e-02 0. 0. 0. 0. 0. 4.50834818e-02
      4.50834818e-02 0. 0. 4.50834818e-02 0. 0. 0. 7.66419172e-01 0. 0.
      0. 0. 0. 0. 0. 0. 4.50834818e-02 0. 0. 0. 0. 0. 0. 1.80333927e-01
      4.50834818e-02 0. 0. 4.50834818e-02 0. 0. 0. 0. 0. 0. 0. 0. 0. 0.
      0. 0. 0. 0. 0. 0. 0. 0. 0. 0. 0. 0. 0. 0. 0. 0. 4.50834818e-02 0.
      0. 0. 0. 0. 4.50834818e-02 0. 0. 0. 0. 0. 0. 0. 0. 0. 0. 0. 0. 0.
      0. 0. 0. 0. 0. 0. 0. 0. 0. 0. 0. 0. 0. 0. 4.50834818e-02 0.
      4.50834818e-02 0. 0. 0. 0. 0. 0. 0. 0. 0. 0. 0. 0. 4.50834818e-02
      0. 0. 0. 0. 0. 0. 0. 0. 4.50834818e-02 4.50834818e-02 0. 0.
      4.50834818e-02 0. 0. 1.35250449e-01 9.01669636e-02 4.50834818e-02
      0. 2.25417405e-01 0. 0. 0. 0. 0. 0. 0. 0. 0. 0. 0. 1.35250449e-01
      4.50834818e-02 0. 0. 0. 0. 0. 0. 0. 0. 0. 0. 0. 0. 0. 0. 0.
      4.50834818e-02 0. 0. 0. 0. 0. 0. 0. 0. 0. 0. 0. 0. 0. 0. 0. 0. 0.
      0. 4.50834818e-02 0. 0. 0. 0. 0. 0. 0. 0. 0. 0. 0. 0. 0.
      1.35250449e-01 4.50834818e-02 4.50834818e-02 0. 0. 4.50834818e-02
      4.50834818e-02 0. 0. 0. 0. 0. 0. 0. 0. 0. 0. 0. 0. 0. 0. 0. 0.
      4.50834818e-02 0. 0. 0. 0. 0. 0. 0. 1.80333927e-01 2.25417405e-01
      0. 4.50834818e-02 0. 0. 0. 0. 0. 0. 0. 0. 0. 0. 0. 0.
      1.35250449e-01 2.25417405e-01 0. 1.80333927e-01 0. 0. 0.
      4.50834818e-02 4.50834818e-02 0. 0. 0. 0. 0. 0. 4.50834818e-02</_>
    <_>
      5.67772388e-01 5.80018699e-01 5.84134281e-01 0. 0. 0. 0. 0. 0. 0.
      0. 0. 0. 0. 0. 0. 0. 0. 0. 0. 0. 0. 0. 0. 0. 0. 0. 0. 0. 0. 0. 0.
      0. 0. 0. 0. 0. 0. 0. 0. 0. 0. 0. 0. 0. 0. 0. 0. 0. 0. 0. 0. 0.
      1.40165500e-02 0. 0. 0. 0. 0. 0. 0. 0. 0. 0. 0. 0. 0. 0. 0. 0. 0.
      0. 0. 0. 0. 0. 0. 0. 0. 0. 0. 0. 0. 0. 0. 0. 0. 0. 0. 0. 0. 0. 0.
      0. 0. 0. 1.40165500e-02 0. 0. 0. 0. 0. 0. 0. 0. 0. 0. 0. 0. 0. 0.
      0. 0. 0. 0. 0. 0. 0. 0. 0. 0. 0. 0. 0. 0. 0. 0. 0. 0. 0. 0. 0.
      2.80331001e-02 1.40165500e-02 0. 0. 0. 0. 0. 7.00827464e-02 0. 0.
      0. 0. 0. 0. 0. 0. 0. 0. 0. 0. 0. 0. 0. 0. 0. 0. 0. 0. 0. 0. 0. 0.
      0. 0. 0. 0. 0. 0. 0. 0. 0. 0. 0. 1.26148954e-01 7.00827464e-02 0.
      0. 0. 0. 1.40165500e-02 9.81158465e-02 0. 0. 0. 0. 0. 0. 0. 0. 0.
      0. 0. 0. 0. 0. 0. 0. 0. 0. 0. 0. 0. 0. 0. 0. 0. 0. 0. 0.
      1.40165500e-02 0. 0. 0. 0. 0. 1.40165500e-02 9.81158435e-01
      1.07676379e-01 0. 0. 1.61514565e-01 0. 0. 1.07676379e-01 0.
      5.38381897e-02 0. 0. 0. 1.07676379e-01 0. 1.61514565e-01 0.
      1.07676379e-01 0. 0. 0. 0. 0. 0. 0. 5.38381897e-02 0. 0. 0.
      3.76867324e-01 0. 3.76867324e-01 5.38381897e-02 0. 0. 0. 0. 0. 0.
      0. 0. 0. 0. 0. 0. 0. 0. 5.38381897e-02 0. 5.38381897e-02 0. 0. 0.
      0. 0. 5.38381897e-02 0. 2.69190937e-01 5.38381897e-02 0. 0.
      2.15352759e-01 0. 1.07676379e-01 1.07676379e-01 0. 0. 0. 0. 0. 0.
      0. 0. 0. 0. 0. 0. 0. 0. 0. 0. 0. 0. 0. 0. 0. 0. 0. 0. 0. 0. 0. 0.
      5.38381897e-02 0. 0. 5.38381897e-02 0. 0. 0. 0. 5.38381897e-02 0.
      5.38381897e-02 0. 0. 0. 0. 0. 0. 0. 0. 0. 5.38381897e-02 0. 0. 0.
      0. 0. 0. 0. 3.76867324e-01 5.38381897e-02 0. 0. 1.07676379e-01 0.
      1.07676379e-01 0. 5.38381897e-02 2.15352759e-01 0. 0. 0. 0. 0.
      5.38381897e-02 0. 0. 0. 0. 0. 0. 0. 0. 0. 0. 0. 0. 0. 0. 0. 0. 0.
      0. 0. 0. 0. 0. 0. 0. 0. 0. 0. 5.38381897e-02 0. 0. 0. 0. 0. 0. 0.
      0. 0. 0. 0. 0. 0. 5.38381897e-02 0. 0. 0. 0. 0. 0. 0. 0. 0.
      5.38381897e-02 5.38381897e-02 0. 0. 0. 0. 0. 0. 3.76867324e-01 0.
      0. 0. 1.07676379e-01 5.38381897e-02 0. 0. 0. 0. 0. 0. 0. 0. 0. 0.
      0. 0. 0. 0. 0. 0. 0. 0. 0. 0. 0. 0. 0. 5.38381897e-02
      1.07676379e-01 5.38381897e-02 5.38381897e-02 0. 0. 0.
      1.07676379e-01 5.38381897e-02 0. 0. 0. 0. 0. 0. 0. 0. 0. 0. 0. 0.
      0. 0. 0. 0. 0. 0. 0. 5.38381897e-02 0. 5.38381897e-02
      1.07676379e-01</_>
    <_>
      5.31137764e-01 5.84093153e-01 6.13781571e-01 0. 0. 0. 0. 0. 0. 0.
      0. 0. 0. 0. 0. 0. 0. 0. 0. 0. 0. 0. 0. 0. 0. 0. 0. 0. 0. 0. 0. 0.
      0. 0. 0. 0. 0. 0. 0. 0. 0. 0. 0. 0. 0. 0. 0. 1.95665117e-02 0. 0.
      0. 0. 0. 1.36965573e-01 9.78325531e-02 0. 0. 0. 0. 0. 0. 0. 0. 0.
      0. 0. 0. 0. 0. 0. 0. 0. 0. 0. 0. 0. 0. 0. 0. 0. 0. 0. 0. 0. 0. 0.
      0. 0. 0. 1.95665117e-02 1.17399074e-01 0. 0. 0. 0. 0.
      2.15231627e-01 5.86995371e-02 0. 0. 0. 0. 0. 0. 0. 0. 0. 0. 0. 0.
      0. 0. 0. 0. 0. 0. 0. 0. 0. 0. 0. 0. 0. 0. 0. 0. 0. 0. 0. 0. 0. 0.
      2.54364669e-01 2.15231627e-01 0. 0. 0. 0. 0. 4.10896748e-01 0. 0.
      0. 0. 0. 0. 0. 0. 0. 0. 0. 0. 0. 0. 0. 0. 0. 0. 0. 0. 0. 0. 0. 0.
      0. 0. 0. 0. 0. 0. 0. 0. 0. 0. 0. 4.10896748e-01 9.78325531e-02 0.
      0. 0. 0. 1.95665117e-02 1.76098615e-01 0. 0. 0. 0. 0. 0. 0. 0. 0.
      0. 0. 0. 0. 0. 0. 0. 0. 0. 0. 0. 0. 0. 0. 0. 0. 0. 0. 0.
      1.95665117e-02 1.95665117e-02 0. 0. 0. 0. 0. 6.45694852e-01
      2.24506631e-01 4.49013263e-02 0. 4.49013263e-02 8.98026526e-02 0.
      4.49013263e-02 0. 1.34703979e-01 0. 0. 0. 8.98026526e-02
      4.49013263e-02 4.49013263e-02 4.49013263e-02 4.49013263e-02 0. 0.
      0. 0. 0. 0. 4.49013263e-02 0. 0. 0. 0. 1.34703979e-01 0.
      4.49013263e-02 0. 0. 0. 0. 0. 0. 0. 0. 0. 4.49013263e-02 0. 0. 0.
      0. 0. 0. 0. 4.49013263e-02 0. 0. 0. 0. 0. 4.49013263e-02 0.
      3.14309299e-01 0. 0. 0. 8.98026526e-02 0. 0. 4.49013263e-02
      4.49013263e-02 0. 0. 0. 0. 0. 0. 0. 0. 0. 0. 0. 0. 0. 0. 0. 0. 0.
      0. 0. 0. 0. 0. 0. 0. 0. 0. 0. 0. 0. 0. 0. 4.49013263e-02 0. 0. 0.
      0. 0. 0. 0. 0. 0. 0. 0. 0. 0. 0. 0. 1.79605305e-01 0. 0. 0. 0. 0.
      4.49013263e-02 0. 4.49013263e-01 0. 4.49013263e-02 0. 0. 0. 0.
      4.49013263e-02 3.14309299e-01 4.49013263e-02 0. 1.34703979e-01 0.
      4.49013263e-02 0. 2.24506631e-01 0. 0. 0. 4.49013263e-02 0. 0. 0.
      8.98026526e-02 0. 8.98026526e-02 0. 0. 0. 0. 0. 0. 0. 0. 0. 0. 0.
      0. 0. 0. 0. 0. 0. 0. 0. 0. 0. 0. 0. 0. 0. 0. 0. 0. 0. 0.
      4.49013263e-02 0. 0. 0. 0. 0. 0. 0. 4.49013263e-02 0. 0. 0. 0. 0.
      0. 0. 8.98026526e-02 1.34703979e-01 0. 1.79605305e-01 0. 0. 0.
      8.98026526e-02 4.49013263e-02 0. 0. 0. 0. 4.49013263e-02 0. 0. 0.
      0. 0. 0. 0. 0. 0. 0. 0. 0. 0. 0. 0. 0. 0. 4.49013263e-02
      2.69407958e-01 8.98026526e-02 0. 4.49013263e-02 0. 0.
      4.49013263e-02 8.98026526e-02 4.49013263e-02 0. 0. 0. 0. 0. 0. 0.
      2.69407958e-01 4.49013263e-02 0. 4.49013263e-02 4.49013263e-02 0.
      0. 2.24506631e-01 0. 8.98026526e-02 0. 0. 4.49013263e-02
      4.49013263e-02 0. 1.34703979e-01</_>
    <_>
      5.43295860e-01 5.84964156e-01 6.02201343e-01 0. 0. 0. 0. 0. 0. 0.
      0. 0. 0. 0. 0. 0. 0. 0. 0. 0. 0. 0. 0. 0. 0. 0. 0. 0. 0. 0. 0. 0.
      0. 0. 0. 0. 0. 0. 0. 0. 0. 0. 0. 0. 0. 0. 0. 8.81956294e-02 0. 0.
      0. 0. 0. 1.94030389e-01 1.76391266e-02 0. 0. 0. 0. 0. 0. 0. 0. 0.
      0. 0. 0. 0. 0. 0. 0. 0. 0. 0. 0. 0. 0. 0. 0. 0. 0. 0. 0. 0. 0. 0.
      0. 0. 0. 1.76391266e-02 1.05834760e-01 0. 0. 0. 0. 0.
      1.58752143e-01 1.76391266e-02 0. 0. 0. 0. 0. 0. 0. 0. 0. 0. 0. 0.
      0. 0. 0. 0. 0. 0. 0. 0. 0. 0. 0. 0. 0. 0. 0. 0. 0. 0. 0. 0. 0. 0.
      1.05834760e-01 1.05834760e-01 0. 0. 0. 0. 3.52782533e-02
      1.76391259e-01 0. 0. 0. 0. 0. 0. 0. 0. 0. 0. 0. 0. 0. 0. 0. 0. 0.
      0. 0. 0. 0. 0. 0. 0. 0. 0. 0. 0. 0. 0. 0. 0. 0. 0. 0.
      3.52782518e-01 3.52782533e-02 0. 0. 0. 0. 0. 1.41113013e-01 0. 0.
      0. 0. 0. 0. 0. 0. 0. 0. 0. 0. 0. 0. 0. 0. 0. 0. 0. 0. 0. 0. 0. 0.
      0. 0. 0. 0. 0. 0. 0. 0. 0. 0. 0. 8.46678078e-01 7.75566697e-02 0.
      0. 0. 0. 0. 7.75566697e-02 3.87783349e-02 1.16335005e-01
      3.87783349e-02 0. 0. 7.75566697e-02 0. 1.93891674e-01
      5.42896688e-01 0. 0. 0. 0. 0. 0. 0. 0. 0. 0. 0. 0. 0. 0. 0.
      2.32670009e-01 0. 0. 0. 0. 0. 0. 0. 0. 0. 0. 0. 0. 0. 0. 0. 0. 0.
      0. 0. 0. 0. 0. 0. 0. 7.75566697e-02 0. 0. 0. 0. 0. 7.75566697e-02
      1.93891674e-01 3.87783349e-02 0. 0. 0. 0. 0. 0. 0. 0. 0. 0. 0. 0.
      0. 0. 0. 0. 0. 0. 0. 0. 0. 0. 0. 0. 0. 0. 0. 0. 0. 0. 0. 0. 0. 0.
      0. 0. 0. 0. 3.87783349e-02 3.87783349e-02 0. 0. 0. 0. 0. 0. 0.
      7.75566697e-02 0. 0. 0. 0. 0. 0. 3.87783349e-02 5.04118323e-01 0.
      0. 0. 7.75566697e-02 0. 0. 1.16335005e-01 1.16335005e-01 0. 0. 0.
      0. 0. 0. 2.32670009e-01 0. 0. 0. 0. 0. 0. 0. 2.32670009e-01
      3.87783349e-02 0. 0. 0. 0. 0. 0. 0. 3.87783349e-02 0. 0. 0. 0. 0.
      0. 7.75566697e-02 0. 0. 0. 0. 0. 0. 0. 0. 0. 0. 0. 0. 0. 0. 0. 0.
      3.87783349e-02 0. 0. 3.87783349e-02 0. 0. 0. 0. 0. 0. 0. 0. 0. 0.
      0. 3.87783349e-02 0. 3.87783349e-02 0. 0. 0. 0. 0. 0. 0. 0. 0. 0.
      0. 0. 0. 7.75566697e-02 0. 0. 0. 0. 0. 0. 0. 3.87783349e-02 0. 0.
      0. 0. 0. 0. 0. 3.87783349e-02 3.87783349e-02 0. 0. 0. 0. 0. 0.
      7.75566697e-02 0. 0. 0. 0. 0. 0. 0. 0. 2.32670009e-01 0. 0. 0. 0.
      0. 0. 7.75566697e-02 1.16335005e-01 0. 0. 3.87783349e-02
      3.87783349e-02 0. 0. 1.16335005e-01</_>
    <_>
      5.69018900e-01 5.79475462e-01 5.83460152e-01 0. 0. 0. 0. 0. 0. 0.
      0. 0. 0. 0. 0. 0. 0. 0. 0. 0. 0. 0. 0. 0. 0. 0. 0. 0. 0. 0. 0. 0.
      0. 0. 0. 0. 0. 0. 0. 0. 0. 0. 0. 0. 0. 0. 0. 0. 0. 0. 0. 0. 0. 0.
      0. 0. 0. 0. 0. 0. 0. 0. 0. 0. 0. 0. 0. 0. 0. 0. 0. 0. 0. 0. 0. 0.
      0. 0. 0. 0. 0. 0. 0. 0. 0. 0. 0. 0. 0. 0. 0. 0. 0. 0. 0. 0.
      4.28527743e-02 0. 0. 0. 0. 0. 0. 0. 0. 0. 0. 0. 0. 0. 0. 0. 0. 0.
      0. 0. 0. 0. 0. 0. 0. 0. 0. 0. 0. 0. 0. 0. 0. 0. 0. 0.
      4.28527743e-02 4.28527743e-02 0. 0. 0. 0. 0. 7.14212880e-02 0. 0.
      0. 0. 0. 0. 0. 0. 0. 0. 0. 0. 0. 0. 0. 0. 0. 0. 0. 0. 0. 0. 0. 0.
      0. 0. 0. 0. 0. 0. 0. 0. 0. 0. 0. 1.99979603e-01 2.85685156e-02 0.
      0. 0. 0. 0. 7.14212880e-02 0. 0. 0. 0. 0. 0. 0. 0. 0. 0. 0. 0. 0.
      0. 0. 0. 0. 0. 0. 0. 0. 0. 0. 0. 0. 0. 0. 0. 0. 0. 0. 0. 0. 0. 0.
      9.71329510e-01 2.32495278e-01 5.81238195e-02 5.81238195e-02 0. 0.
      0. 0. 1.74371451e-01 5.81238195e-02 0. 0. 0. 0. 0. 2.32495278e-01
      1.74371451e-01 5.81238195e-02 0. 0. 5.81238195e-02 0. 0. 0. 0. 0.
      0. 0. 0. 5.81238195e-02 0. 5.81238195e-02 1.16247639e-01
      1.16247639e-01 0. 0. 0. 0. 0. 0. 0. 0. 0. 0. 0. 0. 0. 0. 0. 0. 0.
      0. 0. 0. 0. 0. 0. 5.81238195e-02 0. 0. 0. 5.81238195e-02 0.
      5.81238195e-02 1.74371451e-01 0. 0. 0. 0. 0. 0. 0. 0. 0. 0. 0. 0.
      0. 0. 0. 0. 0. 0. 0. 0. 0. 0. 0. 0. 0. 0. 0. 0. 0. 0. 0. 0. 0. 0.
      0. 0. 5.81238195e-02 0. 5.81238195e-02 0. 5.81238195e-02 0. 0. 0.
      0. 0. 0. 0. 5.81238195e-02 0. 0. 0. 0. 0. 0. 5.81238195e-02
      5.81238195e-02 0. 0. 0. 5.81238195e-02 0. 0. 0. 3.48742902e-01
      2.32495278e-01 0. 1.16247639e-01 0. 0. 0. 1.16247639e-01
      5.81238195e-02 0. 0. 5.81238195e-02 0. 0. 0. 5.81238195e-02
      5.81238195e-02 0. 0. 0. 0. 0. 0. 0. 0. 0. 0. 0. 0. 0. 0.
      1.16247639e-01 0. 5.81238195e-02 0. 5.81238195e-02 0. 0. 0. 0. 0.
      0. 0. 0. 0. 0. 0. 0. 5.81238195e-02 0. 0. 0. 0. 0. 0. 0. 0. 0. 0.
      0. 0. 0. 0. 0. 0. 5.81238195e-02 0. 2.32495278e-01 0. 0.
      5.81238195e-02 1.74371451e-01 0. 0. 0. 0. 0. 0. 0. 5.81238195e-02
      0. 0. 0. 0. 0. 0. 0. 0. 0. 0. 0. 0. 0. 0. 0. 0. 1.16247639e-01
      2.32495278e-01 0. 1.74371451e-01 0. 0. 0. 1.74371451e-01 0. 0. 0.
      0. 5.81238195e-02 0. 0. 1.16247639e-01 4.06866729e-01
      1.16247639e-01 0. 0. 0. 0. 0. 5.81238195e-02 2.32495278e-01 0. 0.
      0. 0. 0. 0. 0.</_>
    <_>
      5.29863536e-01 5.87381840e-01 6.11741185e-01 0. 0. 0. 0. 0. 0. 0.
      1.63342878e-02 0. 0. 0. 0. 0. 0. 0. 0. 0. 0. 0. 0. 0. 0. 0. 0. 0.
      0. 0. 0. 0. 0. 0. 0. 0. 0. 0. 0. 0. 0. 0. 0. 0. 0. 0. 0. 0. 0. 0.
      0. 0. 0. 1.47008598e-01 1.63342878e-02 0. 0. 0. 0. 0. 0. 0. 0. 0.
      0. 0. 0. 0. 0. 0. 0. 0. 0. 0. 0. 0. 0. 0. 0. 0. 0. 0. 0. 0. 0. 0.
      0. 0. 0. 6.53371513e-02 1.30674303e-01 0. 0. 0. 0. 0.
      1.47008598e-01 8.16714317e-02 0. 0. 0. 0. 0. 0. 0. 0. 0. 0. 0. 0.
      0. 0. 0. 0. 0. 0. 0. 0. 0. 0. 0. 0. 0. 0. 0. 0. 0. 0. 0. 0. 0. 0.
      1.14340007e-01 9.80057269e-02 0. 0. 0. 0. 0. 1.96011454e-01 0. 0.
      0. 0. 0. 0. 0. 0. 0. 0. 0. 0. 0. 0. 0. 0. 0. 0. 0. 0. 0. 0. 0. 0.
      0. 0. 0. 0. 0. 0. 0. 0. 0. 0. 0. 2.12345749e-01 1.79677159e-01 0.
      0. 0. 0. 0. 5.22697210e-01 0. 0. 0. 0. 0. 0. 0. 0. 0. 0. 0. 0. 0.
      0. 0. 0. 0. 0. 0. 0. 0. 0. 0. 0. 0. 0. 0. 0. 0. 0. 0. 0. 0. 0. 0.
      7.18708634e-01 2.99298376e-01 0. 8.55138227e-02 0. 4.27569114e-02
      0. 4.27569114e-02 4.27569114e-02 1.28270730e-01 0. 0. 0.
      8.55138227e-02 0. 0. 8.55138227e-02 1.28270730e-01 0. 0. 0. 0. 0.
      4.27569114e-02 0. 8.55138227e-02 0. 0. 0. 4.27569114e-02 0.
      8.55138227e-02 8.55138227e-02 0. 0. 0. 0. 0. 0. 0. 0.
      4.27569114e-02 0. 0. 0. 0. 0. 0. 0. 0. 0. 0. 0. 0. 0.
      8.55138227e-02 4.27569114e-02 2.56541461e-01 4.27569114e-02
      4.27569114e-02 0. 2.56541461e-01 0. 4.27569114e-02 4.27569114e-02
      1.28270730e-01 0. 4.27569114e-02 0. 0. 0. 0. 0. 0. 0. 0. 0.
      4.27569114e-02 0. 0. 0. 0. 0. 0. 0. 0. 0. 0. 0. 0. 0. 0. 0.
      4.27569114e-02 0. 0. 0. 4.27569114e-02 0. 0. 0. 0. 0. 0.
      4.27569114e-02 8.55138227e-02 0. 0. 0. 4.27569114e-02 0.
      4.27569114e-02 4.27569114e-02 1.28270730e-01 0. 0. 4.27569114e-02
      0. 0. 0. 0. 2.13784561e-01 4.27569114e-02 0. 0. 1.28270730e-01 0.
      4.27569114e-02 4.27569114e-02 4.27569114e-02 4.27569114e-02 0.
      1.28270730e-01 4.27569114e-02 0. 4.27569114e-02 5.13082922e-01
      4.27569114e-02 0. 0. 0. 0. 0. 0. 1.71027645e-01 0. 0. 0. 0. 0. 0.
      0. 0. 0. 0. 0. 0. 0. 0. 0. 8.55138227e-02 0. 4.27569114e-02 0. 0.
      0. 0. 0. 0. 0. 0. 0. 0. 0. 0. 0. 0. 0. 0. 0. 0. 0. 0. 0. 0.
      4.27569114e-02 0. 0. 0. 0. 0. 0. 0. 8.55138227e-02 8.55138227e-02
      0. 1.71027645e-01 0. 0. 0. 2.13784561e-01 0. 0. 0. 0. 0. 0. 0. 0.
      0. 0. 0. 0. 0. 0. 0. 0. 0. 0. 0. 0. 0. 0. 0. 0. 4.27569114e-02
      4.27569114e-02 0. 8.55138227e-02 4.27569114e-02 0. 0.
      4.27569114e-02 0. 0. 0. 0. 0. 0. 0. 4.27569114e-02 1.28270730e-01
      0. 0. 0. 4.27569114e-02 0. 0. 4.27569114e-02 4.27569114e-02
      4.27569114e-02 0. 0. 0. 4.27569114e-02 0. 2.99298376e-01</_>
    <_>
      5.38746357e-01 5.87893367e-01 6.03434980e-01 0. 0. 0. 0. 0. 0. 0.
      0. 0. 0. 0. 0. 0. 0. 0. 0. 0. 0. 0. 0. 0. 0. 0. 0. 0. 0. 0. 0. 0.
      0. 0. 0. 0. 0. 0. 0. 0. 0. 0. 0. 0. 0. 0. 0. 0. 0. 0. 0. 0. 0. 0.
      0. 0. 0. 0. 0. 0. 0. 0. 0. 0. 0. 0. 0. 0. 0. 0. 0. 0. 0. 0. 0. 0.
      0. 0. 0. 0. 0. 0. 0. 0. 0. 0. 0. 0. 0. 0. 0. 0. 0. 0. 0. 0.
      6.40184432e-02 0. 0. 0. 0. 0. 0. 0. 0. 0. 0. 0. 0. 0. 0. 0. 0. 0.
      0. 0. 0. 0. 0. 0. 0. 0. 0. 0. 0. 0. 0. 0. 0. 0. 0. 0.
      3.20092171e-01 1.92055315e-01 0. 0. 0. 0. 0. 6.40184343e-01
      6.40184432e-02 0. 0. 0. 0. 0. 0. 0. 0. 0. 0. 0. 0. 0. 0. 0. 0. 0.
      0. 0. 0. 0. 0. 0. 0. 0. 0. 0. 0. 0. 0. 0. 0. 0. 0. 5.76165974e-01
      1.92055315e-01 0. 0. 0. 0. 0. 6.40184432e-02 0. 0. 0. 0. 0. 0. 0.
      0. 0. 0. 0. 0. 0. 0. 0. 0. 0. 0. 0. 0. 0. 0. 0. 0. 0. 0. 0. 0. 0.
      0. 0. 0. 0. 0. 6.40184432e-02 2.56073773e-01 1.04257204e-01 0.
      1.04257204e-01 0. 0. 0. 1.04257204e-01 1.04257204e-01
      1.04257204e-01 0. 0. 0. 2.08514407e-01 0. 0. 4.17028815e-01 0. 0.
      0. 0. 0. 0. 0. 0. 0. 0. 0. 0. 0. 0. 0. 2.08514407e-01 0. 0. 0. 0.
      0. 0. 0. 0. 1.04257204e-01 0. 0. 0. 0. 0. 0. 0. 1.04257204e-01 0.
      0. 0. 0. 0. 0. 0. 2.08514407e-01 0. 0. 0. 0. 0. 0. 0. 0. 0. 0. 0.
      0. 0. 0. 0. 0. 0. 0. 0. 0. 0. 0. 0. 0. 0. 0. 0. 0. 0. 0. 0. 0. 0.
      0. 0. 0. 0. 0. 0. 1.04257204e-01 0. 0. 0. 0. 0. 1.04257204e-01 0.
      0. 0. 0. 0. 0. 0. 0. 0. 0. 0. 0. 0. 0. 0. 0. 0. 5.21286011e-01 0.
      0. 0. 0. 0. 1.04257204e-01 0. 1.04257204e-01 0. 0. 1.04257204e-01
      0. 0. 0. 4.17028815e-01 0. 0. 0. 0. 0. 0. 0. 2.08514407e-01 0. 0.
      0. 0. 0. 0. 0. 0. 0. 0. 0. 0. 0. 0. 0. 0. 0. 0. 0. 0. 0. 0. 0. 0.
      0. 0. 0. 0. 0. 0. 0. 0. 0. 0. 0. 0. 0. 0. 0. 0. 0. 0. 0. 0. 0. 0.
      0. 0. 0. 0. 0. 0. 0. 0. 0. 2.08514407e-01 0. 0. 0. 0. 0. 0. 0.
      1.04257204e-01 0. 0. 0. 0. 0. 0. 0. 0. 0. 0. 0. 0. 0. 0. 0. 0.
      1.04257204e-01 0. 0. 0. 0. 0. 0. 0. 0. 0. 0. 0. 0. 0. 0. 0.
      1.04257204e-01 0. 0. 0. 0. 0. 0. 0. 0. 0. 0. 0. 0. 0. 0. 0.</_>
    <_>
      5.67080319e-01 5.80386519e-01 5.84441066e-01 0. 0. 0. 0. 0. 0. 0.
      0. 0. 0. 0. 0. 0. 0. 0. 0. 0. 0. 0. 0. 0. 0. 0. 0. 0. 0. 0. 0. 0.
      0. 0. 0. 0. 0. 0. 0. 0. 0. 0. 0. 0. 0. 0. 0. 0. 0. 0. 0. 0. 0. 0.
      0. 0. 0. 0. 0. 0. 0. 0. 0. 0. 0. 0. 0. 0. 0. 0. 0. 0. 0. 0. 0. 0.
      0. 0. 0. 0. 0. 0. 0. 0. 0. 0. 0. 0. 0. 0. 0. 0. 0. 0. 0. 0.
      2.27507893e-02 0. 0. 0. 0. 0. 0. 0. 0. 0. 0. 0. 0. 0. 0. 0. 0. 0.
      0. 0. 0. 0. 0. 0. 0. 0. 0. 0. 0. 0. 0. 0. 0. 0. 0. 0.
      2.27507893e-02 4.55015786e-02 0. 0. 0. 0. 0. 9.10031572e-02 0. 0.
      0. 0. 0. 0. 0. 0. 0. 0. 0. 0. 0. 0. 0. 0. 0. 0. 0. 0. 0. 0. 0. 0.
      0. 0. 0. 0. 0. 0. 0. 0. 0. 0. 0. 3.86763394e-01 9.10031572e-02 0.
      0. 0. 0. 2.27507893e-02 4.55015786e-02 0. 0. 0. 0. 0. 0. 0. 0. 0.
      0. 0. 0. 0. 0. 0. 0. 0. 0. 0. 0. 0. 0. 0. 0. 0. 0. 0. 0. 0. 0. 0.
      0. 0. 0. 0. 9.10031497e-01 2.77350098e-01 6.93375245e-02 0.
      6.93375245e-02 6.93375245e-02 0. 6.93375245e-02 1.38675049e-01
      1.38675049e-01 0. 0. 6.93375245e-02 0. 0. 1.38675049e-01
      3.46687615e-01 0. 0. 0. 0. 0. 0. 0. 0. 0. 0. 6.93375245e-02 0.
      1.38675049e-01 0. 6.93375245e-02 0. 0. 0. 0. 0. 0. 0. 0. 0. 0. 0.
      0. 0. 0. 0. 0. 6.93375245e-02 0. 0. 0. 0. 0. 0. 0. 0.
      1.38675049e-01 0. 0. 0. 1.38675049e-01 6.93375245e-02 0. 0. 0. 0.
      0. 0. 0. 0. 0. 0. 6.93375245e-02 0. 0. 0. 0. 0. 0. 0. 0. 0. 0. 0.
      0. 0. 0. 0. 0. 0. 0. 0. 0. 0. 0. 0. 0. 0. 0. 0. 0. 0. 0. 0. 0. 0.
      0. 0. 0. 0. 0. 0. 2.08012581e-01 0. 0. 0. 0. 0. 0. 0.
      4.85362679e-01 0. 0. 0. 0. 0. 0. 0. 6.93375245e-02 6.93375245e-02
      6.93375245e-02 6.93375245e-02 0. 0. 6.93375245e-02 2.77350098e-01
      0. 6.93375245e-02 0. 0. 0. 0. 0. 1.38675049e-01 0. 0. 0. 0. 0. 0.
      0. 6.93375245e-02 0. 0. 0. 0. 0. 0. 0. 0. 0. 0. 0. 0. 0. 0. 0. 0.
      6.93375245e-02 0. 0. 0. 0. 0. 0. 0. 0. 0. 0. 0. 0. 0. 0. 0. 0. 0.
      0. 0. 0. 0. 0. 0. 6.93375245e-02 0. 0. 6.93375245e-02 0. 0. 0.
      2.08012581e-01 0. 0. 0. 0. 0. 0. 0. 1.38675049e-01 0. 0. 0. 0. 0.
      0. 0. 0. 0. 0. 0. 0. 0. 0. 0. 0. 0. 0. 0. 0. 0. 0. 0.
      6.93375245e-02 0. 0. 0. 0. 0. 0. 0. 0. 3.46687615e-01 0. 0. 0. 0.
      0. 0. 0. 6.93375245e-02 6.93375245e-02 0. 0. 0. 0. 0.
      1.38675049e-01</_>
    <_>
      5.14122367e-01 5.80529809e-01 6.31397963e-01 0. 0. 0. 0. 0. 0. 0.
      0. 0. 0. 0. 0. 0. 0. 0. 0. 0. 0. 0. 0. 0. 0. 0. 0. 0. 0. 0. 0. 0.
      0. 0. 0. 0. 0. 0. 0. 0. 0. 0. 0. 0. 0. 0. 0. 3.45238335e-02 0. 0.
      0. 0. 0. 2.07143009e-01 1.03571504e-01 0. 0. 0. 0. 0. 0. 0. 0. 0.
      0. 0. 0. 0. 0. 0. 0. 0. 0. 0. 0. 0. 0. 0. 0. 0. 0. 0. 0. 0. 0. 0.
      0. 0. 0. 3.45238335e-02 1.72619164e-01 0. 0. 0. 0. 0.
      3.10714513e-01 1.03571504e-01 0. 0. 0. 0. 0. 0. 0. 0. 0. 0. 0. 0.
      0. 0. 0. 0. 0. 0. 0. 0. 0. 0. 0. 0. 0. 0. 0. 0. 0. 0. 0. 0. 0. 0.
      3.10714513e-01 3.10714513e-01 0. 0. 0. 0. 0. 4.83333647e-01
      2.07143009e-01 0. 0. 0. 0. 0. 0. 0. 0. 0. 0. 0. 0. 0. 0. 0. 0. 0.
      0. 0. 0. 0. 0. 0. 0. 0. 0. 0. 0. 0. 0. 0. 0. 0. 0. 2.07143009e-01
      2.41666824e-01 0. 0. 0. 0. 0. 1.72619164e-01 0. 0. 0. 0. 0. 0. 0.
      0. 0. 0. 0. 0. 0. 0. 0. 0. 0. 0. 0. 0. 0. 0. 0. 0. 0. 0. 0. 0. 0.
      6.90476671e-02 0. 0. 0. 0. 0. 4.48809862e-01 2.93105185e-01 0.
      5.86210378e-02 0. 0. 0. 2.34484151e-01 0. 5.86210378e-02
      5.86210378e-02 0. 0. 1.17242076e-01 5.86210378e-02 5.86210378e-02
      0. 0. 0. 0. 0. 0. 0. 0. 0. 5.86210378e-02 0. 0. 0. 1.17242076e-01
      0. 5.86210378e-02 0. 5.86210378e-02 0. 0. 0. 0. 0. 0. 0. 0. 0. 0.
      0. 0. 0. 0. 0. 0. 0. 0. 0. 0. 0. 0. 0. 2.93105185e-01
      5.86210378e-02 0. 0. 3.51726234e-01 5.86210378e-02 5.86210378e-02
      0. 1.17242076e-01 0. 0. 0. 0. 0. 0. 0. 0. 0. 0. 0. 0. 0. 0. 0. 0.
      0. 0. 0. 0. 0. 0. 0. 0. 0. 0. 0. 0. 0. 0. 0. 5.86210378e-02 0. 0.
      0. 0. 0. 0. 5.86210378e-02 5.86210378e-02 0. 0. 0. 0. 0. 0. 0.
      1.17242076e-01 0. 0. 0. 5.86210378e-02 0. 0. 0. 1.17242076e-01 0.
      0. 0. 0. 0. 5.86210378e-02 0. 1.17242076e-01 1.17242076e-01 0.
      2.93105185e-01 0. 0. 0. 2.93105185e-01 0. 0. 0. 0. 0. 0. 0. 0. 0.
      0. 0. 0. 0. 0. 0. 0. 0. 0. 0. 5.86210378e-02 5.86210378e-02 0. 0.
      5.86210378e-02 0. 0. 0. 0. 0. 0. 0. 0. 0. 0. 0. 0. 0. 0. 0. 0.
      5.86210378e-02 0. 0. 0. 0. 0. 0. 1.17242076e-01 0. 0. 0. 0. 0.
      5.86210378e-02 0. 5.86210378e-02 0. 1.17242076e-01 5.86210378e-02
      1.75863117e-01 0. 0. 0. 2.93105185e-01 0. 0. 0. 0. 0. 0. 0.
      5.86210378e-02 0. 0. 0. 5.86210378e-02 0. 0. 0. 0. 0. 0. 0. 0. 0.
      0. 0. 0. 1.75863117e-01 1.17242076e-01 0. 1.17242076e-01 0. 0. 0.
      5.86210378e-02 0. 0. 0. 0. 0. 0. 0. 0. 1.17242076e-01 0. 0.
      5.86210378e-02 0. 0. 0. 5.86210378e-02 0. 0. 0. 0. 0.
      1.17242076e-01 0. 2.34484151e-01</_>
    <_>
      5.69159329e-01 5.79423249e-01 5.83374858e-01 0. 0. 0. 0. 0. 0. 0.
      0. 0. 0. 0. 0. 0. 0. 0. 0. 0. 0. 0. 0. 0. 0. 0. 0. 0. 0. 0. 0. 0.
      0. 0. 0. 0. 0. 0. 0. 0. 0. 0. 0. 0. 0. 0. 1.88746452e-02
      1.88746452e-02 0. 0. 0. 0. 0. 7.54985809e-02 0. 0. 0. 0. 0. 0. 0.
      0. 0. 0. 0. 0. 0. 0. 0. 0. 0. 0. 0. 0. 0. 0. 0. 0. 0. 0. 0. 0. 0.
      0. 0. 0. 0. 0. 0. 1.13247871e-01 1.88746452e-02 0. 0. 0. 0. 0.
      1.69871807e-01 0. 0. 0. 0. 0. 0. 0. 0. 0. 0. 0. 0. 0. 0. 0. 0. 0.
      0. 0. 0. 0. 0. 0. 0. 0. 0. 0. 0. 0. 0. 0. 0. 0. 0. 0.
      9.43732262e-02 1.88746452e-02 0. 0. 0. 0. 0. 9.43732262e-02 0. 0.
      0. 0. 0. 0. 0. 0. 0. 0. 0. 0. 0. 0. 0. 0. 0. 0. 0. 0. 0. 0. 0. 0.
      0. 0. 0. 0. 0. 0. 0. 0. 0. 0. 0. 2.83119678e-01 5.66239357e-02 0.
      0. 0. 0. 0. 3.77492905e-02 0. 0. 0. 0. 0. 0. 0. 0. 0. 0. 0. 0. 0.
      0. 0. 0. 0. 0. 0. 0. 0. 0. 0. 0. 0. 0. 0. 0. 9.43732262e-02
      3.77492905e-02 0. 0. 0. 0. 1.32122517e-01 9.05982971e-01
      1.70664042e-01 0. 1.13776028e-01 5.68880141e-02 0. 0.
      5.68880141e-02 1.70664042e-01 0. 0. 0. 0. 5.68880141e-02 0.
      1.70664042e-01 1.13776028e-01 1.13776028e-01 0. 0. 0. 0. 0. 0. 0.
      5.68880141e-02 0. 1.13776028e-01 0. 5.68880141e-02 0.
      3.98216099e-01 1.70664042e-01 0. 1.13776028e-01 0. 0. 0. 0. 0. 0.
      0. 0. 0. 0. 0. 0. 0. 0. 0. 0. 0. 0. 0. 0. 0. 0. 5.68880141e-02 0.
      0. 0. 5.68880141e-02 0. 2.27552056e-01 5.68880141e-02
      5.68880141e-02 0. 0. 0. 5.68880141e-02 0. 0. 0. 0. 0. 0. 0. 0. 0.
      0. 0. 0. 0. 0. 0. 0. 0. 0. 0. 0. 0. 0. 0. 0. 0. 5.68880141e-02
      1.13776028e-01 0. 5.68880141e-02 0. 0. 0. 0. 0. 0. 0. 0. 0. 0. 0.
      0. 0. 0. 5.68880141e-02 0. 0. 0. 0. 0. 0. 0. 2.27552056e-01 0. 0.
      0. 1.70664042e-01 5.68880141e-02 1.70664042e-01 5.68880141e-02 0.
      5.68880141e-02 0. 1.13776028e-01 0. 0. 0. 1.13776028e-01 0. 0. 0.
      0. 0. 5.68880141e-02 0. 1.70664042e-01 0. 0. 0. 0. 0. 0. 0. 0. 0.
      0. 0. 0. 0. 0. 0. 5.68880141e-02 5.68880141e-02 5.68880141e-02 0.
      0. 0. 0. 0. 0. 0. 0. 0. 0. 0. 0. 0. 0. 0. 0. 0. 0. 0. 0. 0. 0. 0.
      0. 0. 0. 0. 0. 0. 5.68880141e-02 0. 1.13776028e-01 0. 0. 0. 0.
      1.13776028e-01 1.70664042e-01 0. 0. 0. 0. 0. 0. 0. 5.68880141e-02
      0. 0. 0. 5.68880141e-02 0. 0. 0. 0. 0. 0. 0. 0. 0. 0.
      1.13776028e-01 0. 1.13776028e-01 2.27552056e-01 0. 5.68880141e-02
      5.68880141e-02 0. 5.68880141e-02 5.68880141e-02 0. 0. 0. 0. 0.
      5.68880141e-02 0. 5.68880141e-02 2.27552056e-01 0. 0.
      5.68880141e-02 5.68880141e-02 5.68880141e-02 0. 1.13776028e-01
      5.68880141e-02 5.68880141e-02 0. 5.68880141e-02 5.68880141e-02 0.
      0. 3.41328084e-01</_>
    <_>
      5.69966972e-01 5.75033367e-01 5.86919367e-01 0. 0. 0. 0. 0. 0. 0.
      0. 0. 0. 0. 0. 0. 0. 0. 0. 0. 0. 0. 0. 0. 0. 0. 0. 0. 0. 0. 0. 0.
      0. 0. 0. 0. 0. 0. 0. 0. 0. 0. 0. 0. 0. 0. 0. 0. 0. 0. 0. 0. 0.
      1.00902067e-02 0. 0. 0. 0. 0. 0. 0. 0. 0. 0. 0. 0. 0. 0. 0. 0. 0.
      0. 0. 0. 0. 0. 0. 0. 0. 0. 0. 0. 0. 0. 0. 0. 0. 0. 0.
      1.00902067e-02 1.00902067e-02 0. 0. 0. 0. 0. 8.07216540e-02
      1.00902067e-02 0. 0. 0. 0. 0. 0. 0. 0. 0. 0. 0. 0. 0. 0. 0. 0. 0.
      0. 0. 0. 0. 0. 0. 0. 0. 0. 0. 0. 0. 0. 0. 0. 0. 0. 2.01804135e-02
      3.02706193e-02 0. 0. 0. 0. 0. 8.07216540e-02 1.00902067e-02 0. 0.
      0. 0. 0. 0. 0. 0. 0. 0. 0. 0. 0. 0. 0. 0. 0. 0. 0. 0. 0. 0. 0. 0.
      0. 0. 0. 0. 0. 0. 0. 0. 0. 0. 1.31172687e-01 8.07216540e-02 0. 0.
      0. 0. 0. 3.02706193e-02 0. 0. 0. 0. 0. 0. 0. 0. 0. 0. 0. 0. 0. 0.
      0. 0. 0. 0. 0. 0. 0. 0. 0. 0. 0. 0. 0. 0. 0. 0. 0. 0. 0. 0.
      5.04510291e-02 9.78749990e-01 1.52943820e-01 0. 3.82359549e-02
      3.82359549e-02 0. 0. 3.82359549e-02 7.64719099e-02 3.82359549e-02
      0. 0. 0. 1.14707865e-01 0. 7.64719099e-02 3.82359549e-02 0. 0. 0.
      3.82359549e-02 0. 0. 0. 0. 3.82359549e-02 0. 0. 0. 3.82359549e-02
      0. 1.14707865e-01 3.82359549e-02 7.64719099e-02 0. 0.
      3.82359549e-02 0. 0. 0. 0. 0. 0. 0. 0. 3.82359549e-02 0.
      3.82359549e-02 3.82359549e-02 0. 0. 0. 0. 0. 0. 0. 0.
      1.14707865e-01 3.82359549e-02 0. 0. 3.82359549e-02 0. 0.
      7.64719099e-02 7.64719099e-02 0. 0. 3.82359549e-02 0. 0. 0. 0. 0.
      0. 0. 0. 0. 0. 0. 0. 0. 0. 0. 0. 0. 0. 0. 0. 0. 0. 0. 0. 0. 0. 0.
      0. 7.64719099e-02 0. 0. 0. 0. 0. 3.82359549e-02 0. 0. 0. 0. 0. 0.
      0. 0. 0. 1.91179782e-01 0. 0. 0. 3.82359549e-02 0. 0. 0.
      3.05887640e-01 0. 0. 3.82359549e-02 1.91179782e-01 0. 0.
      3.82359549e-02 3.82359549e-02 0. 3.82359549e-02 1.52943820e-01 0.
      0. 0. 3.05887640e-01 0. 0. 0. 0. 0. 0. 0. 0. 0. 0. 0. 0. 0. 0. 0.
      0. 0. 3.82359549e-02 0. 0. 0. 0. 0. 0. 0. 0. 0. 0. 0. 0. 0.
      7.64719099e-02 0. 0. 0. 0. 0. 0. 0. 0. 3.82359549e-02 0. 0. 0. 0.
      0. 0. 0. 0. 0. 0. 0. 0. 3.82359549e-02 0. 3.82359549e-02
      2.67651677e-01 0. 3.82359549e-02 5.35303354e-01 0. 0. 0.
      1.52943820e-01 0. 0. 0. 0. 0. 0. 0. 7.64719099e-02 3.82359549e-02
      0. 0. 3.82359549e-02 0. 0. 0. 3.82359549e-02 0. 0. 0. 0. 0. 0. 0.
      1.14707865e-01 7.64719099e-02 7.64719099e-02 0. 1.52943820e-01 0.
      0. 0. 0. 3.82359549e-02 0. 0. 0. 0. 0. 0. 3.82359549e-02
      1.91179782e-01 3.82359549e-02 3.82359549e-02 1.14707865e-01 0.
      3.82359549e-02 0. 3.82359549e-02 1.91179782e-01 1.14707865e-01 0.
      3.82359549e-02 0. 0. 0. 1.52943820e-01</_>
    <_>
      5.35976768e-01 5.87957323e-01 6.05834186e-01 0. 0. 0. 0. 0. 0. 0.
      9.48090926e-02 0. 0. 0. 0. 0. 0. 0. 0. 0. 0. 0. 0. 0. 0. 0. 0. 0.
      0. 0. 0. 0. 0. 0. 0. 0. 0. 0. 0. 0. 0. 0. 0. 0. 0. 0. 0.
      9.48090926e-02 0. 0. 0. 0. 0. 1.89618185e-01 0. 0. 0. 0. 0. 0. 0.
      0. 0. 0. 0. 0. 0. 0. 0. 0. 0. 0. 0. 0. 0. 0. 0. 0. 0. 0. 0. 0. 0.
      0. 0. 0. 0. 0. 0. 0. 4.74045463e-02 0. 0. 0. 0. 0. 9.48090926e-02
      9.48090926e-02 0. 0. 0. 0. 0. 0. 0. 0. 0. 0. 0. 0. 0. 0. 0. 0. 0.
      0. 0. 0. 0. 0. 0. 0. 0. 0. 0. 0. 0. 0. 0. 0. 0. 0. 4.74045463e-02
      1.42213643e-01 0. 0. 0. 0. 0. 2.84427285e-01 4.74045463e-02 0. 0.
      0. 0. 0. 0. 0. 0. 0. 0. 0. 0. 0. 0. 0. 0. 0. 0. 0. 0. 0. 0. 0. 0.
      0. 0. 0. 0. 0. 0. 0. 0. 0. 0. 3.31831813e-01 4.74045463e-02 0. 0.
      0. 0. 1.42213643e-01 1.89618185e-01 0. 0. 0. 0. 0. 0. 0. 0. 0. 0.
      0. 0. 0. 0. 0. 0. 0. 0. 0. 0. 0. 0. 0. 0. 0. 0. 0. 0. 0. 0. 0. 0.
      0. 0. 4.74045463e-02 8.05877268e-01 3.76288354e-01 0.
      1.88144177e-01 9.40720886e-02 0. 0. 0. 1.88144177e-01 0. 0. 0. 0.
      9.40720886e-02 0. 9.40720886e-02 9.40720886e-02 0. 0. 0. 0. 0. 0.
      0. 0. 9.40720886e-02 0. 0. 0. 0. 0. 1.88144177e-01 0.
      1.88144177e-01 0. 0. 0. 0. 0. 0. 0. 0. 0. 0. 0. 0. 0. 0. 0.
      9.40720886e-02 0. 0. 0. 0. 0. 0. 0. 0. 0. 0. 0. 0. 0. 0. 0. 0. 0.
      0. 0. 0. 0. 0. 0. 0. 0. 0. 0. 0. 0. 0. 0. 0. 0. 0. 0. 0. 0. 0. 0.
      0. 0. 0. 0. 0. 0. 0. 0. 0. 0. 0. 0. 0. 0. 0. 0. 0. 0. 0. 0. 0. 0.
      0. 0. 1.88144177e-01 0. 0. 0. 0. 0. 0. 0. 4.70360458e-01
      9.40720886e-02 0. 0. 0. 0. 0. 9.40720886e-02 9.40720886e-02
      9.40720886e-02 9.40720886e-02 9.40720886e-02 0. 9.40720886e-02 0.
      1.88144177e-01 0. 0. 0. 0. 0. 0. 0. 9.40720886e-02 0. 0. 0. 0. 0.
      0. 0. 0. 1.88144177e-01 0. 0. 0. 0. 0. 0. 1.88144177e-01 0. 0. 0.
      0. 0. 0. 0. 0. 0. 0. 0. 0. 0. 0. 0. 0. 0. 0. 0. 0. 0. 0. 0. 0. 0.
      0. 0. 0. 0. 0. 0. 0. 0. 9.40720886e-02 0. 9.40720886e-02 0. 0. 0.
      1.88144177e-01 9.40720886e-02 0. 0. 0. 0. 0. 0. 0. 0. 0. 0. 0. 0.
      0. 0. 9.40720886e-02 0. 0. 0. 0. 0. 0. 0. 0. 1.88144177e-01 0. 0.
      0. 0. 0. 0. 0. 0. 9.40720886e-02 0. 0. 0. 0. 0. 0. 9.40720886e-02
      0. 0. 9.40720886e-02 0. 0. 0. 1.88144177e-01 9.40720886e-02
      9.40720886e-02 0. 9.40720886e-02 0. 0. 0. 1.88144177e-01</_>
    <_>
      5.70330203e-01 5.79749644e-01 5.81905365e-01 0. 0. 0. 0. 0. 0. 0.
      0. 0. 0. 0. 0. 0. 0. 0. 0. 0. 0. 0. 0. 0. 0. 0. 0. 0. 0. 0. 0. 0.
      0. 0. 0. 0. 0. 0. 0. 0. 0. 0. 0. 0. 0. 0. 0. 0. 0. 0. 0. 0. 0. 0.
      0. 0. 0. 0. 0. 0. 0. 0. 0. 0. 0. 0. 0. 0. 0. 0. 0. 0. 0. 0. 0. 0.
      0. 0. 0. 0. 0. 0. 0. 0. 0. 0. 0. 0. 0. 0. 0. 0. 0. 0. 0. 0.
      1.11434879e-02 0. 0. 0. 0. 0. 0. 0. 0. 0. 0. 0. 0. 0. 0. 0. 0. 0.
      0. 0. 0. 0. 0. 0. 0. 0. 0. 0. 0. 0. 0. 0. 0. 0. 0. 0.
      2.22869758e-02 5.57174385e-02 0. 0. 0. 0. 0. 5.57174385e-02 0. 0.
      0. 0. 0. 0. 0. 0. 0. 0. 0. 0. 0. 0. 0. 0. 0. 0. 0. 0. 0. 0. 0. 0.
      0. 0. 0. 0. 0. 0. 0. 0. 0. 0. 0. 2.00582787e-01 5.57174385e-02 0.
      0. 0. 0. 0. 8.91479030e-02 0. 0. 0. 0. 0. 0. 0. 0. 0. 0. 0. 0. 0.
      0. 0. 0. 0. 0. 0. 0. 0. 0. 0. 0. 0. 0. 0. 0. 0. 0. 0. 0. 0. 0.
      4.45739515e-02 9.69483495e-01 3.73408020e-01 9.33520049e-02 0.
      9.33520049e-02 9.33520049e-02 0. 9.33520049e-02 1.40028000e-01
      2.33380020e-01 0. 4.66760024e-02 4.66760024e-02 4.66760024e-02 0.
      4.66760024e-02 1.86704010e-01 0. 0. 0. 0. 0. 0. 0. 0. 0. 0. 0. 0.
      4.66760024e-02 0. 0. 1.86704010e-01 4.66760024e-02 0. 0. 0.
      4.66760024e-02 0. 0. 0. 0. 0. 0. 0. 0. 0. 4.66760024e-02 0.
      4.66760024e-02 0. 0. 4.66760024e-02 4.66760024e-02 0. 0. 0.
      4.66760024e-02 0. 0. 0. 2.80056000e-01 4.66760024e-02 0.
      4.66760024e-02 4.66760024e-02 0. 0. 0. 0. 0. 0. 4.66760024e-02 0.
      0. 0. 0. 0. 0. 0. 0. 0. 0. 0. 0. 0. 0. 0. 0. 4.66760024e-02 0. 0.
      0. 0. 0. 0. 0. 0. 0. 0. 0. 0. 0. 0. 0. 4.66760024e-02 0. 0. 0. 0.
      0. 4.66760024e-02 0. 2.33380020e-01 0. 0. 0. 0. 0. 0.
      4.66760024e-02 2.33380020e-01 0. 0. 0. 4.66760024e-02 0.
      4.66760024e-02 4.66760024e-02 9.33520049e-02 1.40028000e-01 0.
      4.66760024e-02 0. 0. 4.66760024e-02 2.80056000e-01 0. 0. 0. 0.
      4.66760024e-02 9.33520049e-02 4.66760024e-02 1.40028000e-01 0. 0.
      0. 0. 0. 0. 0. 0. 9.33520049e-02 0. 0. 0. 0. 0. 0. 0. 0.
      4.66760024e-02 0. 0. 0. 0. 0. 0. 0. 0. 0. 0. 0. 0. 0. 0.
      4.66760024e-02 0. 0. 0. 0. 0. 0. 0. 0. 4.66760024e-02 0. 0. 0. 0.
      0. 0. 1.86704010e-01 0. 0. 0. 0. 0. 0. 1.40028000e-01 0. 0. 0. 0.
      4.66760024e-02 0. 0. 0. 0. 0. 0. 0. 0. 0. 0. 0. 0. 0. 0. 0. 0. 0.
      0. 0. 9.33520049e-02 4.66760024e-02 4.66760024e-02 0. 0. 0. 0.
      4.66760024e-02 4.66760024e-02 0. 0. 0. 0. 0. 0. 0. 2.80056000e-01
      4.66760024e-02 0. 1.40028000e-01 0. 0. 0. 4.66760024e-02
      1.86704010e-01 0. 0. 0. 1.86704010e-01 1.40028000e-01 0.
      1.40028000e-01</_>
    <_>
      5.78890264e-01 5.74515462e-01 5.78634620e-01 0. 0. 0. 0. 0. 0. 0.
      0. 0. 0. 0. 0. 0. 0. 0. 0. 0. 0. 0. 0. 0. 0. 0. 0. 0. 0. 0. 0. 0.
      0. 0. 0. 0. 0. 0. 0. 0. 0. 0. 0. 0. 0. 0. 0. 0. 0. 0. 0. 0. 0. 0.
      0. 0. 0. 0. 0. 0. 0. 0. 0. 0. 0. 0. 0. 0. 0. 0. 0. 0. 0. 0. 0. 0.
      0. 0. 0. 0. 0. 0. 0. 0. 0. 0. 0. 0. 0. 0. 0. 0. 0. 0. 0. 0. 0. 0.
      0. 0. 0. 0. 0. 0. 0. 0. 0. 0. 0. 0. 0. 0. 0. 0. 0. 0. 0. 0. 0. 0.
      0. 0. 0. 0. 0. 0. 0. 0. 0. 0. 0. 0. 0. 1.94403958e-02 0. 0. 0. 0.
      0. 1.94403958e-02 0. 0. 0. 0. 0. 0. 0. 0. 0. 0. 0. 0. 0. 0. 0. 0.
      0. 0. 0. 0. 0. 0. 0. 0. 0. 0. 0. 0. 0. 0. 0. 0. 0. 0. 0.
      6.60973430e-01 9.72019732e-02 0. 0. 0. 0. 0. 7.77615830e-02 0. 0.
      0. 0. 0. 0. 0. 0. 0. 0. 0. 0. 0. 0. 0. 0. 0. 0. 0. 0. 0. 0. 0. 0.
      0. 0. 0. 0. 1.36082768e-01 3.88807915e-02 0. 0. 0. 0.
      9.72019732e-02 7.19294608e-01 9.51303020e-02 0. 0. 0. 0. 0.
      9.51303020e-02 0. 0. 0. 0. 0. 4.75651510e-02 0. 0. 0. 0. 0. 0. 0.
      0. 0. 0. 0. 4.75651510e-02 0. 0. 0. 4.75651510e-02 0.
      1.42695457e-01 0. 0. 0. 4.75651510e-02 0. 0. 0. 0. 4.75651510e-02
      0. 0. 0. 0. 0. 0. 0. 0. 4.75651510e-02 0. 4.75651510e-02
      4.75651510e-02 0. 0. 0. 0. 1.90260604e-01 0. 0. 0. 4.75651510e-02
      0. 4.75651510e-02 0. 0. 0. 0. 0. 0. 0. 0. 0. 0. 0. 0. 0. 0. 0. 0.
      0. 0. 0. 0. 0. 0. 0. 0. 0. 0. 0. 0. 0. 4.75651510e-02 0. 0. 0.
      9.51303020e-02 0. 0. 0. 0. 0. 0. 0. 0. 0. 0. 0. 0. 0. 0. 0.
      3.80521208e-01 0. 0. 0. 0. 0. 0. 0. 6.18346989e-01 0.
      4.75651510e-02 0. 9.51303020e-02 0. 4.75651510e-02 0.
      1.42695457e-01 4.75651510e-02 0. 1.90260604e-01 0. 0. 0.
      9.51303020e-02 0. 0. 0. 0. 0. 0. 0. 9.51303020e-02 0. 0. 0. 0. 0.
      0. 0. 0. 0. 0. 0. 0. 0. 0. 0. 0. 0. 0. 0. 0. 0. 0. 0. 0. 0. 0. 0.
      0. 0. 0. 0. 0. 0. 0. 0. 0. 0. 0. 0. 0. 0. 0. 0. 0. 0. 0. 0. 0.
      4.75651510e-02 0. 0. 4.75651510e-02 0. 0. 0. 1.90260604e-01 0. 0.
      0. 0. 4.75651510e-02 0. 0. 4.75651510e-02 0. 0. 0. 0. 0. 0. 0. 0.
      0. 0. 0. 0. 0. 0. 0. 0. 2.85390913e-01 9.51303020e-02 0.
      9.51303020e-02 0. 0. 0. 4.75651510e-02 0. 0. 0. 0. 0. 0. 0.
      4.75651510e-02 0. 1.42695457e-01 0. 4.75651510e-02 0. 0. 0. 0.
      2.37825751e-01 0. 0. 0. 0. 9.51303020e-02 0. 1.90260604e-01</_>
    <_>
      5.80619514e-01 5.77330887e-01 5.74081898e-01 0. 0. 0. 0. 0. 0. 0.
      0. 0. 0. 0. 0. 0. 0. 0. 0. 0. 0. 0. 0. 0. 0. 0. 0. 0. 0. 0. 0. 0.
      0. 0. 0. 0. 0. 0. 0. 0. 0. 0. 0. 0. 0. 0. 0. 0. 0. 0. 0. 0. 0. 0.
      0. 0. 0. 0. 0. 0. 0. 0. 0. 0. 0. 0. 0. 0. 0. 0. 0. 0. 0. 0. 0. 0.
      0. 0. 0. 0. 0. 0. 0. 0. 0. 0. 0. 0. 0. 0. 0. 0. 0. 0. 0. 0. 0. 0.
      0. 0. 0. 0. 0. 0. 0. 0. 0. 0. 0. 0. 0. 0. 0. 0. 0. 0. 0. 0. 0. 0.
      0. 0. 0. 0. 0. 0. 0. 0. 0. 0. 0. 0. 0. 0. 0. 0. 0. 0. 0.
      8.98715295e-03 0. 0. 0. 0. 0. 0. 0. 0. 0. 0. 0. 0. 0. 0. 0. 0. 0.
      0. 0. 0. 0. 0. 0. 0. 0. 0. 0. 0. 0. 0. 0. 0. 0. 0. 0.
      2.69614588e-02 8.98715295e-03 0. 0. 0. 0. 0. 6.29100725e-02 0. 0.
      0. 0. 0. 0. 0. 0. 0. 0. 0. 0. 0. 0. 0. 0. 0. 0. 0. 0. 0. 0. 0. 0.
      0. 0. 0. 0. 0. 0. 0. 0. 0. 0. 0. 9.97573972e-01 4.25243266e-02 0.
      8.50486532e-02 0. 8.50486532e-02 0. 4.25243266e-02 8.50486532e-02
      4.25243266e-02 0. 4.25243266e-02 0. 4.25243266e-02 0.
      8.50486532e-02 2.12621629e-01 0. 0. 0. 0. 0. 0. 0. 0.
      4.25243266e-02 0. 0. 4.25243266e-02 4.25243266e-02 4.25243266e-02
      4.25243266e-02 8.50486532e-02 8.50486532e-02 0. 0. 0. 0. 0. 0. 0.
      0. 0. 0. 0. 0. 0. 0. 0. 8.50486532e-02 4.25243266e-02 0. 0. 0. 0.
      0. 4.25243266e-02 8.50486532e-02 0. 4.25243266e-02 0. 0. 0.
      1.27572984e-01 8.50486532e-02 0. 0. 0. 0. 0. 0. 0. 0. 0. 0. 0. 0.
      0. 0. 0. 0. 4.25243266e-02 0. 0. 0. 0. 0. 0. 0. 0. 0. 0. 0.
      4.25243266e-02 0. 0. 0. 4.25243266e-02 0. 4.25243266e-02 0. 0. 0.
      0. 0. 0. 0. 0. 4.25243266e-02 0. 0. 0. 0. 1.27572984e-01
      4.25243266e-02 0. 0. 0. 0. 0. 0. 8.50486532e-02 0. 0. 0. 0. 0.
      4.25243266e-02 4.25243266e-02 8.50486532e-02 0. 0. 4.25243266e-02
      0. 0. 0. 1.27572984e-01 0. 0. 0. 0. 0. 0. 8.50486532e-02
      1.70097306e-01 0. 0. 0. 0. 0. 0. 0. 0. 0. 0. 0. 0. 0. 0. 0.
      8.50486532e-02 0. 0. 0. 0. 0. 0. 0. 0. 0. 0. 0. 0. 0. 0. 0. 0.
      4.25243266e-02 4.25243266e-02 0. 0. 0. 0. 0. 0. 0. 0. 0. 0. 0. 0.
      4.25243266e-02 4.25243266e-02 0. 4.25243266e-02 0. 4.25243266e-02
      0. 0. 0. 4.25243266e-02 0. 0. 0. 0. 0. 4.25243266e-02 0.
      4.25243266e-02 0. 4.25243266e-02 0. 0. 0. 0. 0. 0. 4.25243266e-02
      0. 0. 0. 0. 0. 0. 8.50486532e-02 8.50486532e-02 4.25243266e-02
      4.25243266e-02 4.25243266e-02 4.25243266e-02 0. 4.25243266e-02 0.
      4.25243266e-02 0. 0. 0. 0. 0. 0. 4.25243266e-02 7.65437901e-01
      4.25243266e-02 0. 0. 4.25243266e-02 0. 0. 1.27572984e-01
      2.55145967e-01 4.25243266e-02 0. 0. 0. 8.50486532e-02 0.
      1.27572984e-01</_>
    <_>
      5.27755320e-01 5.88848710e-01 6.12153113e-01 0. 0. 0. 0. 0. 0. 0.
      5.05076312e-02 0. 0. 0. 0. 0. 0. 0. 0. 0. 0. 0. 0. 0. 0. 0. 0. 0.
      0. 0. 0. 0. 0. 0. 0. 0. 0. 0. 0. 0. 0. 0. 0. 0. 0. 0.
      5.05076312e-02 5.05076312e-02 0. 0. 0. 0. 0. 1.51522890e-01 0. 0.
      0. 0. 0. 0. 0. 0. 0. 0. 0. 0. 0. 0. 0. 0. 0. 0. 0. 0. 0. 0. 0. 0.
      0. 0. 0. 0. 0. 0. 0. 0. 0. 0. 0. 3.03045779e-01 1.01015262e-01 0.
      0. 0. 0. 0. 6.06091559e-01 0. 0. 0. 0. 0. 0. 0. 0. 0. 0. 0. 0. 0.
      0. 0. 0. 0. 0. 0. 0. 0. 0. 0. 0. 0. 0. 0. 0. 0. 0. 0. 0. 0. 0. 0.
      2.02030525e-01 5.05076312e-02 0. 0. 0. 0. 0. 1.51522890e-01 0. 0.
      0. 0. 0. 0. 0. 0. 0. 0. 0. 0. 0. 0. 0. 0. 0. 0. 0. 0. 0. 0. 0. 0.
      0. 0. 0. 0. 0. 0. 0. 0. 0. 0. 0. 5.55583894e-01 0. 0. 0. 0. 0. 0.
      0. 0. 0. 0. 0. 0. 0. 0. 0. 0. 0. 0. 0. 0. 0. 0. 0. 0. 0. 0. 0. 0.
      0. 0. 0. 0. 0. 0. 0. 0. 0. 0. 0. 0. 0. 0. 3.53553385e-01
      9.28476676e-02 0. 0. 0. 9.28476676e-02 0. 0. 1.85695335e-01
      1.85695335e-01 0. 0. 0. 0. 0. 1.85695335e-01 3.71390671e-01 0. 0.
      0. 0. 0. 0. 0. 0. 0. 0. 0. 0. 0. 0. 0. 9.28476676e-02 0. 0. 0. 0.
      0. 0. 0. 0. 0. 0. 0. 0. 0. 0. 0. 0. 9.28476676e-02 0. 0. 0. 0. 0.
      0. 0. 2.78542995e-01 0. 0. 0. 1.85695335e-01 0. 0. 0. 0. 0. 0. 0.
      0. 0. 0. 9.28476676e-02 0. 0. 0. 0. 0. 0. 0. 0. 0. 0. 0. 0. 0. 0.
      0. 0. 0. 0. 0. 0. 0. 0. 0. 0. 0. 0. 0. 0. 0. 0. 0. 0. 0. 0. 0. 0.
      0. 0. 0. 9.28476676e-02 9.28476676e-02 0. 0. 0. 0. 0. 0. 0.
      3.71390671e-01 0. 0. 0. 2.78542995e-01 0. 0. 9.28476676e-02
      1.85695335e-01 9.28476676e-02 0. 0. 0. 0. 0. 0. 0. 0. 0. 0. 0. 0.
      0. 3.71390671e-01 0. 0. 0. 9.28476676e-02 0. 0. 0. 0. 0. 0. 0. 0.
      0. 0. 0. 0. 0. 0. 0. 0. 0. 0. 0. 0. 0. 0. 0. 0. 0. 0. 0. 0. 0. 0.
      0. 0. 0. 0. 0. 0. 9.28476676e-02 0. 0. 0. 0. 0. 0. 0. 0. 0. 0. 0.
      0. 0. 0. 0. 0. 0. 0. 0. 0. 0. 0. 9.28476676e-02 0. 0. 0. 0. 0. 0.
      0. 0. 0. 0. 0. 0. 0. 9.28476676e-02 0. 0. 0. 2.78542995e-01 0.
      9.28476676e-02 0. 0. 0. 9.28476676e-02 0. 0. 0. 0. 0. 0. 0.
      9.28476676e-02 9.28476676e-02 0. 0. 0. 0. 0. 0. 0. 9.28476676e-02
      9.28476676e-02 0. 0. 9.28476676e-02 0. 0. 9.28476676e-02</_>
    <_>
      5.35993636e-01 5.84668636e-01 6.08993769e-01 0. 0. 0. 0. 0. 0. 0.
      0. 1.94074176e-02 0. 0. 0. 0. 0. 3.88148353e-02 0. 0. 0. 0. 0. 0.
      0. 0. 0. 0. 0. 0. 0. 0. 0. 0. 0. 0. 0. 0. 0. 0. 0. 0. 0. 0. 0. 0.
      0. 1.94074176e-02 0. 0. 0. 0. 0. 1.94074169e-01 1.94074176e-02 0.
      0. 0. 0. 0. 0. 0. 0. 0. 0. 0. 0. 0. 0. 0. 0. 0. 0. 0. 0. 0. 0. 0.
      0. 0. 0. 0. 0. 0. 0. 0. 0. 0. 0. 0. 5.82222529e-02 0. 0. 0. 0. 0.
      3.88148353e-02 0. 0. 0. 0. 0. 0. 0. 0. 0. 0. 0. 0. 0. 0. 0. 0. 0.
      0. 0. 0. 0. 0. 0. 0. 0. 0. 0. 0. 0. 0. 0. 0. 0. 0. 0. 0.
      1.94074176e-02 0. 0. 0. 0. 0. 1.16444506e-01 0. 0. 0. 0. 0. 0. 0.
      0. 0. 0. 0. 0. 0. 0. 0. 0. 0. 0. 0. 0. 0. 0. 0. 0. 0. 0. 0. 0. 0.
      0. 0. 0. 0. 0. 0. 3.49333525e-01 2.52296448e-01 0. 0. 0. 0. 0.
      4.26963180e-01 0. 0. 0. 0. 0. 0. 0. 0. 0. 0. 0. 0. 0. 0. 0. 0. 0.
      0. 0. 0. 0. 0. 0. 0. 0. 0. 0. 0. 0. 0. 0. 0. 0. 0. 0.
      7.56889284e-01 1.67394787e-01 0. 1.67394787e-01 2.09243476e-01 0.
      0. 2.09243476e-01 0. 4.18486968e-02 0. 0. 0. 8.36973935e-02 0.
      1.25546098e-01 0. 0. 0. 0. 0. 0. 0. 0. 0. 0. 0. 0. 0.
      1.67394787e-01 0. 4.60335672e-01 8.36973935e-02 2.51092196e-01 0.
      0. 4.18486968e-02 0. 0. 4.18486968e-02 0. 0. 4.18486968e-02 0. 0.
      0. 0. 0. 0. 4.18486968e-02 0. 0. 0. 0. 0. 0. 0. 1.67394787e-01 0.
      0. 0. 3.76638263e-01 0. 1.67394787e-01 4.18486968e-02 0. 0. 0. 0.
      0. 0. 0. 0. 0. 0. 0. 0. 0. 0. 0. 0. 0. 0. 0. 0. 0. 0. 0. 0. 0. 0.
      0. 0. 0. 0. 0. 0. 1.25546098e-01 0. 0. 0. 0. 0. 0. 0. 0. 0. 0. 0.
      0. 0. 0. 0. 4.18486968e-02 0. 0. 0. 0. 0. 0. 0. 4.18486968e-02 0.
      0. 0. 1.25546098e-01 0. 0. 4.18486968e-02 0. 0. 0. 1.25546098e-01
      0. 0. 0. 0. 0. 0. 0. 0. 0. 0. 0. 4.18486968e-02 0. 0. 0. 0. 0. 0.
      0. 0. 0. 0. 0. 0. 0. 0. 0. 1.25546098e-01 0. 0. 0. 0. 0. 0. 0. 0.
      0. 0. 0. 0. 0. 0. 0. 0. 0. 0. 0. 4.18486968e-02 0. 0. 0. 0. 0. 0.
      0. 0. 0. 0. 0. 0. 4.18486968e-02 1.67394787e-01 4.18486968e-02
      2.51092196e-01 0. 0. 0. 8.36973935e-02 0. 0. 0. 0. 0. 0. 0.
      8.36973935e-02 0. 0. 0. 0. 0. 0. 0. 0. 0. 0. 0. 0. 0. 0. 0.
      8.36973935e-02 0. 3.34789574e-01 0. 8.36973935e-02 0. 0. 0.
      4.18486968e-02 0. 0. 0. 0. 0. 0. 0. 0. 0. 0. 0. 0. 0. 0. 0.
      4.18486968e-02 4.18486968e-02 4.18486968e-02 0. 0. 0. 0. 0.
      4.18486968e-02</_>
    <_>
      3.37246001e-01 5.83826602e-01 7.38519847e-01 0. 0. 0. 0. 0. 0. 0.
      0. 1.84553355e-01 0. 0. 0. 0. 0. 1.47642687e-01 0. 0. 0. 0. 0. 0.
      0. 0. 0. 0. 0. 0. 0. 0. 0. 0. 0. 0. 0. 0. 0. 0. 0. 0. 0. 0. 0. 0.
      0. 1.10732019e-01 0. 0. 0. 0. 0. 8.12034786e-01 5.16749382e-01 0.
      0. 0. 0. 0. 0. 0. 0. 0. 0. 0. 0. 0. 0. 0. 0. 0. 0. 0. 0. 0. 0. 0.
      0. 0. 0. 0. 0. 0. 0. 0. 0. 0. 0. 0. 7.38213435e-02 0. 0. 0. 0. 0.
      0. 0. 0. 0. 0. 0. 0. 0. 0. 0. 0. 0. 0. 0. 0. 0. 0. 0. 0. 0. 0. 0.
      0. 0. 0. 0. 0. 0. 0. 0. 0. 0. 0. 0. 0. 0. 0. 0. 0. 0. 0. 0. 0. 0.
      0. 0. 0. 0. 0. 0. 0. 0. 0. 0. 0. 0. 0. 0. 0. 0. 0. 0. 0. 0. 0. 0.
      0. 0. 0. 0. 0. 0. 0. 0. 0. 0. 0. 0. 0. 0. 0. 0. 0. 0. 0. 0. 0. 0.
      0. 0. 0. 0. 0. 0. 0. 0. 0. 0. 0. 0. 0. 0. 0. 0. 0. 0. 0. 0. 0. 0.
      0. 0. 0. 0. 0. 0. 0. 0. 0. 0. 0. 0. 0. 0. 0. 0. 0. 0. 0. 0.
      9.62250456e-02 0. 9.62250456e-02 0. 0. 0. 0. 0. 0. 0. 0. 0. 0. 0.
      0. 0. 0. 9.62250456e-02 0. 0. 0. 9.62250456e-02 0. 4.81125236e-01
      9.62250456e-02 0. 0. 0. 0. 0. 0. 0. 0. 0. 0. 0. 0. 0. 0. 0. 0. 0.
      0. 0. 0. 0. 0. 0. 0. 0. 0. 0. 0. 1.92450091e-01 0. 1.92450091e-01
      1.92450091e-01 0. 0. 0. 0. 0. 0. 0. 0. 0. 0. 0. 0. 0. 0. 0. 0. 0.
      0. 0. 0. 0. 0. 0. 0. 0. 0. 0. 0. 0. 0. 0. 0. 0. 0. 0. 0. 0. 0. 0.
      0. 0. 0. 0. 0. 0. 0. 0. 0. 0. 0. 0. 0. 0. 0. 0. 0. 0. 0. 0. 0.
      1.92450091e-01 0. 1.92450091e-01 9.62250456e-02 0. 0. 0. 0. 0. 0.
      0. 0. 0. 0. 0. 0. 0. 0. 0. 0. 0. 0. 0. 0. 0. 0. 0. 0. 0. 0. 0. 0.
      0. 0. 0. 9.62250456e-02 0. 0. 0. 0. 0. 0. 0. 0. 0. 0. 0. 0. 0. 0.
      0. 0. 0. 0. 0. 9.62250456e-02 0. 0. 0. 0. 0. 0. 0. 0. 0. 0. 0. 0.
      0. 1.92450091e-01 0. 0. 0. 0. 0. 9.62250456e-02 0. 0. 0. 0. 0. 0.
      0. 9.62250456e-02 0. 0. 0. 0. 0. 0. 0. 0. 0. 0. 0. 0. 0.
      9.62250456e-02 0. 9.62250456e-02 0. 2.88675129e-01 0.
      9.62250456e-02 0. 9.62250456e-02 0. 9.62250456e-02 0. 0. 0. 0. 0.
      0. 0. 9.62250456e-02 0. 1.92450091e-01 0. 1.92450091e-01 0. 0. 0.
      0. 9.62250456e-02 1.92450091e-01 0. 0. 1.92450091e-01
      9.62250456e-02 0. 3.84900182e-01</_>
    <_>
      4.22051102e-01 5.85470378e-01 6.92168474e-01 0. 0. 0. 0. 0. 0. 0.
      0. 3.99751328e-02 0. 0. 0. 0. 0. 1.33250449e-02 0. 0. 0. 0. 0. 0.
      0. 0. 0. 0. 0. 0. 0. 0. 0. 0. 0. 0. 0. 0. 0. 0. 0. 0. 0. 0. 0. 0.
      0. 1.06600359e-01 0. 0. 0. 0. 0. 6.26277089e-01 7.32877493e-01 0.
      0. 0. 0. 0. 3.99751328e-02 0. 0. 0. 0. 0. 0. 0. 0. 0. 0. 0. 0. 0.
      0. 0. 0. 0. 0. 0. 0. 0. 0. 0. 0. 0. 0. 0. 0. 0. 1.06600359e-01 0.
      0. 0. 0. 0. 1.33250445e-01 3.99751328e-02 0. 0. 0. 0. 0. 0. 0. 0.
      0. 0. 0. 0. 0. 0. 0. 0. 0. 0. 0. 0. 0. 0. 0. 0. 0. 0. 0. 0. 0. 0.
      0. 0. 0. 0. 0. 2.66500898e-02 0. 0. 0. 0. 0. 1.33250449e-02 0. 0.
      0. 0. 0. 0. 0. 0. 0. 0. 0. 0. 0. 0. 0. 0. 0. 0. 0. 0. 0. 0. 0. 0.
      0. 0. 0. 0. 0. 0. 0. 0. 0. 0. 0. 5.33001795e-02 5.33001795e-02 0.
      0. 0. 0. 1.33250449e-02 0. 0. 0. 0. 0. 0. 0. 0. 0. 0. 0. 0. 0. 0.
      0. 0. 0. 0. 0. 0. 0. 0. 0. 0. 0. 0. 0. 0. 0. 0. 2.66500898e-02 0.
      0. 0. 0. 0. 1.33250445e-01 1.09985337e-01 0. 3.66617776e-02
      3.66617776e-02 3.66617776e-02 0. 3.66617776e-02 0. 3.66617776e-02
      0. 0. 0. 0. 0. 2.93294221e-01 3.66617776e-02 0. 0. 0. 0. 0. 0. 0.
      0. 1.46647111e-01 0. 0. 0. 1.09985337e-01 3.66617776e-02
      1.83308885e-01 3.66617776e-02 0. 0. 0. 0. 0. 0. 0. 0. 0. 0. 0. 0.
      0. 0. 0. 0. 3.66617776e-02 0. 0. 0. 0. 0. 3.66617776e-02 0.
      1.83308885e-01 3.66617776e-02 0. 0. 2.56632447e-01 0. 0. 0. 0.
      3.66617776e-02 0. 0. 0. 0. 3.66617776e-02 3.66617776e-02 0. 0. 0.
      0. 0. 0. 0. 3.66617776e-02 0. 0. 0. 0. 0. 0. 0. 0. 0. 0. 0. 0. 0.
      0. 3.66617776e-02 0. 7.33235553e-02 0. 0. 0. 0. 0. 3.66617776e-02
      0. 0. 0. 0. 0. 0. 0. 3.66617776e-02 0. 3.66617776e-02
      3.66617776e-02 0. 0. 0. 0. 3.66617776e-02 0. 1.46647111e-01
      3.66617776e-02 0. 0. 3.66617776e-02 3.66617776e-02 1.09985337e-01
      7.33235553e-02 3.66617776e-02 0. 3.66617776e-02 7.33235553e-02 0.
      0. 0. 2.19970673e-01 0. 0. 0. 0. 0. 0. 0. 0. 0. 0. 0. 0. 0. 0. 0.
      0. 0. 0. 0. 0. 0. 0. 0. 7.33235553e-02 0. 0. 0. 0. 0. 0. 0. 0. 0.
      0. 0. 0. 0. 0. 0. 0. 0. 0. 0. 0. 0. 0. 0. 3.66617776e-02 0. 0. 0.
      0. 0. 3.66617776e-02 0. 0. 0. 2.19970673e-01 0. 2.93294221e-01
      3.66617776e-02 0. 3.66617776e-02 7.33235553e-02 0. 0. 0. 0. 0. 0.
      0. 0. 0. 0. 0. 3.66617776e-02 0. 0. 0. 3.66617776e-02 0.
      3.66617776e-02 0. 3.66617776e-02 3.66617776e-02 0. 3.66617776e-02
      1.83308885e-01 1.09985337e-01 1.46647111e-01 0. 7.33235553e-02 0.
      0. 0. 3.66617776e-02 0. 3.66617776e-02 0. 3.66617776e-02 0. 0.
      3.66617776e-02 0. 3.66617776e-02 7.33235553e-02 0. 1.46647111e-01
      0. 0. 0. 2.19970673e-01 3.66617776e-02 7.33235553e-02 0.
      7.33235553e-02 3.66617776e-02 1.09985337e-01 0. 5.13264894e-01</_>
    <_>
      4.44760174e-01 5.90016007e-01 6.73846722e-01 0. 0. 0. 0. 0. 0. 0.
      0. 0. 0. 0. 0. 0. 0. 0. 0. 0. 0. 0. 0. 0. 0. 0. 0. 0. 0. 0. 0. 0.
      0. 0. 0. 0. 0. 0. 0. 0. 0. 0. 0. 0. 0. 0. 0. 0. 0. 0. 0. 0. 0. 0.
      0. 0. 0. 0. 0. 0. 0. 0. 0. 0. 0. 0. 0. 0. 0. 0. 0. 0. 0. 0. 0. 0.
      0. 0. 0. 0. 0. 0. 0. 0. 0. 0. 0. 0. 0. 0. 0. 0. 0. 0. 0. 0.
      7.71389246e-01 5.78541934e-01 0. 0. 0. 0. 0. 0. 0. 0. 0. 0. 0. 0.
      0. 0. 0. 0. 0. 0. 0. 0. 0. 0. 0. 0. 0. 0. 0. 0. 0. 0. 0. 0. 0. 0.
      6.42824322e-02 0. 0. 0. 0. 0. 0. 2.57129729e-01 0. 0. 0. 0. 0. 0.
      0. 0. 0. 0. 0. 0. 0. 0. 0. 0. 0. 0. 0. 0. 0. 0. 0. 0. 0. 0. 0. 0.
      0. 0. 0. 0. 0. 0. 0. 0. 0. 0. 0. 0. 0. 0. 0. 0. 0. 0. 0. 0. 0. 0.
      0. 0. 0. 0. 0. 0. 0. 0. 0. 0. 0. 0. 0. 0. 0. 0. 0. 0. 0. 0. 0. 0.
      0. 0. 0. 0. 0. 0. 0. 1.58113882e-01 0. 1.58113882e-01
      4.74341631e-01 0. 0. 1.58113882e-01 0. 0. 0. 1.58113882e-01 0. 0.
      0. 0. 1.58113882e-01 0. 0. 0. 0. 0. 0. 0. 0. 1.58113882e-01 0. 0.
      0. 0. 0. 3.16227764e-01 0. 0. 0. 0. 0. 0. 0. 0. 0. 0. 0. 0. 0. 0.
      0. 1.58113882e-01 0. 0. 0. 0. 0. 0. 0. 0. 0. 1.58113882e-01 0. 0.
      0. 0. 0. 0. 0. 0. 0. 0. 0. 0. 0. 0. 1.58113882e-01 0. 0. 0. 0. 0.
      0. 0. 0. 0. 0. 0. 0. 0. 0. 0. 0. 0. 0. 0. 0. 0. 0. 0. 0. 0. 0. 0.
      0. 0. 0. 0. 0. 0. 0. 0. 0. 0. 0. 0. 0. 1.58113882e-01 0. 0. 0. 0.
      0. 0. 0. 0. 0. 0. 0. 0. 0. 0. 0. 0. 4.74341631e-01 0. 0. 0. 0. 0.
      1.58113882e-01 0. 0. 0. 0. 0. 0. 0. 1.58113882e-01 0. 0. 0. 0. 0.
      0. 0. 0. 0. 0. 0. 0. 0. 0. 0. 0. 0. 0. 0. 0. 0. 0. 0. 0. 0. 0. 0.
      0. 0. 0. 0. 0. 0. 0. 0. 0. 0. 0. 0. 0. 0. 0. 0. 0. 0. 0. 0. 0. 0.
      1.58113882e-01 0. 1.58113882e-01 0. 0. 0. 0. 0. 0. 0. 0. 0. 0. 0.
      0. 0. 0. 0. 0. 0. 0. 0. 0. 0. 0. 0. 0. 0. 0. 0. 0. 1.58113882e-01
      1.58113882e-01 1.58113882e-01 1.58113882e-01 0. 0. 0. 0. 0. 0. 0.
      0. 0. 0. 0. 0. 0. 0. 0. 0. 0. 0. 0. 0. 0. 0. 0. 0. 0. 0. 0. 0.</_>
    <_>
      5.43693781e-01 5.83866656e-01 6.02906942e-01 0. 0. 0. 0. 0. 0. 0.
      0. 0. 0. 0. 0. 0. 0. 0. 0. 0. 0. 0. 0. 0. 0. 0. 0. 0. 0. 0. 0. 0.
      0. 0. 0. 0. 0. 0. 0. 0. 0. 0. 0. 0. 0. 0. 0. 0. 0. 0. 0. 0. 0. 0.
      0. 0. 0. 0. 0. 0. 0. 0. 0. 0. 0. 0. 0. 0. 0. 0. 0. 0. 0. 0. 0. 0.
      0. 0. 0. 0. 0. 0. 0. 0. 0. 0. 0. 0. 0. 0. 0. 0. 0. 0. 0. 0.
      1.76776692e-01 0. 0. 0. 0. 0. 0. 0. 0. 0. 0. 0. 0. 0. 0. 0. 0. 0.
      0. 0. 0. 0. 0. 0. 0. 0. 0. 0. 0. 0. 0. 0. 0. 0. 0. 0.
      3.53553385e-01 4.41941708e-01 0. 0. 0. 0. 0. 3.53553385e-01 0. 0.
      0. 0. 0. 0. 0. 0. 0. 0. 0. 0. 0. 0. 0. 0. 0. 0. 0. 0. 0. 0. 0. 0.
      0. 0. 0. 0. 0. 0. 0. 0. 0. 0. 0. 5.30330062e-01 1.76776692e-01 0.
      0. 0. 0. 8.83883461e-02 8.83883461e-02 0. 0. 0. 0. 0. 0. 0. 0. 0.
      0. 0. 0. 0. 0. 0. 0. 0. 0. 0. 0. 0. 0. 0. 0. 0. 0. 0. 0. 0. 0. 0.
      0. 0. 0. 0. 4.41941708e-01 1.38675049e-01 0. 0. 0. 0. 0. 0.
      1.38675049e-01 0. 0. 0. 0. 0. 0. 1.38675049e-01 0. 0. 0. 0. 0. 0.
      0. 0. 0. 0. 0. 0. 0. 1.38675049e-01 0. 0. 0. 0. 0. 0. 0. 0. 0. 0.
      0. 0. 0. 0. 0. 0. 0. 0. 0. 0. 0. 0. 0. 1.38675049e-01 0. 0. 0.
      2.77350098e-01 0. 0. 0. 4.16025162e-01 0. 1.38675049e-01 0. 0.
      1.38675049e-01 0. 0. 0. 0. 0. 0. 0. 0. 0. 0. 0. 0. 0. 0.
      1.38675049e-01 0. 0. 0. 0. 0. 0. 0. 0. 0. 0. 0. 0. 0. 0. 0.
      2.77350098e-01 0. 0. 0. 0. 0. 1.38675049e-01 0. 0. 0. 0. 0. 0. 0.
      0. 0. 0. 0. 0. 0. 0. 0. 0. 0. 1.38675049e-01 0. 0. 0.
      1.38675049e-01 0. 0. 0. 1.38675049e-01 0. 0. 4.16025162e-01 0. 0.
      0. 0. 0. 0. 0. 0. 0. 0. 0. 0. 0. 0. 0. 0. 0. 0. 0. 0. 0. 0. 0. 0.
      0. 0. 0. 0. 0. 0. 0. 0. 0. 0. 0. 0. 0. 0. 0. 0. 0. 0. 0. 0. 0. 0.
      0. 0. 0. 0. 0. 0. 0. 0. 0. 0. 0. 0. 0. 0. 0. 1.38675049e-01 0.
      1.38675049e-01 0. 0. 0. 0. 0. 0. 0. 0. 0. 0. 0. 0. 0. 0. 0. 0. 0.
      0. 0. 0. 0. 0. 0. 0. 0. 0. 0. 0. 1.38675049e-01 4.16025162e-01 0.
      0. 0. 0. 0. 1.38675049e-01 0. 0. 0. 0. 0. 0. 0. 0. 0. 0. 0. 0. 0.
      0. 0. 0. 0. 0. 0. 0. 0. 0. 1.38675049e-01 0.</_>
    <_>
      5.79824924e-01 5.75917363e-01 5.76300442e-01 0. 0. 0. 0. 0. 0. 0.
      0. 0. 0. 0. 0. 0. 0. 0. 0. 0. 0. 0. 0. 0. 0. 0. 0. 0. 0. 0. 0. 0.
      0. 0. 0. 0. 0. 0. 0. 0. 0. 0. 0. 0. 0. 0. 0. 0. 0. 0. 0. 0. 0. 0.
      0. 0. 0. 0. 0. 0. 0. 0. 0. 0. 0. 0. 0. 0. 0. 0. 0. 0. 0. 0. 0. 0.
      0. 0. 0. 0. 0. 0. 0. 0. 0. 0. 0. 0. 0. 0. 0. 0. 0. 0. 0. 0. 0. 0.
      0. 0. 0. 0. 0. 0. 0. 0. 0. 0. 0. 0. 0. 0. 0. 0. 0. 0. 0. 0. 0. 0.
      0. 0. 0. 0. 0. 0. 0. 0. 0. 0. 0. 0. 0. 0. 0. 0. 0. 0. 0.
      2.60731596e-02 0. 0. 0. 0. 0. 0. 0. 0. 0. 0. 0. 0. 0. 0. 0. 0. 0.
      0. 0. 0. 0. 0. 0. 0. 0. 0. 0. 0. 0. 0. 0. 0. 0. 0. 0.
      6.51828945e-02 9.12560597e-02 0. 0. 0. 0. 0. 2.60731596e-02 0. 0.
      0. 0. 0. 0. 0. 0. 0. 0. 0. 0. 0. 0. 0. 0. 0. 0. 0. 0. 0. 0. 0. 0.
      0. 0. 0. 0. 6.51828945e-02 0. 0. 0. 0. 0. 1.30365798e-02
      9.90780056e-01 2.53184855e-01 0. 0. 5.06369695e-02 0. 0.
      1.51910901e-01 1.51910901e-01 1.01273939e-01 0. 0. 0. 0. 0.
      5.06369695e-02 3.03821802e-01 0. 0. 0. 0. 0. 0. 0. 0. 0. 0. 0.
      5.06369695e-02 5.06369695e-02 0. 1.01273939e-01 2.02547878e-01 0.
      0. 0. 0. 5.06369695e-02 0. 0. 0. 0. 0. 0. 0. 5.06369695e-02 0. 0.
      0. 0. 0. 0. 0. 0. 0. 0. 0. 1.01273939e-01 5.06369695e-02
      5.06369695e-02 0. 0. 0. 0. 1.01273939e-01 0. 0. 0. 0. 0. 0.
      5.06369695e-02 0. 0. 0. 0. 0. 0. 0. 0. 0. 0. 0. 0. 0. 0. 0. 0. 0.
      0. 0. 0. 0. 0. 0. 0. 0. 5.06369695e-02 0. 0. 0. 0. 0. 0. 0. 0. 0.
      0. 0. 5.06369695e-02 0. 0. 0. 5.06369695e-02 0. 0. 0. 0. 0. 0. 0.
      5.06369695e-02 0. 0. 0. 5.06369695e-02 0. 0. 0. 1.01273939e-01
      5.06369695e-02 0. 5.57006657e-01 0. 0. 0. 5.06369695e-02 0. 0. 0.
      0. 0. 0. 0. 3.54458779e-01 0. 0. 0. 0. 0. 0. 0. 0. 0. 0. 0. 0. 0.
      0. 0. 5.06369695e-02 0. 0. 0. 0. 0. 0. 0. 5.06369695e-02 0. 0. 0.
      0. 0. 0. 0. 0. 0. 0. 0. 0. 0. 0. 0. 0. 0. 0. 0. 0. 5.06369695e-02
      0. 0. 5.06369695e-02 0. 5.06369695e-02 0. 3.03821802e-01 0. 0. 0.
      1.51910901e-01 0. 0. 0. 0. 0. 0. 0. 1.01273939e-01 0. 0. 0. 0. 0.
      0. 0. 5.06369695e-02 5.06369695e-02 0. 0. 0. 0. 0. 0.
      5.06369695e-02 1.01273939e-01 5.06369695e-02 0. 1.01273939e-01 0.
      0. 0. 2.02547878e-01 0. 0. 0. 0. 0. 0. 0. 0. 5.06369695e-02
      1.01273939e-01 0. 0. 0. 0. 0. 0. 0. 5.06369695e-02 0. 0. 0. 0. 0.
      5.06369695e-02</_>
    <_>
      5.44085026e-01 5.86719513e-01 5.99776447e-01 0. 0. 0. 0. 0. 0. 0.
      0. 0. 0. 0. 0. 0. 0. 0. 0. 0. 0. 0. 0. 0. 0. 0. 0. 0. 0. 0. 0. 0.
      0. 0. 0. 0. 0. 0. 0. 0. 0. 0. 0. 0. 0. 0. 0. 0. 0. 0. 0. 0. 0.
      1.78089384e-02 0. 0. 0. 0. 0. 0. 0. 0. 0. 0. 0. 0. 0. 0. 0. 0. 0.
      0. 0. 0. 0. 0. 0. 0. 0. 0. 0. 0. 0. 0. 0. 0. 0. 0. 0. 0. 0. 0. 0.
      0. 0. 0. 7.12357536e-02 1.78089384e-02 0. 0. 0. 0. 0.
      1.78089384e-02 0. 0. 0. 0. 0. 0. 0. 0. 0. 0. 0. 0. 0. 0. 0. 0. 0.
      0. 0. 0. 0. 0. 0. 0. 0. 0. 0. 0. 1.78089384e-02 1.60280436e-01 0.
      0. 0. 0. 0. 2.31516197e-01 3.56178768e-02 0. 0. 0. 0. 0. 0. 0. 0.
      0. 0. 0. 0. 0. 0. 0. 0. 0. 0. 0. 0. 0. 0. 0. 0. 0. 0. 0. 0. 0. 0.
      0. 0. 0. 0. 2.67134070e-01 1.95898309e-01 0. 0. 0. 0. 0.
      2.67134070e-01 0. 0. 0. 0. 0. 0. 0. 0. 0. 0. 0. 0. 0. 0. 0. 0. 0.
      0. 0. 0. 0. 0. 0. 0. 0. 0. 0. 0. 0. 0. 0. 0. 0. 0. 3.56178768e-02
      8.54829013e-01 2.56832749e-01 0. 5.13665490e-02 5.13665490e-02
      1.54099643e-01 0. 1.02733098e-01 1.54099643e-01 0. 0. 0. 0.
      5.13665490e-02 0. 1.54099643e-01 2.05466196e-01 0. 0. 0. 0. 0. 0.
      5.13665490e-02 0. 1.02733098e-01 0. 0. 0. 2.05466196e-01 0.
      1.02733098e-01 5.13665490e-02 5.13665490e-02 5.13665490e-02 0. 0.
      0. 0. 0. 0. 5.13665490e-02 0. 0. 0. 0. 0. 0. 0. 1.02733098e-01 0.
      0. 0. 0. 0. 0. 0. 2.05466196e-01 0. 5.13665490e-02 0.
      1.54099643e-01 0. 1.02733098e-01 0. 1.02733098e-01 0. 0. 0. 0. 0.
      0. 0. 0. 0. 0. 0. 0. 0. 0. 0. 0. 0. 0. 0. 0. 0. 0. 0. 0. 0. 0. 0.
      0. 0. 5.13665490e-02 0. 1.02733098e-01 0. 0. 0. 0. 0. 0. 0.
      5.13665490e-02 0. 0. 0. 0. 0. 1.02733098e-01 0. 1.54099643e-01 0.
      0. 0. 0. 0. 0. 0. 3.08199286e-01 5.13665490e-02 0. 0.
      5.13665490e-02 0. 5.13665490e-02 0. 1.54099643e-01 1.02733098e-01
      5.13665490e-02 3.08199286e-01 5.13665490e-02 0. 0. 3.59565854e-01
      0. 0. 0. 0. 0. 0. 5.13665490e-02 1.02733098e-01 0. 5.13665490e-02
      0. 0. 0. 0. 0. 0. 0. 0. 0. 0. 0. 0. 5.13665490e-02 5.13665490e-02
      0. 0. 0. 0. 0. 0. 0. 0. 0. 0. 0. 0. 0. 0. 0. 0. 5.13665490e-02 0.
      0. 0. 0. 0. 0. 0. 0. 0. 0. 0. 0. 0. 0. 5.13665490e-02
      5.13665490e-02 5.13665490e-02 0. 0. 0. 0. 0. 2.56832749e-01 0. 0.
      0. 0. 5.13665490e-02 0. 0. 5.13665490e-02 0. 0. 0. 0. 0. 0. 0. 0.
      0. 0. 0. 0. 0. 0. 0. 0. 1.02733098e-01 1.54099643e-01 0. 0.
      5.13665490e-02 0. 5.13665490e-02 0. 0. 0. 0. 0. 0. 0. 0. 0.
      1.54099643e-01 5.13665490e-02 0. 5.13665490e-02 0. 0. 0. 0.
      1.54099643e-01 0. 0. 0. 1.02733098e-01 0. 0. 5.13665490e-02</_>
    <_>
      6.00733519e-01 5.69309711e-01 5.61253726e-01 0. 0. 0. 0. 0. 0. 0.
      0. 0. 0. 0. 0. 0. 0. 0. 0. 0. 0. 0. 0. 0. 0. 0. 0. 0. 0. 0. 0. 0.
      0. 0. 0. 0. 0. 0. 0. 0. 0. 0. 0. 0. 0. 0. 0. 0. 0. 0. 0. 0. 0. 0.
      0. 0. 0. 0. 0. 0. 0. 0. 0. 0. 0. 0. 0. 0. 0. 0. 0. 0. 0. 0. 0. 0.
      0. 0. 0. 0. 0. 0. 0. 0. 0. 0. 0. 0. 0. 0. 0. 0. 0. 0. 0. 0. 0. 0.
      0. 0. 0. 0. 0. 0. 0. 0. 0. 0. 0. 0. 0. 0. 0. 0. 0. 0. 0. 0. 0. 0.
      0. 0. 0. 0. 0. 0. 0. 0. 0. 0. 0. 0. 0. 0. 0. 0. 0. 0. 0. 0. 0. 0.
      0. 0. 0. 0. 0. 0. 0. 0. 0. 0. 0. 0. 0. 0. 0. 0. 0. 0. 0. 0. 0. 0.
      0. 0. 0. 0. 0. 0. 0. 0. 0. 0. 0. 2.17819333e-01 0. 0. 0. 0. 0. 0.
      0. 0. 0. 0. 0. 0. 0. 0. 0. 0. 0. 0. 0. 0. 0. 0. 0. 0. 0. 0. 0. 0.
      0. 0. 0. 0. 0. 0. 0. 3.68617326e-01 0. 0. 0. 0. 0. 1.67553321e-01
      8.88032615e-01 0. 0. 0. 5.69802895e-02 0. 0. 0. 1.13960579e-01 0.
      5.69802895e-02 0. 0. 5.69802895e-02 0. 2.27921158e-01
      3.98862034e-01 1.13960579e-01 0. 0. 0. 0. 0. 0. 5.69802895e-02
      5.69802895e-02 0. 0. 0. 1.13960579e-01 0. 1.13960579e-01
      2.27921158e-01 0. 0. 0. 0. 0. 0. 0. 0. 0. 0. 0. 0. 0. 0. 0. 0.
      5.69802895e-02 0. 0. 0. 0. 0. 0. 0. 2.27921158e-01 0. 0. 0.
      2.27921158e-01 0. 1.13960579e-01 1.13960579e-01 0. 0. 0. 0. 0. 0.
      0. 0. 0. 0. 0. 0. 0. 0. 0. 0. 0. 0. 0. 0. 0. 0. 0. 0. 0. 0. 0. 0.
      0. 0. 0. 0. 0. 0. 0. 0. 0. 0. 5.69802895e-02 0. 0. 0. 0. 0. 0. 0.
      0. 0. 5.69802895e-02 0. 5.69802895e-02 0. 0. 0. 0. 0.
      5.69802895e-02 0. 0. 0. 1.13960579e-01 0. 5.69802895e-02
      1.70940876e-01 0. 0. 0. 0. 0. 0. 0. 1.70940876e-01 0. 0. 0. 0. 0.
      0. 0. 1.13960579e-01 0. 0. 0. 0. 0. 0. 0. 0. 0. 0. 0. 0. 0. 0. 0.
      5.69802895e-02 0. 0. 0. 0. 0. 0. 0. 0. 0. 0. 0. 0. 0. 0. 0. 0.
      5.69802895e-02 0. 0. 0. 0. 0. 0. 0. 0. 0. 0. 0. 5.69802895e-02 0.
      0. 0. 0. 5.69802895e-02 0. 5.69802895e-02 0. 0. 0. 0. 0. 0. 0. 0.
      0. 0. 5.69802895e-02 5.69802895e-02 0. 0. 0. 0. 0. 0. 0. 0. 0. 0.
      0. 0. 0. 0. 0. 1.70940876e-01 1.13960579e-01 0. 0. 1.70940876e-01
      0. 0. 0. 1.13960579e-01 0. 0. 0. 0. 5.69802895e-02 5.69802895e-02
      0. 0. 5.69802895e-02 3.98862034e-01 0. 5.69802895e-02 0. 0. 0. 0.
      5.69802895e-02 1.13960579e-01 0. 0. 2.27921158e-01 5.69802895e-02
      5.69802895e-02 2.84901440e-01</_>
    <_>
      5.77323973e-01 5.74803591e-01 5.79911888e-01 0. 0. 0. 0. 0. 0. 0.
      0. 0. 0. 0. 0. 0. 0. 0. 0. 0. 0. 0. 0. 0. 0. 0. 0. 0. 0. 0. 0. 0.
      0. 0. 0. 0. 0. 0. 0. 0. 0. 0. 0. 0. 0. 0. 0. 0. 0. 0. 0. 0. 0. 0.
      0. 0. 0. 0. 0. 0. 0. 0. 0. 0. 0. 0. 0. 0. 0. 0. 0. 0. 0. 0. 0. 0.
      0. 0. 0. 0. 0. 0. 0. 0. 0. 0. 0. 0. 0. 0. 0. 0. 0. 0. 0. 0.
      4.63683493e-02 0. 0. 0. 0. 0. 0. 0. 0. 0. 0. 0. 0. 0. 0. 0. 0. 0.
      0. 0. 0. 0. 0. 0. 0. 0. 0. 0. 0. 0. 0. 0. 0. 0. 0. 0.
      3.09122335e-02 4.63683493e-02 0. 0. 0. 0. 0. 1.39105052e-01
      1.54561168e-02 0. 0. 0. 0. 0. 0. 0. 0. 0. 0. 0. 0. 0. 0. 0. 0. 0.
      0. 0. 0. 0. 0. 0. 0. 0. 0. 0. 0. 0. 0. 0. 0. 0. 0. 3.24578464e-01
      3.09122335e-02 0. 0. 0. 0. 0. 4.63683493e-02 0. 0. 0. 0. 0. 0. 0.
      0. 0. 0. 0. 0. 0. 0. 0. 0. 0. 0. 0. 0. 0. 0. 0. 0. 0. 0. 0. 0.
      1.70017287e-01 1.54561168e-02 0. 0. 0. 0. 7.72805810e-02
      9.11910892e-01 1.48159444e-01 4.93864790e-02 4.93864790e-02 0. 0.
      0. 4.93864790e-02 4.93864790e-02 9.87729579e-02 0. 4.93864790e-02
      0. 0. 0. 4.93864790e-02 4.93864790e-02 0. 0. 0. 0. 0. 0. 0. 0. 0.
      0. 0. 4.93864790e-02 9.87729579e-02 0. 4.93864790e-02
      9.87729579e-02 0. 0. 0. 0. 0. 0. 0. 0. 0. 0. 0. 0. 0. 0. 0. 0.
      1.97545916e-01 0. 0. 0. 0. 0. 0. 0. 1.48159444e-01 0. 0. 0.
      4.44478303e-01 0. 1.97545916e-01 0. 0. 0. 0. 0. 0. 0. 0.
      4.93864790e-02 0. 0. 0. 0. 0. 0. 0. 0. 0. 0. 0. 0. 0. 0. 0. 0. 0.
      0. 0. 0. 4.93864790e-02 0. 0. 0. 4.93864790e-02 0. 0.
      4.93864790e-02 0. 0. 0. 0. 0. 0. 0. 0. 0. 0. 4.93864790e-02 0.
      4.93864790e-02 0. 0. 0. 0. 0. 0. 0. 1.97545916e-01 4.93864790e-02
      0. 0. 1.97545916e-01 0. 9.87729579e-02 4.93864790e-02 0.
      1.48159444e-01 0. 1.97545916e-01 0. 0. 0. 9.87729579e-02 0. 0. 0.
      4.93864790e-02 0. 0. 0. 1.48159444e-01 0. 0. 0. 0. 0. 0. 0. 0. 0.
      0. 0. 0. 0. 0. 0. 9.87729579e-02 0. 0. 0. 0. 0. 0. 0. 0. 0. 0. 0.
      0. 0. 0. 0. 0. 0. 4.93864790e-02 0. 0. 0. 0. 0. 0. 0. 0. 0. 0. 0.
      0. 0. 0. 9.87729579e-02 0. 0. 2.46932387e-01 0. 0. 0.
      2.46932387e-01 0. 0. 0. 0. 0. 0. 0. 9.87729579e-02 0. 0. 0. 0. 0.
      0. 0. 0. 0. 0. 0. 0. 0. 4.93864790e-02 4.93864790e-02 0.
      9.87729579e-02 9.87729579e-02 0. 9.87729579e-02 0. 0. 0. 0. 0. 0.
      0. 0. 0. 0. 0. 0. 1.97545916e-01 2.46932387e-01 0. 4.93864790e-02
      0. 0. 0. 9.87729579e-02 2.46932387e-01 4.93864790e-02 0.
      4.93864790e-02 1.48159444e-01 0. 0. 1.97545916e-01</_>
    <_>
      4.94847327e-01 5.89783192e-01 6.38186455e-01 0. 0. 0. 0. 0. 0. 0.
      0. 0. 0. 0. 0. 0. 0. 0. 0. 0. 0. 0. 0. 0. 0. 0. 0. 0. 0. 0. 0. 0.
      0. 0. 0. 0. 0. 0. 0. 0. 0. 0. 0. 0. 0. 0. 0. 7.94928595e-02 0. 0.
      0. 0. 0. 0. 3.97464298e-02 0. 0. 0. 0. 0. 0. 0. 0. 0. 0. 0. 0. 0.
      0. 0. 0. 0. 0. 0. 0. 0. 0. 0. 0. 0. 0. 0. 0. 0. 0. 0. 0. 0. 0. 0.
      3.97464298e-02 0. 0. 0. 0. 0. 1.98732138e-01 7.94928595e-02 0. 0.
      0. 0. 0. 0. 0. 0. 0. 0. 0. 0. 0. 0. 0. 0. 0. 0. 0. 0. 0. 0. 0. 0.
      0. 0. 0. 0. 0. 0. 0. 0. 0. 0. 3.97464298e-02 1.58985719e-01 0. 0.
      0. 0. 0. 8.74421477e-01 1.58985719e-01 0. 0. 0. 0. 0. 0. 0. 0. 0.
      0. 0. 0. 0. 0. 0. 0. 0. 0. 0. 0. 0. 0. 0. 0. 0. 0. 0. 0. 0. 0. 0.
      0. 0. 0. 0. 3.97464298e-02 0. 0. 0. 0. 0. 1.58985719e-01 0. 0. 0.
      0. 0. 0. 0. 0. 0. 0. 0. 0. 0. 0. 0. 0. 0. 0. 0. 0. 0. 0. 0. 0. 0.
      0. 0. 0. 0. 0. 0. 0. 0. 0. 0. 3.17971438e-01 2.68328160e-01 0.
      8.94427225e-02 8.94427225e-02 8.94427225e-02 0. 8.94427225e-02 0.
      2.68328160e-01 0. 0. 0. 0. 0. 8.94427225e-02 0. 0. 0. 0. 0. 0. 0.
      0. 0. 0. 0. 0. 0. 8.94427225e-02 0. 3.57770890e-01 0. 0. 0. 0. 0.
      0. 0. 0. 8.94427225e-02 0. 0. 0. 0. 8.94427225e-02 0. 0. 0. 0. 0.
      0. 0. 0. 0. 0. 0. 3.57770890e-01 0. 0. 0. 3.57770890e-01
      8.94427225e-02 8.94427225e-02 0. 0. 0. 0. 0. 0. 0. 0. 0. 0. 0. 0.
      0. 0. 0. 0. 0. 0. 0. 0. 0. 0. 0. 0. 0. 0. 0. 0. 0. 8.94427225e-02
      0. 0. 0. 2.68328160e-01 0. 0. 0. 0. 0. 0. 0. 0. 0. 0. 0. 0. 0. 0.
      0. 8.94427225e-02 0. 0. 0. 0. 0. 0. 0. 8.94427225e-02 0. 0. 0.
      8.94427225e-02 0. 0. 0. 1.78885445e-01 0. 0. 2.68328160e-01 0. 0.
      0. 8.94427225e-02 0. 0. 0. 0. 0. 0. 8.94427225e-02 0. 0. 0. 0. 0.
      0. 0. 0. 0. 8.94427225e-02 0. 0. 0. 0. 0. 0. 0. 0. 0. 0. 0. 0. 0.
      0. 0. 0. 0. 0. 0. 0. 0. 0. 0. 0. 0. 0. 0. 0. 0. 0. 0. 0. 0. 0. 0.
      0. 0. 0. 8.94427225e-02 0. 1.78885445e-01 0. 1.78885445e-01 0. 0.
      0. 0. 0. 0. 0. 0. 0. 0. 0. 0. 0. 0. 0. 0. 0. 0. 0. 0. 0. 0. 0. 0.
      0. 0. 0. 0. 1.78885445e-01 8.94427225e-02 0. 0. 0. 0. 0. 0. 0. 0.
      0. 0. 0. 0. 0. 0. 1.78885445e-01 0. 0. 0. 0. 0. 0. 0. 0. 0. 0. 0.
      0. 8.94427225e-02 8.94427225e-02 0.</_>
    <_>
      5.38224638e-01 5.83020270e-01 6.08606339e-01 0. 0. 0. 0. 0. 0. 0.
      0. 0. 0. 0. 0. 0. 0. 0. 0. 0. 0. 0. 0. 0. 0. 0. 0. 0. 0. 0. 0. 0.
      0. 0. 0. 0. 0. 0. 0. 0. 0. 0. 0. 0. 0. 0. 0. 3.18950452e-02 0. 0.
      0. 0. 0. 3.18950452e-02 0. 0. 0. 0. 0. 0. 0. 0. 0. 0. 0. 0. 0. 0.
      0. 0. 0. 0. 0. 0. 0. 0. 0. 0. 0. 0. 0. 0. 0. 0. 0. 0. 0. 0. 0.
      3.18950452e-02 9.56851393e-02 0. 0. 0. 0. 0. 6.37900904e-02 0. 0.
      0. 0. 0. 0. 0. 0. 0. 0. 0. 0. 0. 0. 0. 0. 0. 0. 0. 0. 0. 0. 0. 0.
      0. 0. 0. 0. 0. 0. 0. 0. 0. 0. 0. 1.27580181e-01 2.23265320e-01 0.
      0. 0. 0. 0. 4.14635599e-01 3.18950452e-02 0. 0. 0. 0. 0. 0. 0. 0.
      0. 0. 0. 0. 0. 0. 0. 0. 0. 0. 0. 0. 0. 0. 0. 0. 0. 0. 0. 0. 0. 0.
      0. 0. 0. 0. 2.23265320e-01 9.56851393e-02 0. 0. 0. 0. 0.
      2.23265320e-01 0. 0. 0. 0. 0. 0. 0. 0. 0. 0. 0. 0. 0. 0. 0. 0. 0.
      0. 0. 0. 0. 0. 0. 0. 0. 0. 0. 0. 0. 0. 0. 0. 0. 0. 0.
      7.97376156e-01 2.18217880e-01 7.27392957e-02 1.45478591e-01
      7.27392957e-02 0. 0. 0. 1.45478591e-01 7.27392957e-02 0. 0. 0. 0.
      0. 2.18217880e-01 7.27392957e-02 7.27392957e-02 0. 0. 0. 0. 0. 0.
      0. 0. 0. 7.27392957e-02 0. 7.27392957e-02 0. 0. 0. 7.27392957e-02
      0. 0. 0. 0. 0. 0. 0. 0. 0. 0. 0. 0. 0. 0. 0. 7.27392957e-02 0. 0.
      0. 0. 0. 0. 0. 7.27392957e-02 7.27392957e-02 0. 0. 1.45478591e-01
      0. 0. 0. 7.27392957e-02 0. 0. 0. 7.27392957e-02 0. 0. 0. 0. 0. 0.
      0. 0. 0. 0. 0. 0. 0. 0. 0. 0. 0. 0. 0. 0. 0. 0. 0. 0. 0. 0. 0.
      2.18217880e-01 0. 0. 0. 0. 0. 0. 0. 0. 0. 0. 0. 0. 0. 0. 0. 0. 0.
      0. 0. 0. 0. 0. 0. 3.63696486e-01 0. 0. 0. 0. 0. 0. 7.27392957e-02
      7.27392957e-02 1.45478591e-01 0. 3.63696486e-01 0. 0. 0.
      4.36435759e-01 0. 0. 0. 0. 0. 0. 0. 0. 0. 0. 0. 0. 0. 0. 0.
      1.45478591e-01 0. 0. 0. 0. 0. 0. 0. 7.27392957e-02 0.
      7.27392957e-02 0. 0. 0. 0. 0. 0. 0. 0. 0. 0. 0. 0. 0.
      7.27392957e-02 0. 0. 0. 0. 0. 0. 0. 0. 0. 0. 0. 0. 0. 0. 0.
      2.18217880e-01 7.27392957e-02 1.45478591e-01 0. 0. 0. 0. 0.
      7.27392957e-02 0. 0. 0. 0. 7.27392957e-02 0. 0. 7.27392957e-02 0.
      0. 0. 0. 0. 0. 0. 0. 0. 0. 0. 0. 0. 0. 0. 7.27392957e-02
      7.27392957e-02 2.18217880e-01 0. 0. 0. 0. 0. 0. 0. 7.27392957e-02
      0. 0. 0. 0. 7.27392957e-02 0. 7.27392957e-02 0. 0. 0. 0. 0. 0. 0.
      1.45478591e-01 0. 7.27392957e-02 0. 0. 7.27392957e-02 0.
      7.27392957e-02</_>
    <_>
      5.55786133e-01 5.81379831e-01 5.94221532e-01 0. 0. 0. 0. 0. 0. 0.
      0. 0. 0. 0. 0. 0. 0. 0. 0. 0. 0. 0. 0. 0. 0. 0. 0. 0. 0. 0. 0. 0.
      0. 0. 0. 0. 0. 0. 0. 0. 0. 0. 0. 0. 0. 0. 0. 0. 0. 0. 0. 0. 0. 0.
      0. 0. 0. 0. 0. 0. 0. 0. 0. 0. 0. 0. 0. 0. 0. 0. 0. 0. 0. 0. 0. 0.
      0. 0. 0. 0. 0. 0. 0. 0. 0. 0. 0. 0. 0. 0. 0. 0. 0. 0. 0. 0. 0. 0.
      0. 0. 0. 0. 0. 0. 0. 0. 0. 0. 0. 0. 0. 0. 0. 0. 0. 0. 0. 0. 0. 0.
      0. 0. 0. 0. 0. 0. 0. 0. 0. 0. 0. 0. 1.29640743e-01 6.48203716e-02
      0. 0. 0. 0. 0. 3.24101865e-01 0. 0. 0. 0. 0. 0. 0. 0. 0. 0. 0. 0.
      0. 0. 0. 0. 0. 0. 0. 0. 0. 0. 0. 0. 0. 0. 0. 0. 0. 0. 0. 0. 0. 0.
      0. 7.13024080e-01 1.29640743e-01 0. 0. 0. 0. 0. 6.48203716e-02 0.
      0. 0. 0. 0. 0. 0. 0. 0. 0. 0. 0. 0. 0. 0. 0. 0. 0. 0. 0. 0. 0. 0.
      0. 0. 0. 0. 0. 0. 6.48203716e-02 0. 0. 0. 0. 0. 5.83383381e-01
      1.27000123e-01 0. 0. 0. 0. 0. 1.27000123e-01 2.54000247e-01 0. 0.
      0. 0. 1.27000123e-01 0. 5.08000493e-01 0. 0. 0. 0. 0. 0. 0. 0. 0.
      0. 0. 1.27000123e-01 0. 1.27000123e-01 0. 0. 0. 1.27000123e-01 0.
      0. 0. 0. 0. 0. 0. 0. 0. 0. 0. 0. 0. 0. 0. 2.54000247e-01 0. 0. 0.
      0. 0. 0. 0. 1.27000123e-01 0. 0. 0. 2.54000247e-01 0. 0. 0. 0. 0.
      0. 0. 0. 0. 0. 0. 0. 0. 0. 0. 0. 0. 0. 0. 0. 0. 0. 0. 0. 0. 0. 0.
      0. 0. 0. 0. 0. 0. 0. 0. 2.54000247e-01 0. 0. 0. 0. 0. 0. 0. 0. 0.
      0. 0. 0. 0. 0. 0. 1.27000123e-01 0. 0. 0. 0. 0. 0. 0.
      1.27000123e-01 0. 0. 0. 0. 0. 0. 0. 0. 0. 0. 2.54000247e-01 0. 0.
      0. 1.27000123e-01 0. 0. 0. 0. 0. 0. 0. 0. 0. 0. 0. 0. 0. 0. 0. 0.
      0. 0. 0. 0. 0. 0. 0. 0. 0. 0. 0. 0. 0. 0. 0. 0. 0. 0. 0. 0. 0. 0.
      0. 0. 0. 0. 0. 0. 0. 0. 0. 0. 0. 0. 0. 0. 0. 0. 0. 0. 0.
      1.27000123e-01 0. 3.81000370e-01 0. 0. 0. 0. 0. 0. 0. 0. 0. 0. 0.
      0. 0. 0. 0. 0. 0. 0. 0. 0. 0. 0. 0. 0. 0. 0. 0. 0. 1.27000123e-01
      1.27000123e-01 0. 0. 0. 0. 0. 0. 0. 0. 0. 0. 0. 0. 0. 0. 0. 0. 0.
      0. 0. 0. 0. 0. 2.54000247e-01 0. 0. 0. 0. 0. 0. 0.</_>
    <_>
      5.54206133e-01 5.82652807e-01 5.94450474e-01 0. 0. 0. 0. 0. 0. 0.
      0. 0. 0. 0. 0. 0. 0. 0. 0. 0. 0. 0. 0. 0. 0. 0. 0. 0. 0. 0. 0. 0.
      0. 0. 0. 0. 0. 0. 0. 0. 0. 0. 0. 0. 0. 0. 0. 0. 0. 0. 0. 0. 0.
      2.96840630e-02 0. 0. 0. 0. 0. 0. 0. 0. 0. 0. 0. 0. 0. 0. 0. 0. 0.
      0. 0. 0. 0. 0. 0. 0. 0. 0. 0. 0. 0. 0. 0. 0. 0. 0. 0. 0.
      2.96840630e-02 0. 0. 0. 0. 0. 9.89468768e-02 0. 0. 0. 0. 0. 0. 0.
      0. 0. 0. 0. 0. 0. 0. 0. 0. 0. 0. 0. 0. 0. 0. 0. 0. 0. 0. 0. 0. 0.
      0. 0. 0. 0. 0. 0. 3.95787507e-02 7.91575015e-02 0. 0. 0. 0. 0.
      8.90521929e-02 0. 0. 0. 0. 0. 0. 0. 0. 0. 0. 0. 0. 0. 0. 0. 0. 0.
      0. 0. 0. 0. 0. 0. 0. 0. 0. 0. 0. 0. 0. 0. 0. 0. 0. 0.
      8.90521929e-02 1.08841568e-01 0. 0. 0. 0. 0. 1.78104386e-01 0. 0.
      0. 0. 0. 0. 0. 0. 0. 0. 0. 0. 0. 0. 0. 0. 0. 0. 0. 0. 0. 0. 0. 0.
      0. 0. 0. 0. 0. 0. 0. 0. 0. 0. 0. 9.59784687e-01 2.70838141e-01
      7.73823261e-02 0. 0. 7.73823261e-02 0. 3.86911631e-02
      1.54764652e-01 1.16073489e-01 0. 0. 0. 7.73823261e-02
      3.86911631e-02 1.16073489e-01 0. 7.73823261e-02 3.86911631e-02 0.
      0. 0. 0. 0. 0. 3.86911631e-02 0. 3.86911631e-02 0. 3.86911631e-02
      0. 7.73823261e-02 3.86911631e-02 7.73823261e-02 0. 0. 0. 0. 0. 0.
      0. 7.73823261e-02 0. 0. 0. 0. 0. 0. 3.86911631e-02 1.16073489e-01
      0. 0. 0. 3.86911631e-02 0. 0. 0. 2.70838141e-01 3.86911631e-02 0.
      0. 7.73823261e-02 0. 7.73823261e-02 3.86911631e-02 7.73823261e-02
      0. 0. 0. 0. 0. 0. 3.86911631e-02 0. 0. 0. 0. 3.86911631e-02 0. 0.
      0. 0. 0. 0. 0. 0. 0. 0. 0. 0. 0. 0. 0. 0. 0. 0. 0. 7.73823261e-02
      0. 0. 0. 0. 0. 0. 0. 0. 0. 0. 0. 1.54764652e-01 0. 0.
      7.73823261e-02 7.73823261e-02 0. 0. 0. 0. 0. 0. 0. 4.64293957e-01
      0. 3.86911631e-02 0. 1.16073489e-01 0. 0. 7.73823261e-02
      7.73823261e-02 1.16073489e-01 0. 2.32146978e-01 0. 0.
      3.86911631e-02 2.70838141e-01 0. 0. 0. 0. 0. 0. 0. 1.54764652e-01
      0. 0. 0. 3.86911631e-02 0. 0. 0. 7.73823261e-02 0. 0. 0. 0. 0. 0.
      0. 3.86911631e-02 3.86911631e-02 0. 0. 0. 0. 0. 0. 3.86911631e-02
      0. 0. 0. 0. 0. 0. 0. 0. 0. 0. 0. 0. 0. 0. 0. 3.86911631e-02 0. 0.
      0. 3.86911631e-02 3.86911631e-02 0. 0. 3.86911631e-02
      7.73823261e-02 7.73823261e-02 0. 1.54764652e-01 3.86911631e-02
      3.86911631e-02 0. 3.86911631e-02 0. 0. 0. 0. 0. 0. 3.86911631e-02
      7.73823261e-02 0. 3.86911631e-02 0. 0. 0. 0. 0. 0. 0. 0. 0.
      7.73823261e-02 0. 0. 0. 3.86911631e-02 7.73823261e-02
      1.54764652e-01 0. 0. 1.16073489e-01 0. 3.86911631e-02
      7.73823261e-02 3.86911631e-02 0. 0. 0. 0. 3.86911631e-02 0. 0.
      2.32146978e-01 0. 0. 3.86911631e-02 0. 0. 0. 1.16073489e-01
      1.54764652e-01 0. 0. 0. 0. 0. 0. 1.93455815e-01</_>
    <_>
      5.77471852e-01 5.79581261e-01 5.74988604e-01 0. 0. 0. 0. 0. 0. 0.
      0. 0. 0. 0. 0. 0. 0. 0. 0. 0. 0. 0. 0. 0. 0. 0. 0. 0. 0. 0. 0. 0.
      0. 0. 0. 0. 0. 0. 0. 0. 0. 0. 0. 0. 0. 0. 0. 0. 0. 0. 0. 0. 0. 0.
      0. 0. 0. 0. 0. 0. 0. 0. 0. 0. 0. 0. 0. 0. 0. 0. 0. 0. 0. 0. 0. 0.
      0. 0. 0. 0. 0. 0. 0. 0. 0. 0. 0. 0. 0. 0. 0. 0. 0. 0. 0. 0. 0. 0.
      0. 0. 0. 0. 0. 0. 0. 0. 0. 0. 0. 0. 0. 0. 0. 0. 0. 0. 0. 0. 0. 0.
      0. 0. 0. 0. 0. 0. 0. 0. 0. 0. 0. 0. 0. 1.27587980e-02 0. 0. 0. 0.
      0. 3.82763930e-02 0. 0. 0. 0. 0. 0. 0. 0. 0. 0. 0. 0. 0. 0. 0. 0.
      0. 0. 0. 0. 0. 0. 0. 0. 0. 0. 0. 0. 0. 0. 0. 0. 0. 0. 0.
      7.65527859e-02 3.82763930e-02 0. 0. 0. 0. 0. 2.55175959e-02 0. 0.
      0. 0. 0. 0. 0. 0. 0. 0. 0. 0. 0. 0. 0. 0. 0. 0. 0. 0. 0. 0. 0. 0.
      0. 0. 0. 0. 0. 0. 0. 0. 0. 0. 0. 9.95186210e-01 1.38527125e-01
      4.61757109e-02 4.61757109e-02 4.61757109e-02 0. 0. 0.
      9.23514217e-02 9.23514217e-02 4.61757109e-02 9.23514217e-02 0. 0.
      0. 2.77054250e-01 7.84987092e-01 4.61757109e-02 0. 0. 0. 0. 0. 0.
      0. 4.61757109e-02 4.61757109e-02 0. 0. 4.61757109e-02 0.
      1.38527125e-01 1.38527125e-01 4.61757109e-02 0. 0. 0. 0. 0. 0. 0.
      0. 0. 0. 0. 0. 0. 0. 0. 0. 0. 0. 0. 0. 4.61757109e-02 0. 0. 0. 0.
      0. 0. 0. 0. 0. 0. 0. 0. 0. 0. 0. 0. 0. 0. 0. 0. 0. 0. 0. 0. 0. 0.
      0. 0. 0. 0. 0. 0. 0. 0. 0. 0. 0. 0. 0. 0. 0. 0. 0. 0. 0. 0. 0. 0.
      0. 0. 4.61757109e-02 0. 0. 0. 0. 0. 0. 0. 1.38527125e-01 0. 0. 0.
      0. 0. 0. 0. 1.84702843e-01 0. 0. 0. 0. 0. 0. 4.61757109e-02
      9.23514217e-02 0. 0. 4.61757109e-02 0. 0. 0. 4.61757109e-02
      4.61757109e-02 0. 0. 0. 0. 0. 0. 1.38527125e-01 0. 0. 0.
      4.61757109e-02 0. 0. 0. 0. 0. 0. 0. 0. 0. 0. 0. 4.61757109e-02
      4.61757109e-02 0. 0. 0. 0. 0. 0. 0. 0. 0. 0. 0. 0. 0. 0. 0. 0. 0.
      0. 0. 0. 0. 0. 0. 4.61757109e-02 4.61757109e-02 0. 0. 0. 0. 0.
      4.61757109e-02 0. 4.61757109e-02 0. 4.61757109e-02 0. 0. 0.
      4.61757109e-02 0. 0. 0. 0. 0. 0. 0. 4.61757109e-02 0. 0. 0. 0. 0.
      0. 0. 0. 0. 4.61757109e-02 0. 0. 0. 0. 0. 0. 0. 0. 0. 0.
      4.61757109e-02 0. 0. 4.61757109e-02 0. 0. 0. 0. 0. 0. 0. 0.
      4.61757109e-02 4.61757109e-02 0. 4.61757109e-02 0. 0. 0.
      9.23514217e-02 9.23514217e-02 4.61757109e-02 0. 0. 4.61757109e-02
      0. 4.61757109e-02 2.30878562e-01</_>
    <_>
      5.79478443e-01 5.75992703e-01 5.76573670e-01 0. 0. 0. 0. 0. 0. 0.
      0. 0. 0. 0. 0. 0. 0. 0. 0. 0. 0. 0. 0. 0. 0. 0. 0. 0. 0. 0. 0. 0.
      0. 0. 0. 0. 0. 0. 0. 0. 0. 0. 0. 0. 0. 0. 0. 0. 0. 0. 0. 0. 0. 0.
      0. 0. 0. 0. 0. 0. 0. 0. 0. 0. 0. 0. 0. 0. 0. 0. 0. 0. 0. 0. 0. 0.
      0. 0. 0. 0. 0. 0. 0. 0. 0. 0. 0. 0. 0. 0. 0. 0. 0. 0. 0. 0. 0. 0.
      0. 0. 0. 0. 0. 0. 0. 0. 0. 0. 0. 0. 0. 0. 0. 0. 0. 0. 0. 0. 0. 0.
      0. 0. 0. 0. 0. 0. 0. 0. 0. 0. 0. 0. 1.79953918e-01 7.19815716e-02
      0. 0. 0. 0. 0. 1.07972361e-01 0. 0. 0. 0. 0. 0. 0. 0. 0. 0. 0. 0.
      0. 0. 0. 0. 0. 0. 0. 0. 0. 0. 0. 0. 0. 0. 0. 0. 0. 0. 0. 0. 0. 0.
      0. 2.51935482e-01 0. 0. 0. 0. 0. 3.59907858e-02 1.07972361e-01 0.
      0. 0. 0. 0. 0. 0. 0. 0. 0. 0. 0. 0. 0. 0. 0. 0. 0. 0. 0. 0. 0. 0.
      0. 0. 0. 0. 0. 2.87926286e-01 3.59907858e-02 0. 0. 0. 0.
      3.23917091e-01 8.27788115e-01 7.03597516e-02 0. 0. 0. 0. 0. 0.
      7.03597516e-02 7.03597516e-02 0. 0. 0. 0. 0. 7.03597516e-02 0. 0.
      0. 0. 0. 0. 0. 0. 0. 0. 0. 0. 0. 7.03597516e-02 0. 7.03597516e-02
      0. 0. 0. 0. 0. 0. 0. 0. 0. 0. 0. 0. 0. 7.03597516e-02 0. 0. 0. 0.
      0. 0. 0. 0. 0. 0. 0. 7.03597516e-02 0. 0. 0. 7.03597546e-01 0. 0.
      0. 7.03597516e-02 0. 0. 0. 0. 0. 0. 7.03597516e-02 0. 0. 0. 0. 0.
      0. 0. 0. 0. 0. 0. 0. 0. 0. 0. 0. 0. 0. 0. 0. 0. 0. 0. 0.
      1.40719503e-01 0. 0. 0. 0. 0. 0. 0. 0. 0. 0. 0. 0. 0. 0. 0. 0. 0.
      0. 0. 0. 0. 0. 0. 3.51798773e-01 7.03597516e-02 0. 0.
      1.40719503e-01 0. 2.11079255e-01 1.40719503e-01 0. 7.03597516e-02
      0. 7.03597516e-02 0. 0. 0. 0. 0. 0. 0. 0. 0. 0. 0. 7.03597516e-02
      0. 0. 0. 0. 0. 0. 0. 0. 0. 0. 0. 0. 0. 0. 0. 0. 0. 0. 0. 0. 0. 0.
      0. 0. 0. 0. 0. 0. 0. 0. 0. 0. 0. 0. 0. 0. 0. 0. 0. 0. 0.
      7.03597516e-02 0. 0. 0. 0. 0. 0. 7.03597516e-02 0. 7.03597516e-02
      7.03597516e-02 0. 0. 7.03597516e-02 0. 0. 0. 0. 0. 0. 0. 0. 0.
      7.03597516e-02 0. 7.03597516e-02 0. 0. 0. 0. 0. 0. 7.03597516e-02
      0. 0. 0. 0. 0. 7.03597516e-02 0. 0. 0. 0. 0. 0. 0. 7.03597516e-02
      0. 0. 0. 0. 0. 0. 0. 0. 2.81439006e-01 0. 0. 7.03597516e-02 0. 0.
      0. 7.03597516e-02 7.03597516e-02 7.03597516e-02 0. 7.03597516e-02
      0. 7.03597516e-02 7.03597516e-02 2.11079255e-01</_>
    <_>
      5.69807768e-01 5.83538890e-01 5.78620315e-01 0. 0. 0. 0. 0. 0. 0.
      0. 0. 0. 0. 0. 0. 0. 0. 0. 0. 0. 0. 0. 0. 0. 0. 0. 0. 0. 0. 0. 0.
      0. 0. 0. 0. 0. 0. 0. 0. 0. 0. 0. 0. 0. 0. 0. 0. 0. 0. 0. 0. 0. 0.
      0. 0. 0. 0. 0. 0. 0. 0. 0. 0. 0. 0. 0. 0. 0. 0. 0. 0. 0. 0. 0. 0.
      0. 0. 0. 0. 0. 0. 0. 0. 0. 0. 0. 0. 0. 0. 0. 0. 0. 0. 0. 0. 0. 0.
      0. 0. 0. 0. 0. 0. 0. 0. 0. 0. 0. 0. 0. 0. 0. 0. 0. 0. 0. 0. 0. 0.
      0. 0. 0. 0. 0. 0. 0. 0. 0. 0. 0. 0. 1.76887289e-02 0. 0. 0. 0. 0.
      0. 3.53774577e-02 0. 0. 0. 0. 0. 0. 0. 0. 0. 0. 0. 0. 0. 0. 0. 0.
      0. 0. 0. 0. 0. 0. 0. 0. 0. 0. 0. 0. 0. 0. 0. 0. 0. 0. 0.
      8.84436443e-02 3.53774577e-02 0. 0. 0. 0. 0. 7.07549155e-02 0. 0.
      0. 0. 0. 0. 0. 0. 0. 0. 0. 0. 0. 0. 0. 0. 0. 0. 0. 0. 0. 0. 0. 0.
      0. 0. 0. 0. 5.30661866e-02 0. 0. 0. 0. 0. 1.76887289e-02
      9.90568817e-01 1.87500000e-01 0. 0. 0. 0. 0. 6.25000000e-02
      1.87500000e-01 6.25000000e-02 0. 0. 0. 6.25000000e-02 0.
      3.75000000e-01 1.25000000e-01 6.25000000e-02 0. 6.25000000e-02 0.
      0. 0. 0. 6.25000000e-02 6.25000000e-02 0. 0. 0. 1.87500000e-01 0.
      6.87500000e-01 1.87500000e-01 0. 0. 0. 0. 0. 0. 0. 0.
      6.25000000e-02 0. 0. 0. 0. 0. 0. 0. 6.25000000e-02 6.25000000e-02
      0. 0. 0. 0. 0. 0. 0. 0. 6.25000000e-02 0. 0. 0. 1.25000000e-01
      6.25000000e-02 0. 0. 0. 0. 0. 0. 0. 0. 0. 0. 0. 0. 0. 0. 0. 0. 0.
      0. 0. 0. 0. 0. 0. 0. 0. 0. 0. 0. 0. 0. 0. 0. 0. 0. 0. 0. 0. 0. 0.
      6.25000000e-02 0. 0. 0. 0. 0. 0. 0. 0. 6.25000000e-02 0. 0. 0. 0.
      0. 0. 0. 0. 0. 0. 0. 6.25000000e-02 0. 6.25000000e-02 0. 0. 0.
      6.25000000e-02 0. 0. 0. 0. 0. 0. 0. 0. 0. 0. 0. 0. 6.25000000e-02
      0. 0. 0. 0. 0. 0. 0. 0. 0. 0. 6.25000000e-02 0. 0. 0. 0.
      6.25000000e-02 0. 0. 0. 0. 0. 0. 0. 0. 6.25000000e-02 0. 0. 0. 0.
      0. 0. 6.25000000e-02 6.25000000e-02 0. 0. 0. 0. 0. 0. 0. 0. 0. 0.
      0. 0. 0. 0. 6.25000000e-02 0. 0. 0. 0. 0. 0. 0. 0. 0. 0. 0. 0. 0.
      0. 0. 6.25000000e-02 0. 0. 0. 0. 0. 0. 0. 0. 0. 0. 0. 0. 0. 0. 0.
      6.25000000e-02 0. 6.25000000e-02 0. 6.25000000e-02 0. 0. 0. 0. 0.
      0. 0. 0. 0. 0. 0. 0. 6.25000000e-02 1.87500000e-01 0. 0. 0. 0. 0.
      6.25000000e-02 1.25000000e-01 6.25000000e-02 0. 0. 6.25000000e-02
      6.25000000e-02 0. 1.87500000e-01</_>
    <_>
      5.26416600e-01 5.89274943e-01 6.12895250e-01 0. 0. 0. 0. 0. 0. 0.
      0. 0. 0. 0. 0. 0. 0. 0. 0. 0. 0. 0. 0. 0. 0. 0. 0. 0. 0. 0. 0. 0.
      0. 0. 0. 0. 0. 0. 0. 0. 0. 0. 0. 0. 0. 0. 0. 0. 0. 0. 0. 0. 0.
      1.45679131e-01 1.45679131e-01 0. 0. 0. 0. 0. 0. 0. 0. 0. 0. 0. 0.
      0. 0. 0. 0. 0. 0. 0. 0. 0. 0. 0. 0. 0. 0. 0. 0. 0. 0. 0. 0. 0. 0.
      0. 2.91358270e-02 0. 0. 0. 0. 0. 2.91358262e-01 8.74074847e-02 0.
      0. 0. 0. 0. 0. 0. 0. 0. 0. 0. 0. 0. 0. 0. 0. 0. 0. 0. 0. 0. 0. 0.
      0. 0. 0. 0. 0. 0. 0. 0. 0. 0. 0. 2.91358270e-02 0. 0. 0. 0. 0. 0.
      2.62222469e-01 0. 0. 0. 0. 0. 0. 0. 0. 0. 0. 0. 0. 0. 0. 0. 0. 0.
      0. 0. 0. 0. 0. 0. 0. 0. 0. 0. 0. 0. 0. 0. 0. 0. 0. 0.
      6.99259877e-01 2.91358262e-01 0. 0. 0. 0. 0. 2.33086616e-01 0. 0.
      0. 0. 0. 0. 0. 0. 0. 0. 0. 0. 0. 0. 0. 0. 0. 0. 0. 0. 0. 0. 0. 0.
      0. 0. 0. 0. 0. 0. 0. 0. 0. 0. 0. 4.07901585e-01 2.83980906e-01 0.
      1.13592364e-01 5.67961819e-02 0. 0. 5.67961819e-02 5.67961819e-02
      5.67961819e-02 0. 0. 0. 1.13592364e-01 0. 2.27184728e-01
      2.83980906e-01 0. 0. 0. 0. 0. 0. 0. 0. 5.67961819e-02 0. 0. 0.
      1.13592364e-01 0. 3.40777099e-01 5.67961819e-02 3.40777099e-01 0.
      0. 0. 0. 0. 0. 0. 0. 0. 0. 0. 0. 0. 0. 0. 5.67961819e-02
      5.67961819e-02 0. 0. 0. 0. 0. 0. 1.13592364e-01 0. 0. 0.
      2.27184728e-01 0. 0. 5.67961819e-02 0. 0. 0. 0. 0. 0. 0. 0. 0. 0.
      0. 0. 0. 0. 0. 0. 0. 0. 0. 0. 0. 0. 0. 0. 0. 0. 0. 0. 0. 0. 0.
      5.67961819e-02 1.13592364e-01 0. 0. 0. 0. 0. 0. 0. 0. 0. 0. 0. 0.
      0. 0. 0. 0. 0. 0. 0. 0. 0. 0. 0. 0. 0. 0. 0. 0. 0. 0. 0.
      5.67961819e-02 5.67961819e-02 0. 1.13592364e-01 0. 0. 0.
      5.67961819e-02 0. 5.67961819e-02 0. 0. 0. 0. 0. 0. 0. 0. 0. 0. 0.
      0. 0. 0. 0. 0. 0. 0. 0. 0. 0. 1.13592364e-01 0. 0. 0.
      5.67961819e-02 0. 0. 0. 0. 0. 0. 0. 0. 0. 0. 0. 0. 0.
      5.67961819e-02 0. 0. 0. 0. 0. 0. 0. 0. 0. 0. 0. 0. 0. 0. 0.
      1.13592364e-01 0. 1.13592364e-01 0. 0. 0. 0. 0. 0. 0. 0. 0. 0. 0.
      0. 0. 0. 0. 0. 0. 0. 0. 0. 0. 5.67961819e-02 0. 0. 0. 0. 0.
      2.27184728e-01 2.27184728e-01 2.27184728e-01 0. 5.67961819e-02 0.
      0. 0. 0. 0. 0. 0. 0. 0. 0. 0. 0. 3.97573262e-01 0. 0.
      5.67961819e-02 5.67961819e-02 0. 5.67961819e-02 5.67961819e-02 0.
      0. 0. 0. 0. 0. 0. 5.67961819e-02</_>
    <_>
      5.68700433e-01 5.80350459e-01 5.82900524e-01 0. 0. 0. 0. 0. 0. 0.
      0. 0. 0. 0. 0. 0. 0. 0. 0. 0. 0. 0. 0. 0. 0. 0. 0. 0. 0. 0. 0. 0.
      0. 0. 0. 0. 0. 0. 0. 0. 0. 0. 0. 0. 0. 0. 2.55051404e-02
      2.55051404e-02 0. 0. 0. 0. 0. 0. 0. 0. 0. 0. 0. 0. 0. 0. 0. 0. 0.
      0. 0. 0. 0. 0. 0. 0. 0. 0. 0. 0. 0. 0. 0. 0. 0. 0. 0. 0. 0. 0. 0.
      0. 0. 0. 1.27525702e-02 0. 0. 0. 0. 0. 7.65154213e-02 0. 0. 0. 0.
      0. 0. 0. 0. 0. 0. 0. 0. 0. 0. 0. 0. 0. 0. 0. 0. 0. 0. 0. 0. 0. 0.
      0. 0. 0. 0. 0. 0. 0. 0. 0. 5.10102808e-02 2.55051404e-02 0. 0. 0.
      0. 0. 1.40278280e-01 0. 0. 0. 0. 0. 0. 0. 0. 0. 0. 0. 0. 0. 0. 0.
      0. 0. 0. 0. 0. 0. 0. 0. 0. 0. 0. 0. 0. 0. 0. 0. 0. 0. 0. 0.
      2.55051404e-01 1.02020562e-01 0. 0. 0. 0. 1.27525702e-02
      8.92679915e-02 0. 0. 0. 0. 0. 0. 0. 0. 0. 0. 0. 0. 0. 0. 0. 0. 0.
      0. 0. 0. 0. 0. 0. 0. 0. 0. 0. 0. 1.40278280e-01 0. 0. 0. 0. 0.
      1.53030843e-01 9.18185115e-01 1.12667367e-01 0. 7.51115754e-02
      7.51115754e-02 7.51115754e-02 0. 0. 0. 1.50223151e-01 0. 0. 0.
      7.51115754e-02 0. 1.87778935e-01 7.51115754e-02 0. 0. 0.
      3.75557877e-02 0. 0. 3.75557877e-02 0. 7.51115754e-02 0. 0. 0. 0.
      0. 3.75557877e-02 3.38002086e-01 7.51115754e-02 0. 0.
      7.51115754e-02 0. 0. 0. 0. 0. 0. 0. 0. 3.75557877e-02 0. 0. 0.
      7.51115754e-02 0. 0. 0. 0. 0. 0. 0. 7.51115754e-02 3.75557877e-02
      0. 0. 0. 0. 7.51115754e-02 0. 0. 0. 0. 0. 0. 0. 3.75557877e-02 0.
      3.75557877e-02 0. 0. 0. 0. 0. 0. 3.75557877e-02 0. 0. 0. 0. 0. 0.
      0. 0. 0. 0. 0. 0. 0. 0. 3.75557877e-02 7.51115754e-02 0. 0.
      3.75557877e-02 0. 0. 0. 0. 0. 0. 0. 0. 0. 0. 0. 0. 0.
      1.12667367e-01 0. 0. 0. 0. 0. 3.75557877e-02 0. 1.12667367e-01
      3.75557877e-02 0. 3.75557877e-02 0. 0. 7.51115754e-02
      1.12667367e-01 1.12667367e-01 3.75557877e-02 0. 1.50223151e-01 0.
      0. 3.75557877e-02 7.51115754e-02 0. 0. 0. 0. 0. 0. 0.
      3.75557877e-02 0. 0. 0. 0. 0. 0. 0. 0. 0. 3.75557877e-02 0. 0. 0.
      0. 0. 3.75557877e-02 0. 3.75557877e-02 0. 3.75557877e-02 0. 0. 0.
      0. 0. 0. 0. 0. 0. 0. 0. 0. 0. 3.75557877e-02 0. 0. 0. 0. 0. 0. 0.
      0. 0. 0. 0. 0. 0. 0. 3.75557877e-02 7.51115754e-02 0.
      1.50223151e-01 0. 0. 3.75557877e-02 7.51115754e-02 0. 0. 0. 0. 0.
      0. 0. 1.12667367e-01 0. 0. 0. 0. 0. 0. 0. 0. 0. 3.75557877e-02 0.
      0. 3.75557877e-02 0. 0. 3.75557877e-02 1.12667367e-01
      3.38002086e-01 0. 7.51115754e-02 3.75557877e-02 0. 0.
      7.51115754e-02 3.75557877e-02 0. 0. 0. 3.75557877e-02 0. 0. 0.
      2.62890518e-01 4.50669467e-01 0. 0. 3.75557877e-02 0.
      3.75557877e-02 7.51115754e-02 0. 0. 0. 0. 1.12667367e-01
      3.75557877e-02 3.75557877e-02 3.75557870e-01</_>
    <_>
      5.76437593e-01 5.77071190e-01 5.78540027e-01 0. 0. 0. 0. 0. 0. 0.
      0. 0. 0. 0. 0. 0. 0. 0. 0. 0. 0. 0. 0. 0. 0. 0. 0. 0. 0. 0. 0. 0.
      0. 0. 0. 0. 0. 0. 0. 0. 0. 0. 0. 0. 0. 0. 0. 0. 0. 0. 0. 0. 0. 0.
      0. 0. 0. 0. 0. 0. 0. 0. 0. 0. 0. 0. 0. 0. 0. 0. 0. 0. 0. 0. 0. 0.
      0. 0. 0. 0. 0. 0. 0. 0. 0. 0. 0. 0. 0. 0. 0. 0. 0. 0. 0. 0.
      3.77762131e-02 0. 0. 0. 0. 0. 0. 0. 0. 0. 0. 0. 0. 0. 0. 0. 0. 0.
      0. 0. 0. 0. 0. 0. 0. 0. 0. 0. 0. 0. 0. 0. 0. 0. 0. 0.
      3.77762131e-02 0. 0. 0. 0. 0. 0. 1.51104853e-01 0. 0. 0. 0. 0. 0.
      0. 0. 0. 0. 0. 0. 0. 0. 0. 0. 0. 0. 0. 0. 0. 0. 0. 0. 0. 0. 0. 0.
      0. 0. 0. 0. 0. 0. 0. 3.96650255e-01 7.55524263e-02 0. 0. 0. 0. 0.
      7.55524263e-02 0. 0. 0. 0. 0. 0. 0. 0. 0. 0. 0. 0. 0. 0. 0. 0. 0.
      0. 0. 0. 0. 0. 0. 0. 0. 0. 0. 0. 1.32216752e-01 0. 0. 0. 0. 0. 0.
      8.87741029e-01 1.83597013e-01 0. 6.11990057e-02 0. 0. 0. 0.
      6.11990057e-02 6.11990057e-02 0. 0. 0. 0. 0. 6.11990057e-02 0. 0.
      0. 0. 0. 0. 0. 0. 0. 0. 6.11990057e-02 0. 6.11990057e-02
      6.11990057e-02 0. 0. 6.11990057e-02 6.11990057e-02 1.22398011e-01
      0. 0. 0. 0. 0. 0. 0. 0. 0. 0. 0. 0. 0. 0. 0. 0. 0. 0. 0. 0. 0. 0.
      3.05995017e-01 0. 0. 0. 1.22398011e-01 0. 6.11990057e-02 0. 0. 0.
      0. 0. 6.11990057e-02 0. 0. 0. 0. 0. 0. 0. 0. 0. 0. 0. 0. 0. 0. 0.
      0. 0. 0. 0. 0. 0. 0. 0. 0. 0. 6.11990057e-02 0. 3.05995017e-01 0.
      0. 0. 0. 0. 0. 0. 0. 0. 0. 0. 0. 0. 0. 0. 6.11990057e-02 0. 0. 0.
      0. 0. 0. 0. 6.11990057e-02 0. 0. 0. 1.22398011e-01 0.
      1.22398011e-01 6.11990057e-02 0. 6.11990057e-02 0. 1.22398011e-01
      0. 0. 0. 0. 0. 0. 0. 0. 0. 0. 0. 6.11990057e-02 0. 6.11990057e-02
      0. 0. 0. 0. 0. 0. 0. 0. 0. 1.22398011e-01 0. 0. 0. 1.22398011e-01
      0. 0. 0. 0. 0. 0. 0. 0. 0. 0. 0. 0. 0. 0. 0. 0. 0. 6.11990057e-02
      0. 0. 0. 0. 0. 0. 6.11990057e-02 6.11990057e-02 0. 0. 0. 0. 0. 0.
      0. 6.11990057e-02 0. 0. 0. 0. 6.11990057e-02 1.83597013e-01 0. 0.
      0. 0. 0. 0. 0. 0. 0. 0. 0. 0. 0. 0. 0. 0. 0. 0. 0. 0. 0. 0. 0.
      1.22398011e-01 0. 3.67194027e-01 1.22398011e-01 6.11990057e-02
      6.11990057e-02 0. 0. 1.83597013e-01 0. 0. 0. 0. 0. 0. 0.
      1.22398011e-01 1.83597013e-01 3.67194027e-01 0. 1.22398011e-01 0.
      0. 0. 0. 6.11990057e-02 1.83597013e-01 0. 0. 1.83597013e-01
      1.22398011e-01 6.11990057e-02 2.44796023e-01</_>
    <_>
      5.75379610e-01 5.79334915e-01 5.77329576e-01 0. 0. 0. 0. 0. 0. 0.
      0. 0. 0. 0. 0. 0. 0. 0. 0. 0. 0. 0. 0. 0. 0. 0. 0. 0. 0. 0. 0. 0.
      0. 0. 0. 0. 0. 0. 0. 0. 0. 0. 0. 0. 0. 0. 0. 0. 0. 0. 0. 0. 0. 0.
      0. 0. 0. 0. 0. 0. 0. 0. 0. 0. 0. 0. 0. 0. 0. 0. 0. 0. 0. 0. 0. 0.
      0. 0. 0. 0. 0. 0. 0. 0. 0. 0. 0. 0. 0. 0. 0. 0. 0. 0. 0. 0.
      3.23974267e-02 0. 0. 0. 0. 0. 0. 0. 0. 0. 0. 0. 0. 0. 0. 0. 0. 0.
      0. 0. 0. 0. 0. 0. 0. 0. 0. 0. 0. 0. 0. 0. 0. 0. 0. 0.
      8.09935667e-03 8.09935667e-03 0. 0. 0. 0. 0. 8.90929177e-02 0. 0.
      0. 0. 0. 0. 0. 0. 0. 0. 0. 0. 0. 0. 0. 0. 0. 0. 0. 0. 0. 0. 0. 0.
      0. 0. 0. 0. 0. 0. 0. 0. 0. 0. 0. 1.86285198e-01 5.66954911e-02 0.
      0. 0. 0. 1.61987133e-02 5.66954911e-02 0. 0. 0. 0. 0. 0. 0. 0. 0.
      0. 0. 0. 0. 0. 0. 0. 0. 0. 0. 0. 0. 0. 0. 0. 0. 0. 0. 0.
      4.04967777e-02 0. 0. 0. 0. 0. 5.66954911e-02 9.71922815e-01
      2.08263040e-01 0. 1.73552543e-01 3.47105078e-02 6.94210157e-02 0.
      6.94210157e-02 0. 6.94210157e-02 0. 0. 0. 6.94210157e-02 0.
      1.04131520e-01 0. 6.94210157e-02 0. 0. 3.47105078e-02 0. 0. 0. 0.
      6.94210157e-02 3.47105078e-02 0. 3.47105078e-02 3.47105078e-02 0.
      0. 6.94210157e-02 1.38842031e-01 0. 0. 3.47105078e-02 0. 0.
      3.47105078e-02 0. 0. 0. 0. 0. 0. 0. 0. 0. 1.04131520e-01 0. 0. 0.
      0. 0. 0. 0. 1.73552543e-01 0. 3.47105078e-02 3.47105078e-02
      3.81815583e-01 3.47105078e-02 6.94210157e-02 1.04131520e-01
      6.94210157e-02 0. 0. 0. 0. 0. 0. 0. 3.47105078e-02 0. 0. 0. 0. 0.
      0. 0. 3.47105078e-02 0. 0. 0. 0. 0. 0. 0. 0. 0. 0. 0. 0. 0. 0. 0.
      6.94210157e-02 0. 0. 0. 0. 0. 6.94210157e-02 0. 0. 0. 0. 0.
      3.47105078e-02 0. 0. 0. 6.94210157e-02 0. 0. 0. 0. 0. 0. 0.
      3.12394559e-01 3.47105078e-02 0. 0. 1.04131520e-01 0. 0.
      3.47105078e-02 6.94210157e-02 3.47105078e-02 0. 1.38842031e-01
      3.47105078e-02 0. 3.47105078e-02 1.73552543e-01 0. 0. 0. 0. 0. 0.
      0. 1.38842031e-01 0. 3.47105078e-02 0. 0. 0. 0. 3.47105078e-02
      3.47105078e-02 0. 0. 0. 3.47105078e-02 0. 0. 0. 6.94210157e-02
      3.47105078e-02 0. 0. 0. 0. 0. 0. 0. 0. 0. 0. 0. 0. 0. 0. 0. 0. 0.
      0. 3.47105078e-02 0. 0. 0. 0. 0. 0. 0. 3.47105078e-02 0. 0. 0. 0.
      6.94210157e-02 3.47105078e-02 0. 1.04131520e-01 0. 0.
      6.94210157e-02 2.77684063e-01 6.94210157e-02 0. 0. 3.47105078e-02
      0. 0. 0. 0. 0. 0. 0. 0. 0. 0. 0. 0. 0. 3.47105078e-02 0. 0. 0. 0.
      0. 1.38842031e-01 1.38842031e-01 1.04131520e-01 0. 6.94210157e-02
      3.47105078e-02 3.47105078e-02 0. 6.94210157e-02 0. 0. 0. 0. 0. 0.
      0. 3.47105078e-02 4.16526079e-01 1.04131520e-01 0. 6.94210157e-02
      0. 0. 0. 3.47105078e-02 3.47105078e-02 6.94210157e-02 0.
      6.94210157e-02 0. 1.04131520e-01 0. 2.08263040e-01</_>
    <_>
      4.84973997e-01 5.86441576e-01 6.48757637e-01 0. 0. 0. 0. 0. 0. 0.
      2.35506091e-02 1.88404873e-01 0. 0. 0. 0. 0. 4.71012183e-02 0. 0.
      0. 0. 0. 0. 0. 0. 0. 0. 0. 0. 0. 0. 0. 0. 0. 0. 0. 0. 0. 0. 0. 0.
      0. 0. 0. 0. 0. 9.42024365e-02 0. 0. 0. 0. 0. 2.59056717e-01
      2.35506088e-01 0. 0. 0. 0. 0. 7.06518292e-02 0. 0. 0. 0. 0. 0. 0.
      0. 0. 0. 0. 0. 0. 0. 0. 0. 0. 0. 0. 0. 0. 0. 0. 0. 0. 0. 0. 0.
      4.71012183e-02 2.11955488e-01 0. 0. 0. 0. 0. 6.59417033e-01
      2.35506088e-01 0. 0. 0. 0. 0. 0. 0. 0. 0. 0. 0. 0. 0. 0. 0. 0. 0.
      0. 0. 0. 0. 0. 0. 0. 0. 0. 0. 0. 0. 0. 0. 0. 0. 0. 9.42024365e-02
      1.41303658e-01 0. 0. 0. 0. 0. 1.41303658e-01 2.35506091e-02 0. 0.
      0. 0. 0. 0. 0. 0. 0. 0. 0. 0. 0. 0. 0. 0. 0. 0. 0. 0. 0. 0. 0. 0.
      0. 0. 0. 0. 4.71012183e-02 0. 0. 0. 0. 0. 4.71012175e-01
      7.06518292e-02 0. 0. 0. 0. 0. 4.71012183e-02 0. 0. 0. 0. 0. 0. 0.
      0. 0. 0. 0. 0. 0. 0. 0. 0. 0. 0. 0. 0. 0. 0. 0. 0. 0. 0. 0. 0.
      4.71012183e-02 0. 0. 0. 0. 0. 0. 7.06518292e-02 3.86045724e-02 0.
      0. 0. 0. 0. 3.86045724e-02 7.72091448e-02 0. 0. 0. 0. 0. 0.
      3.86045724e-02 0. 0. 0. 0. 0. 0. 0. 0. 0. 0. 0. 0. 0.
      3.86045724e-02 0. 4.24650311e-01 1.15813717e-01 3.86045724e-02 0.
      0. 0. 0. 0. 0. 0. 0. 0. 0. 0. 0. 0. 0. 0. 3.86045724e-02 0. 0.
      3.86045724e-02 0. 0. 0. 0. 7.72091448e-02 0. 0. 0. 3.86045724e-02
      7.72091448e-02 7.72091448e-02 3.86045724e-02 0. 0. 0. 0. 0. 0. 0.
      3.86045724e-02 0. 0. 0. 0. 0. 0. 0. 0. 0. 0. 0. 0. 0. 0. 0. 0. 0.
      0. 0. 0. 0. 0. 0. 0. 0. 0. 0. 0. 0. 0. 0. 0. 0. 0. 0. 0. 0. 0. 0.
      0. 0. 0. 0. 0. 0. 0. 0. 0. 3.47441137e-01 0. 0. 0. 1.93022862e-01
      0. 7.72091448e-02 3.86045724e-02 0. 0. 0. 1.15813717e-01 0. 0. 0.
      1.15813717e-01 0. 0. 0. 0. 0. 0. 0. 7.72091448e-02 0. 0. 0. 0. 0.
      0. 0. 0. 0. 0. 0. 0. 0. 0. 0. 1.54418290e-01 0. 3.86045724e-02 0.
      0. 0. 0. 0. 0. 0. 0. 0. 0. 0. 0. 0. 0. 0. 0. 0. 0. 0. 0. 0. 0. 0.
      0. 0. 3.86045724e-02 0. 0. 0. 3.86045724e-02 1.93022862e-01
      1.15813717e-01 0. 3.86045724e-01 0. 3.86045724e-02 0.
      2.70232022e-01 0. 0. 0. 0. 0. 0. 0. 0. 0. 0. 0. 3.86045724e-02 0.
      0. 0. 0. 0. 0. 0. 0. 3.86045724e-02 0. 0. 7.72091448e-02
      1.93022862e-01 2.31627434e-01 0. 1.93022862e-01 0. 0. 0.
      3.86045724e-02 0. 0. 0. 0. 0. 3.86045724e-02 0. 3.86045724e-02
      7.72091448e-02 1.93022862e-01 0. 1.54418290e-01 0. 0. 0.
      1.15813717e-01 0. 7.72091448e-02 0. 0. 3.86045724e-02
      1.15813717e-01 0. 1.54418290e-01</_>
    <_>
      3.20095360e-01 5.84542096e-01 7.45553195e-01 0. 0. 0. 0. 0. 0. 0.
      1.93290859e-01 8.21486115e-01 0. 0. 0. 0. 0. 1.69129491e-01 0. 0.
      0. 0. 0. 0. 0. 0. 0. 0. 0. 0. 0. 0. 0. 0. 0. 0. 0. 0. 0. 0. 0. 0.
      0. 0. 0. 0. 0. 1.44968137e-01 0. 0. 0. 0. 0. 4.59065765e-01
      1.44968137e-01 0. 0. 0. 0. 0. 0. 0. 0. 0. 0. 0. 0. 0. 0. 0. 0. 0.
      0. 0. 0. 0. 0. 0. 0. 0. 0. 0. 0. 0. 0. 0. 0. 0. 0. 0.
      4.83227149e-02 0. 0. 0. 0. 0. 2.41613574e-02 0. 0. 0. 0. 0. 0. 0.
      0. 0. 0. 0. 0. 0. 0. 0. 0. 0. 0. 0. 0. 0. 0. 0. 0. 0. 0. 0. 0. 0.
      0. 0. 0. 0. 0. 0. 0. 2.41613574e-02 0. 0. 0. 0. 0. 4.83227149e-02
      0. 0. 0. 0. 0. 0. 0. 0. 0. 0. 0. 0. 0. 0. 0. 0. 0. 0. 0. 0. 0. 0.
      0. 0. 0. 0. 0. 0. 0. 0. 0. 0. 0. 0. 0. 2.41613574e-02 0. 0. 0. 0.
      0. 0. 0. 0. 0. 0. 0. 0. 0. 0. 0. 0. 0. 0. 0. 0. 0. 0. 0. 0. 0. 0.
      0. 0. 0. 0. 0. 0. 0. 0. 0. 0. 0. 0. 0. 0. 0. 0. 0. 0. 0. 0. 0. 0.
      0. 0. 5.24863899e-02 0. 0. 0. 0. 0. 0. 5.24863899e-02
      4.72377509e-01 0. 0. 0. 0. 0. 0. 0. 0. 0. 0. 0. 0. 5.24863899e-02
      0. 1.04972780e-01 1.04972780e-01 0. 0. 0. 0. 0. 0. 0. 0. 0. 0. 0.
      0. 0. 0. 0. 0. 0. 0. 0. 0. 0. 0. 0. 5.24863899e-02 0. 0. 0. 0. 0.
      0. 0. 0. 0. 0. 0. 0. 0. 0. 0. 0. 0. 0. 0. 0. 0. 0. 5.24863899e-02
      5.24863899e-02 0. 0. 0. 0. 0. 0. 0. 0. 0. 0. 0. 0. 0. 0.
      5.24863899e-02 5.24863899e-02 0. 0. 0. 0. 0. 0. 0. 0. 0. 0. 0. 0.
      0. 0. 0. 5.24863899e-02 1.04972780e-01 0. 0. 0. 0. 0. 0.
      5.24863899e-02 2.62431949e-01 5.24863899e-02 0. 0. 0. 0.
      1.04972780e-01 1.04972780e-01 0. 0. 0. 1.57459170e-01 0. 0. 0.
      1.57459170e-01 0. 0. 0. 0. 0. 0. 0. 5.24863899e-02 0. 0. 0. 0. 0.
      0. 0. 5.24863899e-02 0. 0. 0. 0. 0. 0. 0. 1.04972780e-01 0. 0. 0.
      0. 0. 0. 0. 0. 0. 0. 0. 0. 0. 0. 0. 0. 0. 0. 0. 0. 0. 0. 0. 0. 0.
      0. 0. 0. 0. 0. 0. 1.57459170e-01 0. 0. 0. 0. 0. 0. 0.
      1.04972780e-01 0. 0. 0. 0. 0. 0. 0. 1.04972780e-01 0. 0. 0. 0. 0.
      0. 0. 0. 5.24863899e-02 0. 0. 0. 0. 0. 0. 1.04972780e-01
      5.24863899e-02 1.04972780e-01 0. 0. 0. 0. 5.24863899e-02 0. 0. 0.
      0. 0. 5.24863899e-02 0. 0. 0. 5.24863899e-02 1.04972780e-01 0.
      1.57459170e-01 0. 0. 0. 3.67404729e-01 0. 1.57459170e-01 0. 0. 0.
      5.24863899e-02 0. 5.24863899e-01</_>
    <_>
      5.53611338e-01 5.75996757e-01 6.01450086e-01 0. 0. 0. 0. 0. 0. 0.
      0. 0. 0. 0. 0. 0. 0. 0. 0. 0. 0. 0. 0. 0. 0. 0. 0. 0. 0. 0. 0. 0.
      0. 0. 0. 0. 0. 0. 0. 0. 0. 0. 0. 0. 0. 0. 0. 0. 0. 0. 0. 0. 0. 0.
      0. 0. 0. 0. 0. 0. 0. 0. 0. 0. 0. 0. 0. 0. 0. 0. 0. 0. 0. 0. 0. 0.
      0. 0. 0. 0. 0. 0. 0. 0. 0. 0. 0. 0. 0. 0. 0. 0. 0. 0. 0. 0. 0.
      7.80868828e-02 0. 0. 0. 0. 0. 0. 0. 0. 0. 0. 0. 0. 0. 0. 0. 0. 0.
      0. 0. 0. 0. 0. 0. 0. 0. 0. 0. 0. 0. 0. 0. 0. 0. 0. 0.
      7.80868828e-02 0. 0. 0. 0. 0. 0. 0. 0. 0. 0. 0. 0. 0. 0. 0. 0. 0.
      0. 0. 0. 0. 0. 0. 0. 0. 0. 0. 0. 0. 0. 0. 0. 0. 0. 0. 0. 0. 0. 0.
      0. 0. 5.46608150e-01 2.34260634e-01 0. 0. 0. 0. 0. 1.56173766e-01
      0. 0. 0. 0. 0. 0. 0. 0. 0. 0. 0. 0. 0. 0. 0. 0. 0. 0. 0. 0. 0. 0.
      0. 0. 0. 0. 0. 0. 0. 0. 0. 0. 0. 0. 0. 7.80868769e-01 0. 0. 0. 0.
      0. 0. 0. 0. 0. 0. 0. 0. 0. 0. 0. 0. 0. 0. 0. 0. 0. 0. 0. 0. 0. 0.
      0. 0. 6.35000616e-02 0. 1.27000123e-01 0. 0. 0. 0. 0. 0. 0. 0. 0.
      0. 0. 0. 0. 0. 0. 0. 0. 0. 0. 0. 0. 0. 0. 0. 0. 6.35000616e-02 0.
      0. 0. 9.52500939e-01 0. 2.54000247e-01 0. 0. 0. 0. 0. 0. 0. 0. 0.
      0. 0. 0. 0. 0. 0. 0. 0. 0. 0. 0. 0. 0. 0. 0. 0. 0. 0. 0. 0. 0. 0.
      0. 0. 0. 0. 0. 0. 0. 0. 0. 0. 0. 0. 0. 0. 0. 0. 0. 0. 0. 0. 0. 0.
      0. 0. 0. 0. 0. 0. 0. 0. 6.35000616e-02 0. 0. 0. 0. 0. 0. 0. 0. 0.
      0. 0. 0. 0. 0. 0. 0. 0. 0. 0. 0. 0. 0. 0. 0. 0. 0. 0. 0. 0. 0. 0.
      0. 0. 0. 0. 0. 0. 0. 0. 0. 0. 0. 0. 0. 0. 0. 0. 0. 0. 0. 0. 0. 0.
      0. 0. 0. 0. 0. 0. 0. 0. 0. 0. 0. 0. 0. 0. 0. 0. 0. 0. 0. 0. 0. 0.
      0. 0. 0. 0. 0. 0. 0. 0. 0. 0. 0. 0. 0. 0. 0. 0. 0. 0. 0. 0. 0. 0.
      0. 0. 0. 0. 0. 0. 0. 0. 0. 0. 0. 0. 0. 0. 0. 0. 0. 0. 0. 0. 0. 0.
      0. 0. 0. 0. 0. 0. 0. 0. 0. 0. 0. 0.</_>
    <_>
      5.35199940e-01 5.88260531e-01 6.06226444e-01 0. 0. 0. 0. 0. 0. 0.
      0. 6.87191859e-02 0. 0. 0. 0. 0. 1.37438374e-02 0. 0. 0. 0. 0. 0.
      0. 0. 0. 0. 0. 0. 0. 0. 0. 0. 0. 0. 0. 0. 0. 0. 0. 0. 0. 0. 0. 0.
      0. 0. 0. 0. 0. 0. 0. 1.23694539e-01 4.12315130e-02 0. 0. 0. 0. 0.
      0. 0. 0. 0. 0. 0. 0. 0. 0. 0. 0. 0. 0. 0. 0. 0. 0. 0. 0. 0. 0. 0.
      0. 0. 0. 0. 0. 0. 0. 0. 1.37438374e-02 0. 0. 0. 0. 0.
      1.37438374e-02 2.74876747e-02 0. 0. 0. 0. 0. 1.37438374e-02 0. 0.
      0. 0. 0. 0. 0. 0. 0. 0. 0. 0. 0. 0. 0. 0. 0. 0. 0. 0. 0. 0. 0. 0.
      0. 0. 0. 0. 0. 4.12315130e-02 0. 0. 0. 0. 0. 1.37438372e-01
      2.74876747e-02 0. 0. 0. 0. 0. 0. 0. 0. 0. 0. 0. 0. 0. 0. 0. 0. 0.
      0. 0. 0. 0. 0. 0. 0. 0. 0. 0. 0. 0. 0. 0. 0. 0. 0. 1.23694539e-01
      2.74876747e-02 0. 0. 0. 0. 0. 3.02364439e-01 0. 0. 0. 0. 0. 0. 0.
      0. 0. 0. 0. 0. 0. 0. 0. 0. 0. 0. 0. 0. 0. 0. 0. 0. 0. 0. 0. 0. 0.
      0. 0. 0. 0. 0. 0. 9.20837164e-01 1.44337565e-01 1.44337565e-01
      9.62250456e-02 1.92450091e-01 4.81125228e-02 0. 0. 1.44337565e-01
      9.62250456e-02 0. 0. 0. 4.81125228e-02 0. 1.92450091e-01
      2.40562618e-01 4.81125228e-02 0. 0. 0. 0. 0. 0. 0. 4.81125228e-02
      4.81125228e-02 0. 0. 4.81125228e-02 0. 9.62250456e-02
      9.62250456e-02 0. 0. 4.81125228e-02 0. 0. 0. 4.81125228e-02 0.
      4.81125228e-02 0. 0. 0. 0. 0. 0. 0. 2.40562618e-01 0. 0. 0. 0. 0.
      0. 0. 1.44337565e-01 0. 0. 4.81125228e-02 9.62250456e-02 0.
      9.62250456e-02 0. 4.81125228e-02 0. 0. 0. 0. 0. 0. 0. 0. 0.
      4.81125228e-02 0. 0. 0. 0. 0. 0. 0. 0. 0. 0. 0. 0. 0. 0. 0. 0. 0.
      0. 0. 0. 0. 9.62250456e-02 0. 0. 4.81125228e-02 4.81125228e-02 0.
      0. 0. 0. 0. 0. 0. 0. 0. 0. 0. 1.92450091e-01 0. 0. 0. 0. 0. 0. 0.
      2.40562618e-01 0. 0. 0. 1.44337565e-01 0. 9.62250456e-02 0.
      4.81125228e-02 9.62250456e-02 4.81125228e-02 9.62250456e-02
      4.81125228e-02 0. 0. 9.62250456e-02 0. 0. 0. 0. 0. 0. 0.
      9.62250456e-02 0. 0. 0. 4.81125228e-02 0. 0. 0. 0. 0. 0. 0. 0. 0.
      0. 0. 0. 0. 9.62250456e-02 4.81125228e-02 0. 0. 0. 0. 0. 0. 0. 0.
      0. 0. 0. 0. 0. 0. 0. 0. 0. 0. 0. 0. 0. 0. 4.81125228e-02 0. 0. 0.
      4.81125228e-02 0. 0. 0. 4.81125228e-02 0. 3.36787671e-01 0. 0. 0.
      0. 0. 0. 0. 0. 0. 0. 4.81125228e-02 4.81125228e-02 0. 0. 0. 0. 0.
      0. 0. 0. 0. 0. 0. 0. 0. 4.81125228e-02 4.81125228e-02 0.
      1.44337565e-01 2.88675129e-01 0. 1.44337565e-01 0. 4.81125228e-02
      4.81125228e-02 4.81125228e-02 0. 0. 0. 0. 0. 0. 4.81125228e-02
      4.81125228e-02 4.81125228e-02 1.44337565e-01 0. 0. 0.
      4.81125228e-02 0. 0. 2.40562618e-01 4.81125228e-02 0. 0. 0.
      9.62250456e-02 4.81125228e-02 2.88675129e-01</_>
    <_>
      3.62929910e-01 5.98648667e-01 7.14073956e-01 0. 0. 0. 0. 0. 0. 0.
      0. 0. 0. 0. 0. 0. 0. 0. 0. 0. 0. 0. 0. 0. 0. 0. 0. 0. 0. 0. 0. 0.
      0. 0. 0. 0. 0. 0. 0. 0. 0. 0. 0. 0. 0. 0. 0. 0. 0. 0. 0. 0. 0.
      4.47661467e-02 8.95322919e-01 0. 0. 0. 0. 0. 2.23830730e-01 0. 0.
      0. 0. 0. 0. 0. 0. 0. 0. 0. 0. 0. 0. 0. 0. 0. 0. 0. 0. 0. 0. 0. 0.
      0. 0. 0. 0. 0. 0. 0. 0. 0. 0. 0. 3.58129174e-01 1.34298444e-01 0.
      0. 0. 0. 0. 0. 0. 0. 0. 0. 0. 0. 0. 0. 0. 0. 0. 0. 0. 0. 0. 0. 0.
      0. 0. 0. 0. 0. 0. 0. 0. 0. 0. 0. 0. 0. 0. 0. 0. 0. 0. 0. 0. 0. 0.
      0. 0. 0. 0. 0. 0. 0. 0. 0. 0. 0. 0. 0. 0. 0. 0. 0. 0. 0. 0. 0. 0.
      0. 0. 0. 0. 0. 0. 0. 0. 0. 0. 0. 0. 0. 0. 0. 0. 0. 0. 0. 0. 0. 0.
      0. 0. 0. 0. 0. 0. 0. 0. 0. 0. 0. 0. 0. 0. 0. 0. 0. 0. 0. 0. 0. 0.
      0. 0. 0. 0. 0. 0. 0. 0. 0. 0. 2.40771711e-01 0. 0. 1.20385855e-01
      0. 0. 2.40771711e-01 2.40771711e-01 1.20385855e-01 0. 0. 0.
      1.20385855e-01 0. 3.61157566e-01 1.20385855e-01 1.20385855e-01 0.
      0. 0. 0. 0. 0. 0. 1.20385855e-01 0. 0. 0. 0. 0. 0. 0. 0. 0. 0. 0.
      0. 0. 0. 0. 0. 0. 0. 0. 0. 0. 0. 0. 0. 0. 0. 0. 0. 0. 0. 0. 0. 0.
      0. 0. 0. 0. 0. 0. 1.20385855e-01 0. 0. 0. 0. 0. 0. 0. 0. 0. 0. 0.
      0. 0. 0. 0. 0. 0. 0. 0. 0. 0. 0. 0. 0. 0. 0. 0. 0. 0. 0. 0. 0. 0.
      0. 0. 0. 0. 0. 0. 0. 0. 0. 0. 0. 0. 0. 0. 0. 0. 1.20385855e-01 0.
      0. 0. 0. 0. 1.20385855e-01 0. 0. 0. 0. 0. 0. 0. 1.20385855e-01 0.
      0. 3.61157566e-01 1.20385855e-01 1.20385855e-01 0. 4.81543422e-01
      0. 0. 0. 0. 0. 0. 1.20385855e-01 1.20385855e-01 0. 0. 0. 0. 0. 0.
      0. 0. 0. 0. 0. 0. 0. 0. 0. 0. 0. 0. 0. 0. 0. 0. 0. 0. 0. 0. 0. 0.
      0. 0. 0. 0. 1.20385855e-01 0. 0. 0. 0. 0. 0. 0. 0. 0. 0. 0. 0. 0.
      0. 0. 1.20385855e-01 0. 0. 0. 0. 0. 0. 2.40771711e-01 0. 0. 0. 0.
      0. 0. 0. 0. 0. 0. 0. 0. 0. 0. 0. 0. 0. 0. 0. 0. 0. 0. 0. 0. 0. 0.
      0. 0. 0. 0. 0. 0. 1.20385855e-01 0. 0. 0. 0. 0. 0. 1.20385855e-01
      0. 0. 0. 0. 0. 0. 0. 0. 1.20385855e-01 0. 0. 0. 0. 0. 0. 0.</_>
    <_>
      5.48047602e-01 5.83347082e-01 5.99458158e-01 0. 0. 0. 0. 0. 0. 0.
      0. 0. 0. 0. 0. 0. 0. 0. 0. 0. 0. 0. 0. 0. 0. 0. 0. 0. 0. 0. 0. 0.
      0. 0. 0. 0. 0. 0. 0. 0. 0. 0. 0. 0. 0. 0. 0. 0. 0. 0. 0. 0. 0. 0.
      0. 0. 0. 0. 0. 0. 0. 0. 0. 0. 0. 0. 0. 0. 0. 0. 0. 0. 0. 0. 0. 0.
      0. 0. 0. 0. 0. 0. 0. 0. 0. 0. 0. 0. 0. 0. 0. 0. 0. 0. 0. 0.
      1.30188912e-01 0. 0. 0. 0. 0. 0. 0. 0. 0. 0. 0. 0. 0. 0. 0. 0. 0.
      0. 0. 0. 0. 0. 0. 0. 0. 0. 0. 0. 0. 0. 0. 0. 0. 0. 0. 0.
      6.50944561e-02 0. 0. 0. 0. 0. 5.20755649e-01 0. 0. 0. 0. 0. 0. 0.
      0. 0. 0. 0. 0. 0. 0. 0. 0. 0. 0. 0. 0. 0. 0. 0. 0. 0. 0. 0. 0. 0.
      0. 0. 0. 0. 0. 0. 3.90566736e-01 6.50944561e-02 0. 0. 0. 0. 0.
      1.95283368e-01 0. 0. 0. 0. 0. 0. 0. 0. 0. 0. 0. 0. 0. 0. 0. 0. 0.
      0. 0. 0. 0. 0. 0. 0. 0. 0. 0. 0. 0. 0. 0. 0. 0. 0. 0.
      7.16039002e-01 2.94883907e-01 1.47441953e-01 1.47441953e-01 0.
      1.47441953e-01 0. 0. 0. 0. 0. 1.47441953e-01 0. 0. 0. 0. 0. 0. 0.
      0. 0. 0. 0. 0. 0. 1.47441953e-01 0. 0. 0. 1.47441953e-01 0.
      1.47441953e-01 0. 1.47441953e-01 0. 0. 0. 0. 0. 0. 0. 0. 0. 0. 0.
      1.47441953e-01 0. 0. 0. 1.47441953e-01 0. 0. 0. 0. 0. 0. 0.
      1.47441953e-01 0. 0. 0. 1.47441953e-01 0. 2.94883907e-01 0. 0. 0.
      0. 0. 0. 0. 0. 0. 0. 0. 0. 0. 0. 0. 0. 0. 0. 0. 0. 0. 0. 0. 0. 0.
      0. 0. 0. 0. 0. 0. 0. 0. 0. 0. 0. 0. 0. 0. 0. 0. 0. 0. 0.
      1.47441953e-01 0. 0. 0. 0. 1.47441953e-01 0. 0. 0. 0. 0. 0. 0. 0.
      0. 0. 0. 0. 0. 0. 0. 0. 0. 0. 2.94883907e-01 0. 0. 0.
      1.47441953e-01 0. 0. 0. 0. 0. 0. 0. 1.47441953e-01 0. 0. 0. 0. 0.
      0. 0. 0. 0. 0. 0. 0. 0. 0. 0. 0. 0. 0. 0. 0. 0. 0. 0. 0. 0. 0. 0.
      0. 0. 0. 0. 0. 0. 0. 0. 0. 0. 0. 0. 0. 0. 0. 0. 0. 0. 0. 0. 0. 0.
      1.47441953e-01 0. 2.94883907e-01 0. 0. 1.47441953e-01
      1.47441953e-01 0. 0. 0. 0. 0. 0. 0. 0. 0. 0. 0. 0. 0. 0. 0. 0. 0.
      0. 0. 0. 0. 0. 0. 0. 4.42325860e-01 1.47441953e-01 0. 0. 0. 0. 0.
      0. 0. 0. 0. 0. 0. 0. 0. 0. 1.47441953e-01 0. 0. 0. 0. 0. 0. 0. 0.
      0. 0. 0. 0. 0. 0. 0.</_>
    <_>
      5.28920710e-01 5.86482704e-01 6.13417447e-01 0. 0. 0. 0. 0. 0. 0.
      0. 3.50715294e-02 0. 0. 0. 0. 0. 1.75357647e-02 0. 0. 0. 0. 0. 0.
      0. 0. 0. 0. 0. 0. 0. 0. 0. 0. 0. 0. 0. 0. 0. 0. 0. 0. 0. 0. 0. 0.
