<?xml version="1.0"?>
<opencv_storage>
<opencv_ml_svm>
  <format>3</format>
  <svmType>C_SVC</svmType>
  <kernel>
    <type>RBF</type>
    <gamma>5.0625000000000009e-01</gamma></kernel>
  <C>5.0000000000000000e-01</C>
  <term_criteria><iterations>100</iterations></term_criteria>
  <var_count>475</var_count>
  <class_count>2</class_count>
  <class_labels type_id="opencv-matrix">
    <rows>2</rows>
    <cols>1</cols>
    <dt>i</dt>
    <data>
      1 2</data></class_labels>
  <sv_total>10</sv_total>
  <support_vectors>
    <_>
      4.50659454e-01 5.94547212e-01 6.65897608e-01 0. 0. 0. 0. 0. 0. 0.
      4.42259051e-02 1.87960088e-01 0. 0. 0. 0. 0. 4.69900221e-02 0. 0.
      0. 0. 0. 0. 0. 0. 0. 0. 0. 0. 0. 0. 0. 0. 0. 0. 0. 0. 0. 0. 0. 0.
      0. 0. 0. 0. 1.65847149e-02 1.52026549e-01 0. 0. 0. 0. 0.
      6.24690890e-01 4.06325519e-01 0. 0. 0. 0. 0. 4.97541428e-02 0. 0.
      0. 0. 0. 0. 0. 0. 0. 0. 0. 0. 0. 0. 0. 0. 0. 0. 0. 0. 0. 0. 0. 0.
      0. 0. 0. 0. 8.29235762e-02 1.82431862e-01 0. 0. 0. 0.
      2.76411907e-03 4.56079632e-01 7.18670934e-02 0. 0. 0. 0. 0.
      8.29235744e-03 0. 0. 0. 0. 0. 0. 0. 0. 0. 0. 0. 0. 0. 0. 0. 0. 0.
      0. 0. 0. 0. 0. 0. 0. 0. 0. 0. 0. 9.67441648e-02 9.12159309e-02 0.
      0. 0. 0. 0. 2.54298955e-01 5.52823814e-03 0. 0. 0. 0. 0. 0. 0. 0.
      0. 0. 0. 0. 0. 0. 0. 0. 0. 0. 0. 0. 0. 0. 0. 0. 0. 0. 0. 0. 0. 0.
      0. 0. 0. 0. 1.46498308e-01 1.02272406e-01 0. 0. 0. 0.
      2.76411907e-03 7.73953348e-02 0. 0. 0. 0. 0. 0. 0. 0. 0. 0. 0. 0.
      0. 0. 0. 0. 0. 0. 0. 0. 0. 0. 0. 0. 0. 0. 0. 0. 0. 5.52823814e-03
      0. 0. 0. 0. 0. 7.46312141e-02 2.45268494e-01 1.29088685e-02
      1.03270948e-01 8.39076489e-02 2.58177370e-02 0. 7.09987730e-02
      1.35543123e-01 2.58177370e-02 1.29088685e-02 6.45443425e-03 0.
      6.45443425e-02 0. 2.00087458e-01 1.03270948e-01 1.29088685e-02
      6.45443425e-03 1.29088685e-02 6.45443425e-03 0. 0. 0.
      6.45443425e-03 5.80899082e-02 6.45443425e-03 1.29088685e-02 0.
      9.03620794e-02 1.29088685e-02 2.38814071e-01 9.03620794e-02
      1.35543123e-01 1.29088685e-02 1.29088685e-02 1.29088685e-02
      6.45443425e-03 0. 6.45443425e-03 0. 0. 6.45443425e-03 0. 0.
      1.29088685e-02 6.45443425e-03 1.29088685e-02 0. 5.16354740e-02
      6.45443425e-03 6.45443425e-03 0. 6.45443425e-03 0. 6.45443425e-03
      1.29088685e-02 1.48451984e-01 2.58177370e-02 0. 0. 1.80724159e-01
      6.45443425e-02 7.09987730e-02 4.51810397e-02 6.45443425e-03 0.
      1.93633027e-02 6.45443425e-03 6.45443425e-03 0. 0. 6.45443425e-03
      6.45443425e-03 0. 6.45443425e-03 0. 0. 6.45443425e-03
      2.58177370e-02 1.29088685e-02 0. 0. 0. 0. 0. 0. 0. 0.
      6.45443425e-03 0. 0. 0. 1.29088685e-02 0. 3.87266055e-02
      1.93633027e-02 9.68165100e-02 0. 6.45443425e-03 1.29088685e-02
      1.29088685e-02 0. 6.45443425e-03 0. 1.29088685e-02 0. 0. 0.
      6.45443425e-03 0. 1.29088685e-02 3.22721712e-02 1.03270948e-01 0.
      0. 1.29088685e-02 6.45443425e-03 0. 0. 6.45443425e-03
      5.16354740e-02 1.29088685e-02 0. 1.29088685e-02 4.51810397e-02
      1.93633027e-02 7.09987730e-02 9.03620794e-02 1.93633027e-02
      6.45443425e-02 6.45443425e-03 2.12996334e-01 0. 0. 1.29088685e-02
      1.22634247e-01 6.45443425e-03 0. 0. 1.29088685e-02 0.
      6.45443425e-03 1.29088685e-02 5.80899082e-02 6.45443425e-03 0. 0.
      1.93633027e-02 0. 0. 0. 2.58177370e-02 6.45443425e-03 0. 0.
      1.29088685e-02 0. 6.45443425e-03 6.45443425e-03 7.09987730e-02
      1.29088685e-02 1.29088685e-02 0. 1.29088685e-02 0. 0. 0.
      6.45443425e-03 0. 0. 0. 0. 0. 0. 0. 0. 6.45443425e-03
      6.45443425e-03 0. 1.93633027e-02 0. 6.45443425e-03 0.
      6.45443425e-03 6.45443425e-03 2.58177370e-02 0. 1.93633027e-02 0.
      6.45443425e-03 0. 3.87266055e-02 4.51810397e-02 1.74269721e-01
      1.29088685e-02 2.25905195e-01 2.58177370e-02 1.93633027e-02
      6.45443425e-03 8.39076489e-02 0. 0. 0. 0. 0. 1.29088685e-02
      1.93633027e-02 9.03620794e-02 0. 2.58177370e-02 0. 3.87266055e-02
      0. 0. 0. 1.29088685e-02 6.45443425e-03 0. 0. 3.87266055e-02
      2.58177370e-02 1.93633027e-02 3.22721712e-02 1.74269721e-01
      1.80724159e-01 2.12996334e-01 6.45443425e-03 7.09987730e-02
      4.51810397e-02 5.80899082e-02 1.29088685e-02 4.51810397e-02 0.
      1.29088685e-02 0. 6.45443425e-03 1.93633027e-02 5.16354740e-02
      1.93633027e-02 4.51810397e-02 9.68165100e-02 7.74532109e-02
      6.45443425e-03 6.45443425e-02 1.93633027e-02 1.93633027e-02
      1.29088685e-02 1.03270948e-01 3.87266055e-02 6.45443425e-02 0.
      6.45443425e-02 1.16179816e-01 1.67815298e-01 4.51810397e-02
      4.84082580e-01</_>
    <_>
      4.87966359e-01 5.82295656e-01 6.50246561e-01 0. 0. 0. 0. 0. 0. 0.
      0. 9.89553519e-03 0. 0. 0. 0. 0. 0. 0. 0. 0. 0. 0. 0. 0. 0. 0. 0.
      0. 0. 0. 0. 0. 0. 0. 0. 0. 0. 0. 0. 0. 0. 0. 0. 0. 0. 0.
      1.48433037e-02 0. 0. 0. 0. 0. 2.07806244e-01 2.72127241e-01 0. 0.
      0. 0. 0. 1.97910704e-02 0. 0. 0. 0. 0. 0. 0. 0. 0. 0. 0. 0. 0. 0.
      0. 0. 0. 0. 0. 0. 0. 0. 0. 0. 0. 0. 0. 0. 3.95821407e-02
      3.26552659e-01 0. 0. 0. 0. 0. 6.48157597e-01 2.52336144e-01 0. 0.
      0. 0. 0. 0. 0. 0. 0. 0. 0. 0. 0. 0. 0. 0. 0. 0. 0. 0. 0. 0. 0. 0.
      0. 0. 0. 0. 0. 0. 0. 0. 0. 0. 1.23694189e-01 2.62231708e-01 0. 0.
      0. 0. 0. 3.46343726e-01 1.97910704e-02 0. 0. 0. 0. 0. 0. 0. 0. 0.
      0. 0. 0. 0. 0. 0. 0. 0. 0. 0. 0. 0. 0. 0. 0. 0. 0. 0. 0. 0. 0. 0.
      0. 0. 0. 2.32545093e-01 1.18746430e-01 0. 0. 0. 0. 0.
      6.92687482e-02 0. 0. 0. 0. 0. 0. 0. 0. 0. 0. 0. 0. 0. 0. 0. 0. 0.
      0. 0. 0. 0. 0. 0. 0. 0. 0. 0. 0. 4.45299111e-02 2.96866074e-02 0.
      0. 0. 0. 4.94776759e-03 9.89553556e-02 2.65882224e-01
      2.12705787e-02 8.50823149e-02 8.50823149e-02 4.25411575e-02 0.
      1.38258755e-01 1.38258755e-01 1.16988182e-01 1.06352894e-02 0. 0.
      1.06352895e-01 0. 2.55246937e-01 1.16988182e-01 3.19058672e-02 0.
      0. 0. 0. 0. 0. 0. 7.44470283e-02 0. 0. 1.06352894e-02
      1.91435203e-01 1.06352894e-02 2.02070504e-01 3.19058672e-02
      9.57176015e-02 0. 0. 0. 1.06352894e-02 0. 0. 0. 2.12705787e-02 0.
      0. 0. 2.12705787e-02 0. 0. 0. 7.44470283e-02 1.06352894e-02
      2.12705787e-02 2.12705787e-02 0. 0. 1.06352894e-02 0.
      2.97788113e-01 4.25411575e-02 0. 3.19058672e-02 1.16988182e-01
      2.12705787e-02 2.12705787e-02 4.25411575e-02 3.19058672e-02 0. 0.
      0. 0. 0. 0. 0. 0. 0. 0. 1.06352894e-02 1.06352894e-02 0.
      2.12705787e-02 1.06352894e-02 0. 0. 0. 0. 0. 0. 0. 0. 0. 0. 0. 0.
      1.06352894e-02 0. 0. 0. 1.06352895e-01 0. 2.12705787e-02
      1.06352894e-02 0. 0. 1.06352894e-02 0. 1.06352894e-02 0. 0. 0. 0.
      0. 2.12705787e-02 1.06352894e-02 9.57176015e-02 0. 1.06352894e-02
      1.06352894e-02 0. 0. 1.06352894e-02 0. 3.08423400e-01
      1.06352894e-02 0. 0. 8.50823149e-02 2.12705787e-02 3.19058672e-02
      6.38117343e-02 9.57176015e-02 6.38117343e-02 0. 3.40329260e-01 0.
      0. 0. 1.70164630e-01 0. 1.06352894e-02 0. 0. 0. 0. 1.06352894e-02
      2.12705787e-02 0. 0. 0. 3.19058672e-02 0. 0. 0. 0. 0. 0. 0.
      2.12705787e-02 0. 1.06352894e-02 0. 3.19058672e-02 3.19058672e-02
      0. 0. 1.06352894e-02 1.06352894e-02 0. 0. 0. 0. 0. 0. 0. 0. 0.
      1.06352894e-02 0. 1.06352894e-02 0. 0. 1.06352894e-02 0. 0. 0.
      4.25411575e-02 0. 0. 0. 0. 0. 2.12705787e-02 0. 3.19058672e-02
      6.38117343e-02 1.59529343e-01 0. 1.91435203e-01 2.12705787e-02 0.
      1.06352894e-02 1.06352895e-01 1.06352894e-02 0. 0. 1.06352894e-02
      1.06352894e-02 2.12705787e-02 1.06352894e-02 1.06352894e-02
      1.06352894e-02 0. 0. 1.06352894e-02 0. 0. 0. 1.06352894e-02
      1.06352894e-02 0. 0. 0. 1.06352894e-02 0. 1.06352894e-02
      4.25411575e-02 2.87152827e-01 1.38258755e-01 0. 4.25411575e-02
      2.12705787e-02 0. 1.06352894e-02 1.06352894e-02 1.06352894e-02 0.
      0. 0. 1.06352894e-02 1.06352894e-02 2.12705787e-02 0.
      1.06352895e-01 6.38117343e-02 0. 5.31764477e-02 2.12705787e-02 0.
      1.06352894e-02 6.38117343e-02 0. 3.19058672e-02 0. 4.25411575e-02
      8.50823149e-02 4.25411575e-02 1.06352894e-02 2.02070504e-01</_>
    <_>
      4.65344131e-01 5.91162980e-01 6.58772528e-01 0. 3.90583277e-03 0.
      0. 0. 0. 0. 1.17174983e-02 1.52327478e-01 0. 0. 0. 0. 0.
      3.90583277e-03 0. 0. 0. 0. 0. 0. 0. 0. 0. 0. 0. 0. 0. 0. 0. 0. 0.
      0. 0. 0. 0. 0. 0. 0. 0. 0. 0. 0. 0. 5.07758260e-02 0. 0. 0. 0. 0.
      2.42161632e-01 5.03852427e-01 0. 0. 0. 0. 0. 3.51524949e-02 0. 0.
      0. 0. 0. 0. 0. 0. 0. 0. 0. 0. 0. 0. 0. 0. 0. 0. 0. 0. 0. 0. 0. 0.
      0. 0. 0. 0. 0. 1.44515812e-01 0. 0. 0. 0. 0. 5.15569925e-01
      2.73408294e-01 0. 0. 0. 0. 0. 2.34349966e-02 0. 0. 0. 0. 0. 0. 0.
      0. 0. 0. 0. 0. 0. 0. 0. 0. 0. 0. 0. 0. 0. 0. 0. 0. 0. 0. 0. 0.
      3.51524949e-02 1.83574140e-01 0. 0. 0. 0. 0. 4.29641634e-01
      5.07758260e-02 0. 0. 0. 0. 0. 0. 0. 0. 0. 0. 0. 0. 0. 0. 0. 0. 0.
      0. 0. 0. 0. 0. 0. 0. 0. 0. 0. 0. 0. 0. 0. 0. 0. 0. 1.36704147e-01
      1.48421645e-01 0. 0. 0. 0. 7.81166553e-03 1.48421645e-01 0. 0. 0.
      0. 0. 0. 0. 0. 0. 0. 0. 0. 0. 0. 0. 0. 0. 0. 0. 0. 0. 0. 0. 0. 0.
      0. 0. 0. 3.90583277e-03 0. 0. 0. 0. 0. 2.34349966e-02
      1.13269143e-01 3.29884112e-01 1.78315733e-02 8.02420825e-02
      8.91578645e-02 2.67473608e-02 0. 8.91578645e-02 1.33736804e-01
      8.91578645e-02 0. 3.56631465e-02 2.67473608e-02 4.45789322e-02
      8.91578663e-03 2.31810451e-01 1.87231526e-01 1.78315733e-02
      8.91578663e-03 8.91578663e-03 8.91578663e-03 0. 0. 8.91578663e-03
      8.91578663e-03 1.15905225e-01 0. 8.91578663e-03 0. 1.24821015e-01
      8.91578663e-03 1.33736804e-01 6.24105074e-02 1.51568368e-01
      8.91578663e-03 0. 0. 0. 0. 8.91578663e-03 8.91578663e-03
      8.91578663e-03 0. 0. 0. 8.91578663e-03 0. 8.91578663e-03 0.
      1.33736804e-01 0. 0. 2.67473608e-02 8.91578663e-03 0. 0. 0.
      2.05063090e-01 3.56631465e-02 1.78315733e-02 8.91578663e-03
      1.69399947e-01 4.45789322e-02 4.45789322e-02 2.67473608e-02
      4.45789322e-02 0. 0. 0. 8.91578663e-03 0. 8.91578663e-03
      8.91578663e-03 0. 0. 0. 0. 8.91578663e-03 0. 3.56631465e-02
      8.91578663e-03 0. 0. 0. 0. 0. 0. 0. 0. 8.91578663e-03 0. 0. 0.
      1.78315733e-02 0. 0. 1.78315733e-02 5.34947217e-02 8.91578663e-03
      0. 8.91578663e-03 8.91578663e-03 0. 0. 0. 0. 0. 0. 0. 0. 0.
      8.91578663e-03 2.67473608e-02 1.51568368e-01 0. 0. 8.91578663e-03
      1.78315733e-02 8.91578663e-03 0. 2.67473608e-02 2.05063090e-01
      2.67473608e-02 0. 1.78315733e-02 1.24821015e-01 0. 4.45789322e-02
      8.02420825e-02 7.13262931e-02 8.02420825e-02 4.45789322e-02
      2.49642029e-01 8.91578663e-03 8.91578663e-03 1.78315733e-02
      8.91578645e-02 0. 8.91578663e-03 0. 0. 0. 0. 0. 8.91578645e-02 0.
      0. 8.91578663e-03 8.91578663e-03 0. 0. 0. 0. 0. 8.91578663e-03 0.
      2.67473608e-02 8.91578663e-03 8.91578663e-03 8.91578663e-03
      8.02420825e-02 1.78315733e-02 8.91578663e-03 8.91578663e-03 0. 0.
      0. 0. 0. 0. 0. 0. 0. 0. 0. 0. 0. 0. 1.78315733e-02 0.
      8.91578663e-03 0. 0. 0. 1.78315733e-02 0. 8.91578663e-03 0.
      8.91578663e-03 0. 8.91578663e-03 0. 0. 1.15905225e-01
      1.51568368e-01 2.67473608e-02 2.22894669e-01 0. 0. 8.91578663e-03
      8.02420825e-02 0. 0. 0. 8.91578663e-03 1.78315733e-02 0.
      8.91578663e-03 6.24105074e-02 0. 0. 0. 3.56631465e-02
      8.91578663e-03 0. 0. 8.91578663e-03 0. 0. 0. 1.78315733e-02
      1.78315733e-02 8.91578663e-03 2.67473608e-02 8.02420825e-02
      2.49642029e-01 1.96147308e-01 0. 3.56631465e-02 3.56631465e-02
      1.78315733e-02 0. 6.24105074e-02 8.91578663e-03 0. 0. 0.
      2.67473608e-02 0. 8.91578663e-03 1.78315733e-02 2.31810451e-01
      7.13262931e-02 8.91578663e-03 1.33736804e-01 8.91578663e-03
      8.91578663e-03 0. 2.67473608e-02 5.34947217e-02 5.34947217e-02 0.
      2.67473608e-02 5.34947217e-02 6.24105074e-02 6.24105074e-02
      2.58557826e-01</_>
    <_>
      4.26010579e-01 5.85715890e-01 6.89530194e-01 0. 0. 0. 0. 0. 0. 0.
      3.29013765e-02 3.82162124e-01 0. 0. 0. 0. 0. 6.83336258e-02
      2.53087515e-03 0. 0. 0. 0. 0. 0. 0. 0. 0. 0. 0. 0. 0. 0. 0. 0. 0.
      0. 0. 0. 0. 0. 0. 0. 0. 0. 0. 0. 1.46790743e-01 0. 0. 0. 0. 0.
      6.07410014e-01 5.08705914e-01 0. 0. 0. 0. 0. 2.27778759e-02 0. 0.
      0. 0. 0. 0. 0. 0. 0. 0. 0. 0. 0. 0. 0. 0. 0. 0. 0. 0. 0. 0. 0. 0.
      0. 0. 0. 0. 1.77161247e-02 1.26543745e-01 0. 0. 0. 0. 0.
      3.39137256e-01 1.01234995e-01 0. 0. 0. 0. 0. 0. 0. 0. 0. 0. 0. 0.
      0. 0. 0. 0. 0. 0. 0. 0. 0. 0. 0. 0. 0. 0. 0. 0. 0. 0. 0. 0. 0. 0.
      6.58027530e-02 1.11358501e-01 0. 0. 0. 0. 0. 1.36667252e-01 0. 0.
      0. 0. 0. 0. 0. 0. 0. 0. 0. 0. 0. 0. 0. 0. 0. 0. 0. 0. 0. 0. 0. 0.
      0. 0. 0. 0. 0. 2.53087515e-03 0. 0. 0. 0. 0. 1.18951127e-01
      6.32718727e-02 0. 0. 0. 0. 0. 2.53087487e-02 0. 0. 0. 0. 0. 0. 0.
      0. 0. 0. 0. 0. 0. 0. 0. 0. 0. 0. 0. 0. 0. 0. 0. 0. 0. 0. 0. 0.
      2.53087515e-03 5.06175030e-03 0. 0. 0. 0. 2.53087515e-03
      5.06174974e-02 1.98509023e-01 1.24068139e-02 5.58306612e-02
      6.82374761e-02 0. 0. 3.72204408e-02 1.61288574e-01 8.68477002e-02
      0. 0. 0. 8.06442872e-02 0. 1.98509023e-01 2.10915834e-01
      6.20340696e-03 6.20340696e-03 0. 0. 0. 0. 0. 1.86102204e-02
      3.72204408e-02 0. 6.20340696e-03 6.20340696e-03 1.17864735e-01 0.
      7.44408816e-02 5.58306612e-02 4.34238501e-02 6.20340696e-03
      6.20340696e-03 6.20340696e-03 0. 0. 0. 1.24068139e-02 0. 0. 0. 0.
      0. 0. 6.20340696e-03 0. 5.58306612e-02 0. 0. 0. 0. 0.
      6.20340696e-03 1.24068139e-02 2.29526058e-01 1.24068139e-02
      1.24068139e-02 1.86102204e-02 1.05457917e-01 3.10170352e-02
      4.96272556e-02 7.44408816e-02 1.86102204e-02 6.20340696e-03 0. 0.
      0. 0. 0. 6.20340696e-03 1.86102204e-02 0. 0. 0. 1.24068139e-02 0.
      1.86102204e-02 2.48136278e-02 0. 0. 0. 0. 0. 0. 0. 0.
      6.20340696e-03 0. 0. 6.20340696e-03 1.24068139e-02 0.
      1.86102204e-02 1.24068139e-02 8.06442872e-02 0. 0. 6.20340696e-03
      1.24068139e-02 0. 1.24068139e-02 1.24068139e-02 1.24068139e-02 0.
      0. 0. 0. 0. 6.20340696e-03 1.86102204e-02 1.55085176e-01
      6.20340696e-03 6.20340696e-03 3.10170352e-02 1.86102204e-02 0.
      6.20340696e-03 3.72204408e-02 2.35729471e-01 4.34238501e-02
      6.20340696e-03 3.10170352e-02 8.68477002e-02 1.86102204e-02
      7.44408816e-02 1.17864735e-01 6.82374761e-02 6.20340705e-02
      1.24068139e-02 2.41932869e-01 0. 0. 6.20340696e-03 2.66746491e-01
      6.20340696e-03 0. 6.20340696e-03 0. 0. 1.24068139e-02
      1.24068139e-02 4.96272556e-02 6.20340696e-03 6.20340696e-03 0.
      1.86102204e-02 0. 0. 0. 3.72204408e-02 0. 6.20340696e-03 0.
      1.24068139e-02 1.24068139e-02 6.20340696e-03 0. 1.17864735e-01
      6.20340696e-03 0. 0. 1.86102204e-02 0. 0. 0. 0. 0. 0. 0. 0. 0. 0.
      0. 0. 6.20340696e-03 1.24068139e-02 0. 1.24068139e-02 0.
      6.20340696e-03 0. 6.20340696e-03 0. 1.86102204e-02 0.
      1.24068139e-02 0. 1.86102204e-02 0. 5.58306612e-02 7.44408816e-02
      1.24068141e-01 0. 1.55085176e-01 0. 1.24068139e-02 1.86102204e-02
      1.24068141e-01 1.24068139e-02 6.20340696e-03 0. 0. 0.
      3.10170352e-02 1.24068139e-02 6.82374761e-02 6.20340696e-03 0. 0.
      3.72204408e-02 0. 0. 0. 3.72204408e-02 0. 1.24068139e-02 0.
      3.10170352e-02 6.20340696e-03 6.20340696e-03 1.24068139e-02
      1.36474952e-01 2.04712436e-01 1.11661322e-01 0. 3.10170352e-02
      3.10170352e-02 6.20340696e-03 2.48136278e-02 5.58306612e-02
      6.20340696e-03 0. 0. 0. 1.24068139e-02 1.24068139e-02
      3.10170352e-02 2.48136278e-02 1.24068141e-01 3.10170352e-02
      6.20340696e-03 6.82374761e-02 1.24068139e-02 1.86102204e-02 0.
      8.68477002e-02 4.96272556e-02 1.11661322e-01 0. 6.20340705e-02
      5.58306612e-02 1.36474952e-01 3.72204408e-02 4.65255529e-01</_>
    <_>
      4.36131001e-01 5.96047938e-01 6.74178362e-01 0. 0. 0. 0. 0. 0. 0.
      1.00582048e-01 1.68718278e-01 0. 0. 0. 0. 0. 6.81362227e-02 0. 0.
      0. 0. 0. 0. 0. 0. 0. 0. 0. 0. 0. 0. 0. 0. 0. 0. 0. 0. 0. 0. 0. 0.
      0. 0. 0. 0. 0. 1.10315792e-01 0. 0. 0. 0. 0. 6.32693529e-01
      4.38018590e-01 0. 0. 0. 0. 0. 3.56904045e-02 0. 0. 0. 0. 0. 0. 0.
      0. 0. 0. 0. 0. 0. 0. 0. 0. 0. 0. 0. 0. 0. 0. 0. 0. 0. 0. 0. 0.
      4.86687347e-02 1.78452030e-01 0. 0. 0. 0. 0. 4.96421069e-01
      8.11145529e-02 0. 0. 0. 0. 0. 3.24458210e-03 0. 0. 0. 0. 0. 0. 0.
      0. 0. 0. 0. 0. 0. 0. 0. 0. 0. 0. 0. 0. 0. 0. 0. 0. 0. 0. 0. 0.
      6.16470613e-02 1.00582048e-01 0. 0. 0. 0. 0. 1.68718278e-01
      1.29783284e-02 0. 0. 0. 0. 0. 0. 0. 0. 0. 0. 0. 0. 0. 0. 0. 0. 0.
      0. 0. 0. 0. 0. 0. 0. 0. 0. 0. 0. 0. 0. 0. 0. 0. 0. 1.20049544e-01
      5.84024787e-02 0. 0. 0. 0. 0. 5.19133136e-02 0. 0. 0. 0. 0. 0. 0.
      0. 0. 0. 0. 0. 0. 0. 0. 0. 0. 0. 0. 0. 0. 0. 0. 0. 0. 0. 0. 0. 0.
      3.24458210e-03 0. 0. 0. 0. 0. 2.92012393e-02 1.88114271e-01
      2.45366432e-02 4.90732864e-02 4.90732864e-02 8.17888137e-03 0.
      2.45366432e-02 9.81465727e-02 8.99676979e-02 0. 0. 8.17888137e-03
      3.27155255e-02 0. 1.22683220e-01 1.22683220e-01 8.17888137e-03 0.
      0. 0. 0. 0. 0. 0. 1.63577627e-02 8.17888137e-03 8.17888137e-03 0.
      8.17888156e-02 4.90732864e-02 1.39040977e-01 1.14504337e-01
      5.72521687e-02 0. 0. 0. 8.17888137e-03 0. 8.17888137e-03
      1.63577627e-02 1.63577627e-02 0. 0. 0. 0. 0. 0. 8.17888137e-03
      5.72521687e-02 8.17888137e-03 0. 1.63577627e-02 0. 0.
      8.17888137e-03 8.17888137e-03 1.63577631e-01 2.45366432e-02 0.
      8.17888137e-03 1.39040977e-01 4.08944078e-02 7.36099333e-02
      6.54310510e-02 5.72521687e-02 0. 0. 0. 8.17888137e-03 0.
      8.17888137e-03 0. 0. 0. 0. 0. 8.17888137e-03 0. 3.27155255e-02
      8.17888137e-03 0. 0. 0. 0. 0. 0. 0. 0. 8.17888137e-03
      8.17888137e-03 0. 0. 1.63577627e-02 0. 8.17888137e-03
      3.27155255e-02 4.90732864e-02 8.17888137e-03 1.63577627e-02
      8.17888137e-03 8.17888137e-03 0. 1.63577627e-02 8.17888137e-03 0.
      0. 0. 0. 8.17888137e-03 8.17888137e-03 1.63577627e-02
      8.17888137e-03 1.39040977e-01 1.63577627e-02 0. 0. 3.27155255e-02
      8.17888137e-03 8.17888137e-03 1.63577627e-02 1.63577631e-01
      1.63577627e-02 0. 3.27155255e-02 1.22683220e-01 4.90732864e-02
      7.36099333e-02 8.99676979e-02 3.27155255e-02 4.08944078e-02
      2.45366432e-02 1.63577631e-01 0. 0. 0. 2.86260843e-01
      2.45366432e-02 8.17888137e-03 0. 0. 0. 0. 1.63577627e-02
      5.72521687e-02 8.17888137e-03 0. 0. 1.63577627e-02 0. 0.
      8.17888137e-03 4.90732864e-02 0. 1.63577627e-02 0. 8.17888137e-03
      8.17888137e-03 1.63577627e-02 0. 7.36099333e-02 0. 0. 0.
      8.17888137e-03 0. 0. 0. 8.17888137e-03 0. 0. 0. 0. 0.
      8.17888137e-03 0. 8.17888137e-03 8.17888137e-03 0. 0.
      1.63577627e-02 0. 0. 0. 1.63577627e-02 0. 1.63577627e-02 0.
      8.17888137e-03 0. 4.08944078e-02 0. 8.99676979e-02 9.81465727e-02
      9.81465727e-02 2.45366432e-02 2.12650910e-01 1.63577627e-02
      8.17888137e-03 0. 1.47219867e-01 8.17888137e-03 0. 0.
      1.63577627e-02 0. 0. 0. 7.36099333e-02 0. 0. 0. 3.27155255e-02 0.
      8.17888137e-03 0. 2.45366432e-02 0. 8.17888137e-03 0.
      3.27155255e-02 0. 4.08944078e-02 1.63577627e-02 2.12650910e-01
      1.88114271e-01 1.88114271e-01 1.63577627e-02 7.36099333e-02
      1.63577627e-02 8.17888137e-03 4.08944078e-02 8.99676979e-02 0.
      1.63577627e-02 0. 0. 8.17888137e-03 8.17888137e-03 8.17888137e-03
      7.36099333e-02 9.81465727e-02 8.17888156e-02 1.63577627e-02
      7.36099333e-02 2.45366432e-02 4.90732864e-02 1.63577627e-02
      8.99676979e-02 6.54310510e-02 1.06325455e-01 0. 1.14504337e-01
      7.36099333e-02 1.06325455e-01 6.54310510e-02 5.07090628e-01</_>
    <_>
      5.78544438e-01 5.78150332e-01 5.75350702e-01 0. 0. 0. 0. 0. 0. 0.
      0. 0. 0. 0. 0. 0. 0. 0. 0. 0. 0. 0. 0. 0. 0. 0. 0. 0. 0. 0. 0. 0.
      0. 0. 0. 0. 0. 0. 0. 0. 0. 0. 0. 0. 0. 0. 0. 0. 0. 0. 0. 0. 0. 0.
      0. 0. 0. 0. 0. 0. 0. 0. 0. 0. 0. 0. 0. 0. 0. 0. 0. 0. 0. 0. 0. 0.
      0. 0. 0. 0. 0. 0. 0. 0. 0. 0. 0. 0. 0. 0. 1.15061167e-03 0. 0. 0.
      0. 0. 8.05428158e-03 1.15061167e-03 0. 0. 0. 0. 0. 0. 0. 0. 0. 0.
      0. 0. 0. 0. 0. 0. 0. 0. 0. 0. 0. 0. 0. 0. 0. 0. 0. 0. 0. 0. 0. 0.
      0. 0. 5.75305801e-03 1.03555052e-02 0. 0. 0. 0. 0. 2.30122320e-02
      0. 0. 0. 0. 0. 0. 0. 0. 0. 0. 0. 0. 0. 0. 0. 0. 0. 0. 0. 0. 0. 0.
      0. 0. 0. 0. 0. 0. 0. 0. 0. 0. 0. 0. 0. 4.83256914e-02
      9.20489337e-03 0. 0. 0. 0. 1.15061167e-03 3.45183499e-02 0. 0. 0.
      0. 0. 0. 0. 0. 0. 0. 0. 0. 0. 0. 0. 0. 0. 0. 0. 0. 0. 0. 0. 0. 0.
      0. 0. 0. 1.61085632e-02 0. 0. 0. 0. 0. 1.49579514e-02
      9.97580290e-01 2.70904183e-01 6.58956170e-02 2.92869397e-02
      6.58956170e-02 2.92869397e-02 0. 6.58956170e-02 8.05390850e-02
      1.02504291e-01 7.32173491e-03 2.19652057e-02 3.66086736e-02
      2.92869397e-02 1.46434698e-02 1.83043376e-01 2.12330312e-01
      2.92869397e-02 7.32173491e-03 7.32173491e-03 1.46434698e-02
      7.32173491e-03 0. 7.32173491e-03 0. 3.66086736e-02 7.32173491e-03
      7.32173491e-03 3.66086736e-02 4.39304113e-02 0. 1.53756440e-01
      2.70904183e-01 3.66086736e-02 1.46434698e-02 0. 0. 1.46434698e-02
      0. 7.32173491e-03 0. 0. 0. 7.32173491e-03 0. 7.32173491e-03
      7.32173491e-03 1.46434698e-02 7.32173491e-03 7.32173473e-02
      2.19652057e-02 1.46434698e-02 1.46434698e-02 0. 0. 0. 0.
      1.17147759e-01 7.32173491e-03 1.46434698e-02 2.19652057e-02
      9.51825529e-02 1.46434698e-02 8.78608227e-02 8.78608227e-02
      2.19652057e-02 0. 1.46434698e-02 0. 0. 0. 0. 2.19652057e-02
      1.46434698e-02 0. 0. 0. 7.32173491e-03 0. 2.92869397e-02
      7.32173491e-03 0. 0. 0. 0. 0. 0. 0. 0. 0. 0. 0. 0. 0. 0.
      2.19652057e-02 2.19652057e-02 2.19652057e-02 7.32173491e-03 0.
      7.32173491e-03 2.19652057e-02 0. 0. 1.46434698e-02 0. 0. 0. 0.
      4.39304113e-02 0. 1.46434698e-02 2.19652057e-02 6.58956170e-02
      7.32173491e-03 0. 0. 1.46434698e-02 0. 0. 0. 1.90365106e-01 0. 0.
      7.32173491e-03 1.24469496e-01 7.32173491e-03 8.78608227e-02
      2.92869397e-02 1.09826021e-01 7.32173473e-02 0. 1.09826021e-01
      7.32173491e-03 0. 2.19652057e-02 2.70904183e-01 1.46434698e-02 0.
      0. 1.46434698e-02 0. 0. 0. 2.05008581e-01 1.46434698e-02
      7.32173491e-03 0. 2.19652057e-02 0. 0. 0. 1.46434698e-02
      2.92869397e-02 7.32173491e-03 0. 1.46434698e-02 0. 0.
      7.32173491e-03 9.51825529e-02 7.32173491e-03 0. 0. 0. 0. 0. 0.
      2.19652057e-02 0. 0. 0. 0. 7.32173491e-03 0. 0. 7.32173491e-03 0.
      3.66086736e-02 0. 1.46434698e-02 0. 0. 0. 7.32173491e-03
      7.32173491e-03 1.46434698e-02 0. 0. 7.32173491e-03 7.32173491e-03
      1.46434698e-02 5.12521453e-02 2.92869397e-02 5.12521453e-02
      1.46434698e-02 1.17147759e-01 1.46434698e-02 0. 1.46434698e-02
      1.83043376e-01 7.32173491e-03 0. 0. 0. 7.32173491e-03
      7.32173491e-03 7.32173491e-03 1.31791234e-01 0. 0. 0.
      7.32173491e-03 0. 0. 0. 0. 7.32173491e-03 1.46434698e-02 0.
      2.19652057e-02 7.32173491e-03 0. 0. 1.17147759e-01 1.17147759e-01
      8.78608227e-02 7.32173491e-03 7.32173473e-02 1.46434698e-02
      2.19652057e-02 2.19652057e-02 1.39112964e-01 2.19652057e-02
      1.46434698e-02 0. 7.32173491e-03 7.32173491e-03 7.32173491e-03 0.
      6.58956170e-02 1.68399900e-01 1.75721645e-01 7.32173491e-03
      1.24469496e-01 2.19652057e-02 7.32173491e-03 0. 7.32173473e-02
      1.46434695e-01 5.85738793e-02 0. 7.32173491e-03 1.02504291e-01
      9.51825529e-02 6.58956170e-02 4.02695417e-01</_>
    <_>
      5.85173607e-01 5.77045500e-01 5.69728315e-01 0. 0. 0. 0. 0. 0. 0.
      0. 0. 0. 0. 0. 0. 0. 0. 0. 0. 0. 0. 0. 0. 0. 0. 0. 0. 0. 0. 0. 0.
      0. 0. 0. 0. 0. 0. 0. 0. 0. 0. 0. 0. 0. 0. 0. 0. 0. 0. 0. 0. 0. 0.
      0. 0. 0. 0. 0. 0. 0. 0. 0. 0. 0. 0. 0. 0. 0. 0. 0. 0. 0. 0. 0. 0.
      0. 0. 0. 0. 0. 0. 0. 0. 0. 0. 0. 0. 0. 1.16398651e-03 0. 0. 0. 0.
      0. 0. 1.16398651e-03 0. 0. 0. 0. 0. 0. 0. 0. 0. 0. 0. 0. 0. 0. 0.
      0. 0. 0. 0. 0. 0. 0. 0. 0. 0. 0. 0. 0. 0. 0. 0. 0. 0. 0. 0.
      5.81993256e-03 1.16398651e-03 0. 0. 0. 0. 0. 2.32797302e-03 0. 0.
      0. 0. 0. 0. 0. 0. 0. 0. 0. 0. 0. 0. 0. 0. 0. 0. 0. 0. 0. 0. 0. 0.
      0. 0. 0. 0. 0. 0. 0. 0. 0. 0. 0. 1.04758795e-02 1.16398651e-03 0.
      0. 0. 0. 0. 5.81993256e-03 0. 0. 0. 0. 0. 0. 0. 0. 0. 0. 0. 0. 0.
      0. 0. 0. 0. 0. 0. 0. 0. 0. 0. 0. 0. 0. 0. 0. 6.98391953e-03 0. 0.
      0. 0. 0. 5.81993256e-03 9.99864459e-01 1.96004927e-01
      1.63337439e-02 4.90012318e-02 2.45006159e-02 8.16687196e-03 0.
      4.08343598e-02 8.16687196e-02 1.71504319e-01 0. 1.63337439e-02
      8.16687196e-03 5.71681038e-02 0. 1.30669951e-01 1.06169336e-01
      8.16687196e-03 0. 0. 0. 0. 0. 0. 0. 4.08343598e-02 3.26674879e-02
      8.16687196e-03 8.16687196e-03 6.53349757e-02 0. 5.71681038e-02
      1.87838048e-01 3.26674879e-02 8.16687196e-03 1.63337439e-02
      8.16687196e-03 8.16687196e-03 0. 0. 0. 8.16687196e-03 0. 0. 0. 0.
      0. 1.63337439e-02 0. 3.26674879e-02 1.63337439e-02 8.16687196e-03
      1.63337439e-02 0. 0. 2.45006159e-02 8.16687196e-03 8.98355916e-02
      8.16687196e-03 2.45006159e-02 8.16687196e-03 8.16687196e-02 0.
      9.80024636e-02 1.30669951e-01 1.63337439e-02 0. 8.16687196e-03
      8.16687196e-03 0. 0. 0. 0. 8.16687196e-03 0. 0. 0. 1.63337439e-02
      0. 8.16687196e-03 8.16687196e-03 0. 0. 0. 0. 0. 0. 0. 0.
      8.16687196e-03 0. 0. 0. 0. 0. 0. 1.63337439e-02 4.08343598e-02 0.
      8.16687196e-03 0. 0. 0. 8.16687196e-03 0. 2.45006159e-02 0.
      8.16687196e-03 0. 1.63337439e-02 0. 8.16687196e-03 8.16687196e-03
      6.53349757e-02 0. 1.63337439e-02 3.26674879e-02 8.16687196e-03 0.
      0. 1.63337439e-02 2.61339903e-01 0. 0. 8.16687196e-03
      2.20505536e-01 0. 8.98355916e-02 2.04171807e-01 1.30669951e-01
      4.90012318e-02 8.16687196e-03 7.35018477e-02 0. 8.16687196e-03
      4.90012318e-02 2.28672415e-01 4.08343598e-02 1.63337439e-02 0.
      2.45006159e-02 1.63337439e-02 0. 3.26674879e-02 1.87838048e-01
      1.63337439e-02 1.63337439e-02 0. 8.16687196e-03 0. 0. 0.
      1.63337439e-02 3.26674879e-02 0. 0. 3.26674879e-02 0. 0. 0.
      8.16687196e-02 2.45006159e-02 8.16687196e-03 0. 0. 0. 0. 0.
      1.63337439e-02 0. 0. 0. 0. 0. 0. 0. 0. 2.45006159e-02 0. 0.
      1.63337439e-02 0. 0. 0. 0. 3.26674879e-02 8.16687196e-03 0.
      8.16687196e-03 0. 0. 0. 2.45006159e-02 1.06169336e-01
      4.08343598e-02 8.16687196e-03 6.53349757e-02 1.63337439e-02
      8.16687196e-03 2.45006159e-02 1.87838048e-01 2.45006159e-02 0. 0.
      8.16687196e-03 0. 1.63337439e-02 0. 9.80024636e-02 0. 0. 0.
      1.63337439e-02 0. 0. 0. 8.16687196e-03 2.45006159e-02
      8.16687196e-03 8.16687196e-03 0. 0. 0. 0. 7.35018477e-02
      8.16687196e-02 4.08343598e-02 0. 1.06169336e-01 8.16687196e-03
      8.16687196e-03 8.16687196e-03 1.30669951e-01 3.26674879e-02
      1.63337439e-02 0. 0. 1.63337439e-02 8.16687196e-03 8.16687196e-03
      2.45006159e-02 1.87838048e-01 2.12338671e-01 0. 1.79671183e-01
      1.63337439e-02 0. 8.16687196e-03 2.04171807e-01 2.20505536e-01
      1.14336208e-01 0. 3.26674879e-02 9.80024636e-02 4.90012318e-02
      3.26674879e-02 3.83842975e-01</_>
    <_>
      5.85680127e-01 5.77173591e-01 5.69077730e-01 0. 0. 0. 0. 0. 0. 0.
      0. 0. 0. 0. 0. 0. 0. 0. 0. 0. 0. 0. 0. 0. 0. 0. 0. 0. 0. 0. 0. 0.
      0. 0. 0. 0. 0. 0. 0. 0. 0. 0. 0. 0. 0. 0. 0. 0. 0. 0. 0. 0. 0. 0.
      0. 0. 0. 0. 0. 0. 0. 0. 0. 0. 0. 0. 0. 0. 0. 0. 0. 0. 0. 0. 0. 0.
      0. 0. 0. 0. 0. 0. 0. 0. 0. 0. 0. 0. 0. 0. 0. 0. 0. 0. 0. 0. 0. 0.
      0. 0. 0. 0. 0. 0. 0. 0. 0. 0. 0. 0. 0. 0. 0. 0. 0. 0. 0. 0. 0. 0.
      0. 0. 0. 0. 0. 0. 0. 0. 0. 0. 0. 0. 0. 0. 0. 0. 0. 0. 0. 0. 0. 0.
      0. 0. 0. 0. 0. 0. 0. 0. 0. 0. 0. 0. 0. 0. 0. 0. 0. 0. 0. 0. 0. 0.
      0. 0. 0. 0. 0. 0. 0. 0. 0. 0. 0. 5.23544708e-03 0. 0. 0. 0. 0. 0.
      0. 0. 0. 0. 0. 0. 0. 0. 0. 0. 0. 0. 0. 0. 0. 0. 0. 0. 0. 0. 0. 0.
      0. 0. 0. 0. 0. 0. 0. 5.23544708e-03 0. 0. 0. 0. 0. 2.09417893e-03
      9.99970436e-01 1.84860885e-01 7.39443535e-03 4.43666130e-02
      4.43666130e-02 7.39443535e-03 0. 4.43666130e-02 3.69721763e-02
      8.87332261e-02 7.39443535e-03 7.39443535e-03 2.95777414e-02
      2.95777414e-02 0. 9.61276591e-02 2.07044184e-01 1.47888707e-02 0.
      0. 1.47888707e-02 0. 0. 0. 7.39443535e-03 5.17610461e-02 0.
      7.39443535e-03 0. 5.17610461e-02 0. 4.43666130e-02 2.29227498e-01
      5.91554828e-02 0. 2.95777414e-02 7.39443535e-03 0. 0.
      2.95777414e-02 7.39443535e-03 1.47888707e-02 0. 7.39443535e-03 0.
      0. 0. 0. 0. 8.13387856e-02 7.39443535e-03 7.39443535e-03
      2.21833065e-02 0. 0. 0. 7.39443535e-03 8.87332261e-02
      7.39443535e-03 2.95777414e-02 7.39443535e-03 9.61276591e-02
      1.47888707e-02 1.10916533e-01 1.25705406e-01 1.47888707e-02 0. 0.
      0. 0. 0. 0. 0. 1.47888707e-02 0. 0. 0. 7.39443535e-03 0.
      3.69721763e-02 7.39443535e-03 0. 0. 0. 0. 0. 0. 0. 0. 0. 0. 0. 0.
      0. 0. 0. 1.47888707e-02 5.17610461e-02 0. 2.21833065e-02 0. 0. 0.
      1.47888707e-02 0. 1.47888707e-02 0. 0. 0. 7.39443535e-03 0. 0.
      7.39443535e-03 5.91554828e-02 0. 0. 0. 7.39443535e-03 0. 0.
      7.39443535e-03 1.33099839e-01 0. 0. 0. 1.47888705e-01 0.
      8.87332261e-02 1.33099839e-01 9.61276591e-02 5.91554828e-02
      7.39443535e-03 7.39443526e-02 7.39443535e-03 7.39443535e-03
      1.47888707e-02 1.84860885e-01 5.17610461e-02 7.39443535e-03 0. 0.
      1.47888707e-02 0. 7.39443535e-03 1.40494272e-01 0. 7.39443535e-03
      0. 7.39443535e-03 0. 0. 0. 0. 7.39443535e-03 2.21833065e-02 0.
      1.47888707e-02 7.39443535e-03 0. 0. 1.03522092e-01 7.39443535e-03
      1.47888707e-02 0. 7.39443535e-03 0. 0. 0. 0. 0. 0. 0. 0. 0. 0. 0.
      0. 1.47888707e-02 7.39443535e-03 0. 7.39443535e-03 0. 0. 0.
      7.39443535e-03 0. 2.21833065e-02 7.39443535e-03 0. 1.47888707e-02
      0. 0. 7.39443526e-02 5.91554828e-02 5.91554828e-02 2.21833065e-02
      8.13387856e-02 1.47888707e-02 7.39443535e-03 1.47888707e-02
      2.44016364e-01 2.21833065e-02 1.47888707e-02 0. 0. 7.39443535e-03
      0. 1.47888707e-02 9.61276591e-02 1.47888707e-02 7.39443535e-03 0.
      0. 0. 0. 0. 0. 7.39443535e-03 0. 0. 7.39443535e-03 7.39443535e-03
      0. 0. 1.03522092e-01 1.10916533e-01 1.10916533e-01 2.21833065e-02
      1.18310966e-01 2.95777414e-02 7.39443535e-03 7.39443535e-03
      1.25705406e-01 2.21833065e-02 7.39443535e-03 0. 0. 1.47888707e-02
      0. 1.47888707e-02 6.65499195e-02 1.92255318e-01 2.95777410e-01
      7.39443535e-03 1.25705406e-01 1.47888707e-02 7.39443535e-03
      2.21833065e-02 8.87332261e-02 1.99649751e-01 1.10916533e-01
      7.39443535e-03 2.95777414e-02 1.55283138e-01 5.17610461e-02
      7.39443526e-02 4.65849429e-01</_>
    <_>
      5.86152256e-01 5.76967895e-01 5.68800151e-01 0. 0. 0. 0. 0. 0. 0.
      0. 0. 0. 0. 0. 0. 0. 0. 0. 0. 0. 0. 0. 0. 0. 0. 0. 0. 0. 0. 0. 0.
      0. 0. 0. 0. 0. 0. 0. 0. 0. 0. 0. 0. 0. 0. 0. 0. 0. 0. 0. 0. 0. 0.
      0. 0. 0. 0. 0. 0. 0. 0. 0. 0. 0. 0. 0. 0. 0. 0. 0. 0. 0. 0. 0. 0.
      0. 0. 0. 0. 0. 0. 0. 0. 0. 0. 0. 0. 0. 0. 0. 0. 0. 0. 0. 0. 0. 0.
      0. 0. 0. 0. 0. 0. 0. 0. 0. 0. 0. 0. 0. 0. 0. 0. 0. 0. 0. 0. 0. 0.
      0. 0. 0. 0. 0. 0. 0. 0. 0. 0. 0. 0. 0. 0. 0. 0. 0. 0. 0. 0. 0. 0.
      0. 0. 0. 0. 0. 0. 0. 0. 0. 0. 0. 0. 0. 0. 0. 0. 0. 0. 0. 0. 0. 0.
      0. 0. 0. 0. 0. 0. 0. 0. 0. 0. 0. 2.11862032e-03 0. 0. 0. 0. 0. 0.
      0. 0. 0. 0. 0. 0. 0. 0. 0. 0. 0. 0. 0. 0. 0. 0. 0. 0. 0. 0. 0. 0.
      0. 0. 0. 0. 0. 0. 0. 4.23724065e-03 0. 0. 0. 0. 0. 0.
      9.99988794e-01 1.90713033e-01 2.20053494e-02 3.66755836e-02
      4.40106988e-02 2.20053494e-02 0. 3.66755836e-02 7.33511671e-02
      1.17361866e-01 0. 7.33511662e-03 7.33511662e-03 5.13458177e-02 0.
      5.86809330e-02 1.02691635e-01 1.46702332e-02 0. 0. 7.33511662e-03
      7.33511662e-03 0. 0. 0. 5.13458177e-02 0. 0. 1.46702332e-02
      2.93404665e-02 7.33511662e-03 2.20053494e-02 1.46702334e-01
      5.13458177e-02 0. 2.20053494e-02 0. 0. 0. 1.46702332e-02 0.
      1.46702332e-02 0. 7.33511662e-03 0. 1.46702332e-02 0.
      7.33511662e-03 7.33511662e-03 2.93404665e-02 0. 0. 7.33511662e-03
      7.33511662e-03 0. 7.33511662e-03 1.46702332e-02 4.40106988e-02
      7.33511662e-03 7.33511662e-03 1.46702332e-02 8.80213976e-02 0.
      7.33511671e-02 1.83377922e-01 1.46702332e-02 7.33511662e-03
      7.33511662e-03 0. 7.33511662e-03 0. 0. 0. 1.46702332e-02 0. 0. 0.
      0. 7.33511662e-03 0. 1.46702332e-02 0. 0. 0. 0. 0. 0. 0. 0. 0. 0.
      0. 0. 0. 0. 1.46702332e-02 0. 3.66755836e-02 7.33511662e-03 0.
      1.46702332e-02 2.20053494e-02 0. 1.46702332e-02 0. 1.46702332e-02
      0. 0. 0. 2.20053494e-02 0. 1.46702332e-02 0. 1.46702332e-02 0. 0.
      7.33511662e-03 7.33511662e-03 0. 0. 2.93404665e-02 3.30080241e-01
      2.20053494e-02 0. 1.46702332e-02 2.56729096e-01 7.33511662e-03
      1.10026747e-01 1.54037446e-01 8.80213976e-02 9.53565165e-02
      2.20053494e-02 9.53565165e-02 1.46702332e-02 0. 2.93404665e-02
      2.12718382e-01 6.60160482e-02 3.66755836e-02 7.33511662e-03
      2.93404665e-02 3.66755836e-02 0. 2.20053494e-02 2.05383271e-01
      7.33511662e-03 7.33511662e-03 0. 7.33511662e-03 0. 0. 0.
      1.46702332e-02 2.93404665e-02 0. 0. 0. 0. 0. 0. 1.17361866e-01
      7.33511662e-03 7.33511662e-03 0. 7.33511662e-03 0. 7.33511662e-03
      0. 7.33511662e-03 0. 0. 0. 0. 0. 0. 0. 0. 1.46702332e-02
      1.46702332e-02 0. 1.46702332e-02 7.33511662e-03 0. 0.
      7.33511662e-03 2.20053494e-02 7.33511662e-03 7.33511662e-03 0.
      7.33511662e-03 7.33511662e-03 7.33511662e-03 7.33511671e-02
      5.13458177e-02 2.20053494e-02 7.33511662e-03 1.24696985e-01
      1.46702332e-02 0. 7.33511662e-03 2.05383271e-01 1.46702332e-02
      7.33511662e-03 0. 1.46702332e-02 7.33511662e-03 0. 7.33511662e-03
      7.33511671e-02 7.33511662e-03 0. 0. 0. 0. 0. 0. 7.33511662e-03 0.
      7.33511662e-03 0. 0. 7.33511662e-03 0. 7.33511662e-03
      5.86809330e-02 1.02691635e-01 8.06862861e-02 2.93404665e-02
      8.80213976e-02 7.33511662e-03 7.33511662e-03 7.33511662e-03
      8.06862861e-02 7.33511662e-03 0. 0. 0. 1.46702332e-02
      7.33511662e-03 2.20053494e-02 3.66755836e-02 1.24696985e-01
      1.17361866e-01 0. 1.39367223e-01 0. 0. 2.20053494e-02
      1.24696985e-01 1.98048145e-01 1.54037446e-01 0. 5.86809330e-02
      7.33511671e-02 2.20053494e-02 5.13458177e-02 4.84117687e-01</_>
    <_>
      5.80604017e-01 5.78680634e-01 5.72736979e-01 0. 0. 0. 0. 0. 0. 0.
      0. 0. 0. 0. 0. 0. 0. 0. 0. 0. 0. 0. 0. 0. 0. 0. 0. 0. 0. 0. 0. 0.
      0. 0. 0. 0. 0. 0. 0. 0. 0. 0. 0. 0. 0. 0. 0. 0. 0. 0. 0. 0. 0. 0.
      0. 0. 0. 0. 0. 0. 0. 0. 0. 0. 0. 0. 0. 0. 0. 0. 0. 0. 0. 0. 0. 0.
      0. 0. 0. 0. 0. 0. 0. 0. 0. 0. 0. 0. 0. 0. 0. 0. 0. 0. 0. 0.
      1.03029404e-02 1.87326199e-03 0. 0. 0. 0. 0. 0. 0. 0. 0. 0. 0. 0.
      0. 0. 0. 0. 0. 0. 0. 0. 0. 0. 0. 0. 0. 0. 0. 0. 0. 0. 0. 0. 0. 0.
      1.87326199e-03 2.80989287e-03 0. 0. 0. 0. 0. 1.96692515e-02 0. 0.
      0. 0. 0. 0. 0. 0. 0. 0. 0. 0. 0. 0. 0. 0. 0. 0. 0. 0. 0. 0. 0. 0.
      0. 0. 0. 0. 0. 0. 0. 0. 0. 0. 0. 2.24791430e-02 2.80989287e-03 0.
      0. 0. 0. 9.36630997e-04 1.31128337e-02 0. 0. 0. 0. 0. 0. 0. 0. 0.
      0. 0. 0. 0. 0. 0. 0. 0. 0. 0. 0. 0. 0. 0. 0. 0. 0. 0. 0.
      1.87326199e-03 0. 0. 0. 0. 0. 5.61978575e-03 9.99385297e-01
      1.71464965e-01 1.14309974e-02 5.14394864e-02 2.85774935e-02
      5.71549870e-03 0. 4.57239896e-02 4.57239896e-02 8.57324824e-02
      5.71549870e-03 0. 5.71549870e-03 7.43014812e-02 0. 3.42929922e-02
      4.00084928e-02 1.14309974e-02 5.71549870e-03 5.71549870e-03
      5.71549870e-03 0. 0. 0. 1.14309974e-02 2.85774935e-02
      5.71549870e-03 5.71549870e-03 5.71549870e-03 1.71464961e-02 0.
      7.43014812e-02 6.85859844e-02 4.00084928e-02 1.71464961e-02
      5.71549870e-03 5.71549870e-03 1.14309974e-02 0. 1.14309974e-02
      1.14309974e-02 5.71549870e-03 0. 5.71549870e-03 0. 0.
      5.71549870e-03 1.14309974e-02 0. 5.14394864e-02 2.85774935e-02 0.
      5.71549870e-03 5.71549870e-03 0. 0. 0. 1.60033971e-01
      1.14309974e-02 0. 2.28619948e-02 1.54318467e-01 5.71549870e-03
      6.85859844e-02 1.02878973e-01 1.71464961e-02 0. 1.14309974e-02 0.
      0. 0. 0. 5.71549870e-03 1.71464961e-02 0. 0. 0. 2.85774935e-02 0.
      5.71549870e-03 5.71549870e-03 5.71549870e-03 0. 0. 0. 0. 0. 0. 0.
      5.71549870e-03 0. 0. 0. 5.71549870e-03 0. 1.14309974e-02
      5.71549870e-03 5.14394864e-02 0. 0. 5.71549870e-03 1.14309974e-02
      0. 5.71549870e-03 5.71549870e-03 5.14394864e-02 0. 5.71549870e-03
      5.71549870e-03 5.71549870e-03 0. 1.14309974e-02 0. 5.14394864e-02
      5.71549870e-03 5.71549870e-03 5.71549870e-03 0. 0. 5.71549870e-03
      5.71549870e-03 4.45808887e-01 1.71464961e-02 1.14309974e-02
      1.14309974e-02 2.00042456e-01 1.14309974e-02 9.14479792e-02
      8.57324824e-02 9.14479792e-02 4.00084928e-02 2.28619948e-02
      7.43014812e-02 1.71464961e-02 0. 4.00084928e-02 2.17188954e-01
      5.71549870e-02 2.85774935e-02 0. 1.71464961e-02 5.71549870e-03 0.
      2.85774935e-02 1.31456465e-01 5.71549870e-03 5.71549870e-03 0.
      1.71464961e-02 0. 0. 5.71549870e-03 0. 1.14309974e-02
      1.14309974e-02 0. 1.71464961e-02 5.71549870e-03 0. 0.
      7.43014812e-02 0. 1.14309974e-02 0. 5.71549870e-03 0. 0. 0.
      5.71549870e-03 0. 0. 0. 0. 5.71549870e-03 5.71549870e-03 0.
      5.71549870e-03 1.14309974e-02 1.14309974e-02 0. 1.14309974e-02 0.
      0. 0. 2.28619948e-02 1.14309974e-02 5.71549870e-03 0. 0.
      1.14309974e-02 0. 0. 2.28619948e-02 6.85859844e-02 7.43014812e-02
      5.71549870e-03 6.28704876e-02 0. 0. 2.85774935e-02 1.48602962e-01
      0. 5.71549870e-03 0. 5.71549870e-03 1.71464961e-02 5.71549870e-03
      5.71549870e-03 7.43014812e-02 0. 5.71549870e-03 0. 0. 0. 0. 0. 0.
      5.71549870e-03 0. 5.71549870e-03 5.71549870e-03 5.71549870e-03
      1.14309974e-02 5.71549870e-03 4.57239896e-02 8.57324824e-02
      8.57324824e-02 5.71549870e-03 7.43014812e-02 0. 1.71464961e-02
      5.71549870e-03 9.71634760e-02 1.71464961e-02 5.71549870e-03 0. 0.
      5.71549870e-03 0. 5.71549870e-03 5.71549870e-02 1.48602962e-01
      1.42887473e-01 5.71549870e-03 9.71634760e-02 1.14309974e-02
      5.71549870e-03 0. 1.60033971e-01 2.17188954e-01 8.00169855e-02 0.
      4.00084928e-02 6.85859844e-02 7.43014812e-02 5.71549870e-02
      5.25825858e-01</_></support_vectors>
  <decision_functions>
    <_>
      <sv_count>10</sv_count>
      <rho>1.1270688789595178e-01</rho>
      <alpha>
        5.0000000000000000e-01 1.4015175362070437e-01
        4.1845623778755470e-01 2.2461258862877767e-01
        5.0000000000000000e-01 -5.6345854729040752e-02
        -5.0000000000000000e-01 -3.7642408538558858e-01
        -4.7308542337848047e-01 -3.7736521654392696e-01</alpha>
      <index>
        5 6 7 8 9 0 1 2 3 4</index></_></decision_functions></opencv_ml_svm>
</opencv_storage>
